1.112017482519149780e-01,-2.589959800243377686e-01,-5.107298493385314941e-01,-6.113759428262710571e-02,-2.850798964500427246e-01,-2.318723648786544800e-01,6.613647937774658203e-01,-8.951297402381896973e-02,-4.227459728717803955e-01,2.610983513295650482e-02,-1.474723368883132935e-01,-1.137067973613739014e-01,-2.964893281459808350e-01,8.220071792602539062e-01,1.248572245240211487e-01,-5.569455400109291077e-02,-4.915814474225044250e-02,9.597106277942657471e-02,-2.364065498113632202e-01,-3.571158051490783691e-01,-5.911761522293090820e-02,-2.884016633033752441e-01,1.893365755677223206e-02,-8.771744370460510254e-02,3.916961550712585449e-01,-1.998334676027297974e-01,-1.961445212364196777e-01,1.694547981023788452e-01,-2.136889658868312836e-02,-1.855610869824886322e-02,-3.259588479995727539e-01,-5.482842773199081421e-02,-3.837071955204010010e-01,-2.460098266601562500e-01,1.195767968893051147e-01,-5.058957934379577637e-01,3.850093483924865723e-01,2.419897820800542831e-03,-7.963162660598754883e-02,3.241103589534759521e-01,9.159467369318008423e-02,-7.668238133192062378e-02,3.463269770145416260e-02,1.774047762155532837e-01,-1.079251170158386230e-01,-1.044901832938194275e-01,-2.108098268508911133e-01,-2.377172410488128662e-01,-2.943437695503234863e-01,-2.988877296447753906e-01,-1.568052768707275391e-01,-6.228029727935791016e-01,-6.823580712080001831e-02,6.562947630882263184e-01,-3.107575774192810059e-01,-2.346146851778030396e-01,-2.505758404731750488e-01,-6.127283908426761627e-03,7.593843340873718262e-01,5.673472881317138672e-01,-2.458702325820922852e-01,1.127771019935607910e+00,-7.992061376571655273e-01,7.185595110058784485e-03
1.360425949096679688e-01,-1.038573160767555237e-01,1.675115823745727539e-01,9.556423174217343330e-04,-1.748347282409667969e-01,-1.733497232198715210e-01,-3.033470213413238525e-01,5.603421106934547424e-02,-1.525178849697113037e-01,5.614839028567075729e-03,-1.575064212083816528e-01,1.428702659904956818e-02,-1.884989254176616669e-02,-2.003959938883781433e-02,6.088946387171745300e-02,9.332453459501266479e-02,-3.574398532509803772e-02,-6.388705223798751831e-02,-1.361723095178604126e-01,2.658610045909881592e-02,-2.375699728727340698e-01,-1.844993084669113159e-01,9.244828484952449799e-03,-6.568320095539093018e-02,-1.288863122463226318e-01,7.563673704862594604e-02,-7.316114008426666260e-02,-3.207032009959220886e-02,-2.564728027209639549e-03,9.051303565502166748e-02,-1.935060694813728333e-02,-1.607217341661453247e-01,2.824303805828094482e-01,-1.689013838768005371e-01,-6.839586794376373291e-02,-1.895099431276321411e-01,-1.088480651378631592e-01,-1.116956025362014771e-01,-1.373179107904434204e-01,1.855968832969665527e-01,-1.255784183740615845e-01,-5.134711042046546936e-03,-1.826890110969543457e-01,-1.516393572092056274e-01,-2.340218722820281982e-01,-6.210350990295410156e-02,-6.502214074134826660e-02,-1.463597267866134644e-01,3.469231724739074707e-02,6.849396973848342896e-02,-6.099541860749013722e-05,7.440834492444992065e-02,-1.425915211439132690e-01,-5.976178497076034546e-02,6.258565187454223633e-02,-1.841161251068115234e-01,1.050199344754219055e-01,3.494621068239212036e-02,1.233366783708333969e-02,-2.028835415840148926e-01,9.739443659782409668e-02,-1.638317853212356567e-02,-3.754825517535209656e-02,-1.930267736315727234e-02
1.525983400642871857e-02,-1.312733441591262817e-01,2.434992641210556030e-01,-1.487351804971694946e-01,-8.934728801250457764e-02,-2.116408944129943848e-01,-2.259193733334541321e-02,-1.412529498338699341e-01,5.379587039351463318e-02,6.796968728303909302e-02,-8.554527908563613892e-02,6.292350590229034424e-02,-1.876665502786636353e-01,4.603814333677291870e-02,1.278258115053176880e-01,1.755450516939163208e-01,-7.281505037099123001e-03,-9.870594739913940430e-02,-1.860281378030776978e-01,-2.247818931937217712e-02,-2.175757195800542831e-03,-1.453744154423475266e-02,-1.070966720581054688e-01,1.592815108597278595e-02,1.996064186096191406e-01,4.461963661015033722e-03,-4.510237276554107666e-02,-2.552634179592132568e-01,-1.406376156955957413e-02,-3.491952270269393921e-02,2.516665123403072357e-02,6.310474127531051636e-02,9.697534143924713135e-02,-5.518705397844314575e-02,-9.855160862207412720e-02,1.059445366263389587e-01,-3.693170249462127686e-01,8.439998328685760498e-02,1.082278136163949966e-02,-6.889979820698499680e-03,-2.634672522544860840e-01,4.857370629906654358e-02,-5.307962000370025635e-02,-2.475574426352977753e-02,-4.944571107625961304e-02,2.166747674345970154e-02,2.433696947991847992e-02,-7.055158168077468872e-02,-1.326256841421127319e-01,-2.535908222198486328e-01,-3.502616584300994873e-01,7.694370299577713013e-02,-1.323767006397247314e-01,-9.897533059120178223e-02,-3.172709047794342041e-02,-5.031588673591613770e-02,-5.954906344413757324e-02,-2.095254324376583099e-02,-5.601767823100090027e-02,-9.461056441068649292e-02,1.987058222293853760e-01,8.019610494375228882e-02,2.982732467353343964e-02,1.607808284461498260e-02
-1.488914638757705688e-01,-1.008060798048973083e-01,1.270577162504196167e-01,5.974182486534118652e-02,4.938470199704170227e-02,5.173236876726150513e-02,-1.177562773227691650e-01,8.915331214666366577e-02,3.255437687039375305e-02,6.256655603647232056e-02,-2.927072113379836082e-03,-1.268985569477081299e-01,-1.952610462903976440e-01,-2.155076563358306885e-01,-1.101731583476066589e-01,5.165015906095504761e-02,-6.881106644868850708e-03,4.118564072996377945e-03,-3.633321449160575867e-02,2.690923810005187988e-01,-9.636213630437850952e-02,1.043540658429265022e-03,-5.857765674591064453e-02,7.610215991735458374e-02,-1.821836680173873901e-01,9.758831560611724854e-02,-4.488670453429222107e-02,4.873751476407051086e-02,1.074486300349235535e-01,9.069517254829406738e-02,-6.214659288525581360e-02,-3.801149129867553711e-02,9.782677888870239258e-02,-1.237397431395947933e-03,1.574170403182506561e-02,-1.729260683059692383e-01,-4.220375325530767441e-03,-1.986653506755828857e-01,-1.586537808179855347e-01,9.988398104906082153e-02,3.182446956634521484e-02,1.129431743174791336e-02,-1.528683770447969437e-02,9.682099521160125732e-02,2.094149030745029449e-02,-1.130522694438695908e-02,-2.405481040477752686e-01,-1.789738535881042480e-01,-5.000858753919601440e-02,3.425264954566955566e-01,-9.078525751829147339e-02,2.354443259537220001e-02,-1.246766000986099243e-01,-1.006681993603706360e-01,2.433685399591922760e-02,9.284514188766479492e-02,1.628547534346580505e-02,4.026980325579643250e-02,-2.925990521907806396e-01,-1.177060529589653015e-01,4.244041070342063904e-02,-1.824248880147933960e-01,-1.656167507171630859e-01,1.181380525231361389e-01
2.767154872417449951e-01,3.800340369343757629e-02,-1.138739064335823059e-01,6.264457106590270996e-02,2.450339347124099731e-01,1.696450710296630859e-01,8.794072270393371582e-02,-5.016497522592544556e-02,1.957064718008041382e-01,6.881800293922424316e-02,-1.312829703092575073e-01,-5.972614884376525879e-02,-2.009065002202987671e-01,2.225701324641704559e-02,-6.008219346404075623e-02,8.298144489526748657e-02,-1.760285049676895142e-01,5.053195729851722717e-02,-2.452537566423416138e-01,-4.210181534290313721e-02,-9.685742855072021484e-02,-2.656070888042449951e-01,-1.673155650496482849e-02,9.552169591188430786e-03,-5.086929723620414734e-02,-4.018753394484519958e-02,-9.594508260488510132e-02,-1.665336824953556061e-02,5.700877401977777481e-03,-4.920097440481185913e-02,-3.462147712707519531e-02,-1.890867203474044800e-01,-1.457452774047851562e-01,1.238272339105606079e-01,9.194088727235794067e-02,-1.562682688236236572e-01,-1.144030913710594177e-01,1.647743955254554749e-02,5.821608379483222961e-02,-6.869916617870330811e-02,8.724030107259750366e-02,-1.168083846569061279e-01,-1.100748777389526367e-01,2.902357839047908783e-02,-1.303442716598510742e-01,-9.810055792331695557e-02,-6.760963797569274902e-02,-1.487800329923629761e-01,1.712263971567153931e-01,-2.118540704250335693e-01,1.004471480846405029e-01,6.056374311447143555e-02,-1.045775935053825378e-01,6.394159048795700073e-02,1.566930711269378662e-01,1.051585376262664795e-01,2.202615514397621155e-02,-4.316421598196029663e-02,1.431399434804916382e-01,3.614897653460502625e-02,7.428388297557830811e-02,9.634459018707275391e-02,-7.413290441036224365e-02,2.340604364871978760e-02
4.122101515531539917e-02,-5.900389701128005981e-02,-1.237201988697052002e-01,-1.320683863013982773e-02,-2.333412505686283112e-02,-3.963023889809846878e-03,1.675974428653717041e-01,-9.255127608776092529e-02,1.065359264612197876e-01,2.953747101128101349e-02,1.530128438025712967e-02,-1.606066972017288208e-01,5.028587765991687775e-03,-1.069894582033157349e-01,9.645506739616394043e-02,-1.014287993311882019e-01,-7.599706202745437622e-02,-4.585379268974065781e-03,7.988692820072174072e-02,-2.460755966603755951e-02,3.806567564606666565e-02,-2.262371480464935303e-01,-1.985051929950714111e-01,6.480781733989715576e-02,-9.952931851148605347e-02,-1.215089336037635803e-01,-6.759893149137496948e-03,-5.642277747392654419e-02,1.316303908824920654e-01,-8.719450235366821289e-02,-7.126746326684951782e-02,-1.196106523275375366e-01,-6.025133281946182251e-02,-1.716464525088667870e-03,-6.522893160581588745e-02,-1.791267693042755127e-01,7.272098213434219360e-02,5.955350399017333984e-02,-9.599307924509048462e-02,-2.486499585211277008e-02,-1.164310723543167114e-01,9.403444826602935791e-03,3.259224444627761841e-02,2.547378242015838623e-01,-1.499434560537338257e-01,2.669853530824184418e-02,-2.113271504640579224e-01,5.840659514069557190e-02,-3.735924512147903442e-02,2.828115522861480713e-01,-9.595393389463424683e-02,1.413961313664913177e-02,-8.157169818878173828e-02,8.191365748643875122e-02,3.242360055446624756e-02,-1.057331413030624390e-01,-1.439867019653320312e-01,-1.047123596072196960e-01,-3.479135036468505859e-02,9.327513724565505981e-02,-1.160851269960403442e-01,-1.084384694695472717e-01,-2.105148583650588989e-01,1.447497159242630005e-01
1.609759330749511719e-01,-3.567719459533691406e-02,-7.537777721881866455e-02,-2.680755779147148132e-02,1.073855310678482056e-01,3.625820204615592957e-02,-2.294421382248401642e-02,-1.173642873764038086e-01,-7.062777876853942871e-02,-9.246184676885604858e-02,4.417969286441802979e-02,1.044767275452613831e-01,3.804974853992462158e-01,6.754270941019058228e-02,1.702427864074707031e-01,2.323237620294094086e-02,-3.566629253327846527e-03,5.792312696576118469e-02,-6.987186148762702942e-03,9.321678429841995239e-02,-4.046930931508541107e-03,-3.652173792943358421e-03,-1.793351396918296814e-02,-7.817889004945755005e-02,1.320516318082809448e-01,-1.174051612615585327e-01,6.049204245209693909e-02,2.140544503927230835e-01,1.674373447895050049e-01,9.116001427173614502e-02,4.199164733290672302e-02,8.599584549665451050e-02,5.882117152214050293e-02,1.096562817692756653e-01,-4.304365441203117371e-02,-1.009260788559913635e-01,8.281219005584716797e-02,8.027109503746032715e-02,-1.322263032197952271e-01,5.751985311508178711e-02,1.237679924815893173e-02,-1.006061583757400513e-01,-5.666489899158477783e-02,2.252916246652603149e-01,4.278070479631423950e-02,4.959043115377426147e-02,-2.540316432714462280e-02,-4.662217944860458374e-02,2.393900416791439056e-02,1.576920971274375916e-03,2.649193629622459412e-02,-8.143665641546249390e-02,-4.353626072406768799e-02,-3.188390135765075684e-01,-9.420771151781082153e-02,-6.840586662292480469e-02,-5.395143851637840271e-02,-7.031187415122985840e-02,1.165076270699501038e-01,-1.972777768969535828e-02,-4.604609683156013489e-02,-5.067184567451477051e-02,-1.403799504041671753e-01,8.735062181949615479e-02
4.048813506960868835e-02,1.029802784323692322e-01,-9.164068847894668579e-03,6.735410541296005249e-02,6.278423964977264404e-02,1.531370282173156738e-01,4.371904209256172180e-02,-1.369035989046096802e-01,1.566962897777557373e-02,-1.454588770866394043e-01,1.661151647567749023e-01,-1.291671302169561386e-02,-2.159589380025863647e-01,-1.035869047045707703e-01,-5.275607481598854065e-02,-4.865236580371856689e-02,-1.427860707044601440e-01,6.557077914476394653e-02,3.962748497724533081e-02,4.869220405817031860e-02,2.325534261763095856e-02,1.677242964506149292e-01,-6.290214136242866516e-03,-1.720934757031500340e-03,1.252347230911254883e-01,2.192561142146587372e-02,1.351929306983947754e-01,-2.619912475347518921e-02,-1.239427947439253330e-03,4.790793731808662415e-02,-1.412721872329711914e-01,-8.726294338703155518e-02,-2.084156572818756104e-01,2.876820042729377747e-02,-1.178005710244178772e-01,5.357490107417106628e-02,-2.229222469031810760e-02,-2.060735672712326050e-01,-9.520516544580459595e-02,-2.161741554737091064e-01,1.926139891147613525e-01,5.648466572165489197e-02,4.541867226362228394e-02,-1.560891568660736084e-01,2.003713697195053101e-01,-5.286135897040367126e-02,-8.929011225700378418e-02,9.192030131816864014e-02,6.244301795959472656e-02,-5.629989877343177795e-02,-1.241370663046836853e-02,-2.090473426505923271e-03,-1.038958597928285599e-02,-1.482363343238830566e-01,-1.261820346117019653e-01,-1.296527832746505737e-01,-2.677680850028991699e-01,1.466362774372100830e-01,-6.516756862401962280e-02,7.097841054201126099e-02,7.330548018217086792e-02,-3.291322290897369385e-02,1.604384779930114746e-01,-1.294644623994827271e-01
5.169374495744705200e-02,-9.680347144603729248e-02,-1.802686974406242371e-02,5.026306957006454468e-02,-1.002398878335952759e-01,-1.905247271060943604e-01,-3.143442869186401367e-01,-4.469269886612892151e-02,-1.357031464576721191e-01,-1.121661365032196045e-01,-8.583135902881622314e-02,5.121931061148643494e-02,-1.286830306053161621e-01,1.004464775323867798e-01,1.401956826448440552e-01,-1.992391236126422882e-02,-1.432753503322601318e-01,3.412269055843353271e-02,1.025327295064926147e-01,3.126267194747924805e-01,-2.301447242498397827e-01,-1.009542308747768402e-02,1.198585480451583862e-01,2.066009864211082458e-02,6.218871101737022400e-02,-1.038484368473291397e-02,-6.438880413770675659e-02,4.778179898858070374e-02,3.261122107505798340e-02,1.000486016273498535e-01,-9.127405285835266113e-02,2.920369990170001984e-02,-3.457020223140716553e-02,-4.300484061241149902e-02,1.224907860159873962e-01,-6.841727346181869507e-02,-7.740650326013565063e-02,1.988971419632434845e-02,-1.300980150699615479e-01,-1.308759488165378571e-02,-1.084896847605705261e-01,-3.040137514472007751e-02,-2.061831057071685791e-01,-5.081577599048614502e-02,3.669421374797821045e-02,-1.276173442602157593e-01,-4.984498396515846252e-02,-1.427154988050460815e-01,2.641777880489826202e-02,-8.017086237668991089e-02,-8.264971524477005005e-02,-6.405023485422134399e-02,1.284617092460393906e-02,1.114234849810600281e-01,1.154645234346389771e-01,-2.682534456253051758e-01,1.513344347476959229e-01,-6.522557139396667480e-02,1.223563551902770996e-01,9.076565038412809372e-04,1.294486224651336670e-01,-4.687117412686347961e-02,-7.504446059465408325e-02,-7.520741317421197891e-03
-2.902414835989475250e-02,1.284657977521419525e-02,-1.430955082178115845e-01,-9.123805910348892212e-02,-8.999742567539215088e-02,2.839568071067333221e-02,-8.579890429973602295e-02,-7.423270493745803833e-02,-4.305529966950416565e-02,-6.152436137199401855e-02,-1.806702464818954468e-01,1.723672449588775635e-02,5.472430959343910217e-02,2.968149185180664062e-01,3.240766376256942749e-02,1.042617578059434891e-02,1.124707162380218506e-01,-9.502215683460235596e-02,3.688117116689682007e-02,-8.566007018089294434e-02,-2.636320702731609344e-02,1.344543546438217163e-01,1.150654405355453491e-01,-1.082989424467086792e-01,2.029392570257186890e-01,9.302423149347305298e-02,-1.346868574619293213e-01,-2.267077118158340454e-01,2.537518041208386421e-03,2.783882617950439453e-01,2.762044034898281097e-02,-1.813884973526000977e-01,-8.689964562654495239e-02,-1.366465836763381958e-01,-1.033741459250450134e-01,-8.278740942478179932e-02,-6.555465608835220337e-02,-4.342167824506759644e-02,-1.367069333791732788e-01,-4.187208414077758789e-02,8.978964388370513916e-02,1.081655248999595642e-01,-4.522049799561500549e-03,4.744715243577957153e-02,5.181119963526725769e-02,-7.894107140600681305e-03,1.813619583845138550e-02,-5.402664095163345337e-02,2.556033059954643250e-02,3.023135475814342499e-02,1.800417304039001465e-01,-1.334235221147537231e-01,-1.018415093421936035e-01,-7.970266044139862061e-02,-1.662697046995162964e-01,1.341813653707504272e-01,-1.193040609359741211e-01,-7.619440089911222458e-03,-1.010553091764450073e-01,-6.379012018442153931e-02,-2.388367652893066406e-01,-3.903428092598915100e-02,3.581618890166282654e-02,1.025665830820798874e-02
-1.415201723575592041e-01,-1.997049003839492798e-01,1.422904431819915771e-01,7.830435410141944885e-03,7.317545264959335327e-02,-1.005434393882751465e-01,-3.115845024585723877e-01,-9.380536526441574097e-02,2.853984944522380829e-03,-8.885929733514785767e-02,5.940582230687141418e-02,1.264609843492507935e-01,-1.198482289910316467e-01,-3.809238076210021973e-01,-3.374733626842498779e-01,-5.270132422447204590e-02,6.397856771945953369e-02,-1.849604099988937378e-01,1.807000339031219482e-01,8.115391433238983154e-02,-1.994823105633258820e-02,6.793903559446334839e-02,1.191541850566864014e-01,-3.243420273065567017e-02,-2.626986503601074219e-01,-1.932425796985626221e-01,-1.380746662616729736e-01,-2.075918018817901611e-01,6.195234600454568863e-03,8.458450436592102051e-02,1.229639202356338501e-01,1.023347228765487671e-01,9.073165245354175568e-03,-4.490318894386291504e-02,-1.232693940401077271e-01,-1.902193129062652588e-01,9.467328339815139771e-02,-7.364679872989654541e-02,7.554744184017181396e-02,2.095219045877456665e-01,1.070323958992958069e-02,7.166635245084762573e-02,-6.947826594114303589e-02,-2.360197007656097412e-01,1.960762143135070801e-01,1.078059375286102295e-01,-1.177755966782569885e-01,-6.118581071496009827e-02,1.261413246393203735e-01,-4.081752896308898926e-02,1.686613559722900391e-01,1.570434868335723877e-01,-1.365280151367187500e-01,-3.775569200515747070e-01,-9.168456494808197021e-02,6.055769696831703186e-02,1.039093136787414551e-01,-7.176761515438556671e-03,-2.896355092525482178e-01,-1.873577237129211426e-01,2.377067655324935913e-01,-2.844074964523315430e-01,-7.473947852849960327e-02,4.960955306887626648e-02
-2.315032668411731720e-02,-4.307588562369346619e-02,7.343126833438873291e-02,-1.663959026336669922e-01,-3.966872766613960266e-02,6.863579899072647095e-02,6.947261840105056763e-02,-2.385640516877174377e-03,-2.284270524978637695e-01,-1.982184685766696930e-02,-1.901959925889968872e-01,7.218857854604721069e-02,-2.070756703615188599e-01,-2.584267593920230865e-02,-5.422427132725715637e-02,1.097386255860328674e-01,2.681060880422592163e-02,5.279903113842010498e-02,-2.701368927955627441e-01,1.182818263769149780e-01,-3.908799588680267334e-02,-1.373256593942642212e-01,1.208534464240074158e-02,-2.327095344662666321e-02,9.466686099767684937e-02,-5.567182227969169617e-02,-1.049708649516105652e-01,5.048500839620828629e-03,-1.063374951481819153e-01,-1.201820671558380127e-01,-2.999868988990783691e-01,-1.662784069776535034e-01,-1.641254276037216187e-01,-8.734757453203201294e-02,4.292578995227813721e-02,8.954845834523439407e-04,-2.122880667448043823e-01,6.424380093812942505e-02,-9.173162281513214111e-02,-2.007917761802673340e-01,3.524424275383353233e-03,-3.111378103494644165e-02,-4.947332665324211121e-02,4.606447368860244751e-02,3.215621039271354675e-02,-9.817840158939361572e-02,1.601816564798355103e-01,7.417431473731994629e-02,-2.084838002920150757e-01,-1.823568642139434814e-01,-1.994495689868927002e-01,2.643071673810482025e-02,-1.548393443226814270e-02,-6.226767785847187042e-03,-2.055183500051498413e-01,7.685572654008865356e-02,-2.270101383328437805e-02,3.093429282307624817e-02,5.868656560778617859e-02,-1.203117221593856812e-01,1.029138267040252686e-01,6.451412290334701538e-02,1.564484685659408569e-01,6.689324043691158295e-03
4.879847913980484009e-02,-5.868753418326377869e-02,-1.475248932838439941e-01,-9.555893018841743469e-03,-1.413816213607788086e-01,-1.425068676471710205e-01,-8.565454185009002686e-02,-6.589979678392410278e-02,-1.007983013987541199e-01,-1.496443450450897217e-01,4.479838162660598755e-02,1.518861507065594196e-03,-1.550269424915313721e-01,-4.656596481800079346e-02,1.353231668472290039e-01,2.128766477108001709e-02,-3.497035428881645203e-02,-9.632737189531326294e-02,-7.935989648103713989e-02,-6.028510257601737976e-02,-1.841291040182113647e-01,-1.169628798961639404e-01,-8.559313416481018066e-02,-6.721463054418563843e-02,-6.685053557157516479e-02,-1.156396698206663132e-02,4.613743629306554794e-03,7.855413854122161865e-02,6.328582298010587692e-03,2.410293184220790863e-02,-6.116555258631706238e-02,-1.457812637090682983e-01,4.904107190668582916e-03,-2.199013084173202515e-01,-1.243427842855453491e-01,-7.142025232315063477e-02,1.000883430242538452e-02,-6.408854573965072632e-02,4.008032381534576416e-02,1.894273608922958374e-01,2.520660497248172760e-02,5.681716650724411011e-02,2.025812715291976929e-01,8.718806505203247070e-02,5.486678332090377808e-02,-1.206366159021854401e-02,1.777102798223495483e-01,-7.727200537919998169e-02,1.235402375459671021e-01,-3.016769699752330780e-02,-1.391297206282615662e-02,3.370985854417085648e-03,9.007725119590759277e-02,-3.909135237336158752e-02,-2.193641066551208496e-01,-8.000890165567398071e-02,1.302981227636337280e-01,-8.979906886816024780e-02,-7.657022029161453247e-02,9.895245730876922607e-02,-1.609211564064025879e-01,-1.183863580226898193e-01,-2.233950048685073853e-01,1.724662780761718750e-01
1.633531451225280762e-01,4.888948798179626465e-02,7.773987203836441040e-02,-1.173477768898010254e-01,-8.202842622995376587e-02,6.449178326874971390e-03,-4.874425940215587616e-04,-2.650353126227855682e-02,-9.009748697280883789e-02,3.392343968152999878e-02,-1.499023567885160446e-02,6.081792339682579041e-02,-1.629044860601425171e-01,-2.826324477791786194e-02,7.461834698915481567e-02,-1.013531386852264404e-01,6.043648719787597656e-02,1.738232932984828949e-02,-1.541649252176284790e-01,1.403092741966247559e-01,8.644385263323783875e-03,-1.668956577777862549e-01,-9.629428386688232422e-02,5.747473984956741333e-02,1.821680963039398193e-01,-4.097604379057884216e-02,1.417662203311920166e-01,-4.831563308835029602e-02,-2.032148391008377075e-01,5.957593023777008057e-02,4.407313093543052673e-02,-1.496320310980081558e-02,1.039763316512107849e-01,-4.524391517043113708e-02,2.949312627315521240e-01,1.632568426430225372e-02,-3.236253559589385986e-01,-1.530139744281768799e-01,-8.642756938934326172e-02,1.438079923391342163e-01,-2.340498417615890503e-01,3.205403313040733337e-02,1.954918801784515381e-01,-1.222964823246002197e-01,-1.032565161585807800e-01,-1.228217557072639465e-01,-1.047050282359123230e-01,-1.478585451841354370e-01,-6.554763019084930420e-02,-4.121260344982147217e-02,-1.497008372098207474e-02,-7.776353508234024048e-02,-6.798150390386581421e-02,-7.844129204750061035e-02,-9.924049675464630127e-02,-3.051775991916656494e-01,1.986213028430938721e-01,8.556926995515823364e-02,-5.919867753982543945e-02,5.527880042791366577e-02,-7.417619228363037109e-02,-1.360115259885787964e-01,9.012053161859512329e-02,9.063393622636795044e-02
1.135402545332908630e-01,-2.236179113388061523e-01,-1.310052126646041870e-01,-1.167982220649719238e-01,-1.279583722352981567e-01,-2.996591031551361084e-01,-7.812894135713577271e-02,-9.068457037210464478e-02,4.277288168668746948e-02,-5.551373586058616638e-03,-1.406894475221633911e-01,-1.600246131420135498e-01,-9.796691685914993286e-02,-3.063609302043914795e-01,1.012865975499153137e-01,-1.802226006984710693e-01,-1.042229402810335159e-02,1.612989604473114014e-02,-5.201488360762596130e-02,-7.926002144813537598e-02,-2.327050827443599701e-02,-5.819292366504669189e-02,-2.191379219293594360e-01,4.609917849302291870e-02,1.497924327850341797e-01,-1.865736544132232666e-01,-1.113273203372955322e-01,1.149838119745254517e-01,9.826043248176574707e-02,6.445792317390441895e-02,-6.260029971599578857e-02,-4.220765456557273865e-02,-4.258726909756660461e-02,-1.161139905452728271e-01,-1.275365352630615234e-01,2.251221425831317902e-02,7.446142286062240601e-02,8.771551400423049927e-02,9.181067347526550293e-03,1.182934641838073730e-02,-3.169107809662818909e-02,-1.462121456861495972e-01,6.817346811294555664e-02,-1.311812698841094971e-01,-7.803375367075204849e-03,-9.921578317880630493e-02,-2.324895001947879791e-02,-7.601711153984069824e-02,-1.705241650342941284e-01,-1.193769499659538269e-01,4.800155386328697205e-02,3.606885671615600586e-02,7.424157578498125076e-03,-5.542319267988204956e-02,2.689498662948608398e-02,-2.512020990252494812e-02,9.132287651300430298e-02,1.684900559484958649e-02,1.312447804957628250e-02,-4.837688431143760681e-02,-1.978286355733871460e-01,-7.263734191656112671e-02,-5.250374227762222290e-02,9.888871759176254272e-02
-8.264268934726715088e-02,-1.166407391428947449e-01,8.236812427639961243e-03,2.245322614908218384e-02,1.572076976299285889e-02,1.138613000512123108e-01,-1.213639080524444580e-01,6.564180552959442139e-02,3.383753821253776550e-02,-1.512239966541528702e-02,-1.497363597154617310e-01,8.950863778591156006e-02,-2.780531942844390869e-01,-1.939577609300613403e-01,-4.283454269170761108e-02,-3.193192929029464722e-02,-9.447496384382247925e-02,-9.842978417873382568e-02,-4.532857239246368408e-02,-9.380488097667694092e-02,1.918800175189971924e-02,-1.691354215145111084e-01,-1.756004691123962402e-01,-6.204491481184959412e-02,-8.085261797532439232e-04,-7.149419188499450684e-02,-9.813798218965530396e-02,-1.521153301000595093e-01,-1.403640061616897583e-01,2.356702089309692383e-01,6.561332195997238159e-02,-1.673514544963836670e-01,-2.223308533430099487e-01,-1.910545080900192261e-01,-1.215818151831626892e-01,-3.940136730670928955e-01,5.174964666366577148e-02,-1.492303013801574707e-01,-8.852759003639221191e-02,-1.191453188657760620e-01,-9.445273131132125854e-02,-9.711842983961105347e-03,-2.569253146648406982e-01,-1.938136368989944458e-01,-1.368390470743179321e-01,-9.547857195138931274e-02,-6.813177466392517090e-02,-2.750889770686626434e-02,-1.097953170537948608e-01,1.476919203996658325e-01,3.556923568248748779e-02,-2.985652349889278412e-02,1.429696008563041687e-02,-8.548668026924133301e-02,-1.277573704719543457e-01,-3.773412480950355530e-02,6.439119577407836914e-02,2.046003378927707672e-02,-7.381126284599304199e-02,-1.840926893055438995e-02,2.091646939516067505e-01,-1.525358557701110840e-01,-4.157761856913566589e-02,-6.152945756912231445e-02
2.732519432902336121e-02,1.195068582892417908e-01,1.465694457292556763e-01,-1.441428214311599731e-01,-9.446769952774047852e-02,-1.482310146093368530e-01,-7.655445486307144165e-02,9.733373299241065979e-03,5.051955580711364746e-02,2.914218418300151825e-02,-1.203729808330535889e-01,1.640745066106319427e-02,-2.459379881620407104e-01,-2.533137202262878418e-01,-8.913827687501907349e-02,2.521576285362243652e-01,-5.257797613739967346e-02,-1.819480806589126587e-01,7.489470392465591431e-02,4.279682412743568420e-02,2.316009439527988434e-02,-1.589819341897964478e-01,4.223615676164627075e-02,-3.146407753229141235e-02,-3.200774788856506348e-01,-2.150429040193557739e-01,4.348158836364746094e-03,-2.612918019294738770e-01,1.773946103639900684e-03,1.929550468921661377e-01,1.286636143922805786e-01,8.493875712156295776e-02,-3.055273927748203278e-02,-4.592090472579002380e-02,-1.632426232099533081e-01,-2.359392046928405762e-01,-3.581115603446960449e-02,4.797789826989173889e-02,-3.913130238652229309e-02,2.740446943789720535e-03,4.199455678462982178e-02,5.843398720026016235e-02,-1.071563512086868286e-01,5.150841176509857178e-02,-3.773926943540573120e-02,3.468452021479606628e-02,-3.057873845100402832e-01,-2.683368325233459473e-01,-7.798100262880325317e-02,-1.990389823913574219e-01,-1.598940491676330566e-01,-5.978139862418174744e-02,5.093169212341308594e-02,-5.054732784628868103e-02,1.168825477361679077e-01,-6.844851374626159668e-02,-3.616622462868690491e-02,1.477042138576507568e-01,-2.756883203983306885e-01,-1.703284233808517456e-01,1.032805908471345901e-02,-2.786741852760314941e-01,-7.582758367061614990e-02,2.736593186855316162e-01
1.989911794662475586e-01,-2.160214483737945557e-01,1.969026960432529449e-02,-7.343703508377075195e-02,-5.445068329572677612e-02,-1.675439029932022095e-01,5.586614087224006653e-02,-1.065098419785499573e-01,-1.409037709236145020e-01,-9.008694440126419067e-03,3.636330366134643555e-02,-1.064135730266571045e-01,-1.771785318851470947e-01,1.260129082947969437e-02,4.681027680635452271e-02,9.218472987413406372e-02,-6.527351588010787964e-02,-8.424699306488037109e-02,1.508050858974456787e-01,-7.604870479553937912e-03,-1.056955680251121521e-01,-3.291052952408790588e-02,1.456444412469863892e-01,-1.248051645234227180e-03,-9.205600619316101074e-02,-8.732967823743820190e-02,-1.769425123929977417e-01,-4.059284180402755737e-02,1.910694092512130737e-01,2.374053299427032471e-01,-1.576148904860019684e-02,-1.194165349006652832e-01,-1.689607352018356323e-01,-6.859961152076721191e-02,-1.501007527112960815e-01,1.118735671043395996e-01,1.288233846426010132e-01,8.601015806198120117e-02,-5.869655311107635498e-02,-7.793113589286804199e-02,1.185046322643756866e-02,-1.708230189979076385e-02,-2.397194057703018188e-01,-1.796039044857025146e-01,-1.113549992442131042e-01,-1.380480453372001648e-02,1.933333575725555420e-01,1.455203741788864136e-01,-1.270826756954193115e-01,1.111826226115226746e-01,-1.196998134255409241e-01,7.919830968603491783e-04,1.142964065074920654e-01,-1.261851340532302856e-01,-5.514390394091606140e-02,4.554282873868942261e-02,8.679650723934173584e-02,5.227128416299819946e-02,5.417956039309501648e-02,3.248394653201103210e-02,-1.237540096044540405e-01,5.212539434432983398e-02,-1.014401987195014954e-01,-2.382627874612808228e-02
9.783626347780227661e-02,6.261681206524372101e-03,2.088138610124588013e-01,3.717623278498649597e-02,-8.728519827127456665e-02,-1.004437059164047241e-01,1.215159706771373749e-02,-1.795542985200881958e-01,7.597249001264572144e-02,8.748777955770492554e-02,-1.177064999938011169e-01,-1.549616605043411255e-01,1.467581093311309814e-01,-1.214004531502723694e-01,-2.233063615858554840e-02,3.648033365607261658e-02,-2.526693791151046753e-02,-2.749664485454559326e-01,-2.340231649577617645e-02,-1.923918128013610840e-01,-2.445785850286483765e-01,-6.333765387535095215e-02,-9.344758838415145874e-02,1.089535877108573914e-01,-1.388055980205535889e-01,-1.208785399794578552e-01,-1.038247644901275635e-01,-6.083513796329498291e-02,2.307644039392471313e-01,1.760421246290206909e-01,-8.238715678453445435e-02,-6.877521425485610962e-02,-2.429708093404769897e-02,4.060762748122215271e-02,1.561471372842788696e-01,5.009807180613279343e-03,1.426300257444381714e-01,-3.242632150650024414e-01,-4.484227672219276428e-02,-2.274269014596939087e-01,1.187517866492271423e-01,-1.208370104432106018e-01,-7.817517220973968506e-02,-1.922860555350780487e-02,-7.938645035028457642e-02,-9.819890558719635010e-02,-1.574202179908752441e-01,-4.631184041500091553e-02,-2.677673697471618652e-01,1.590688079595565796e-01,-3.596608527004718781e-03,9.918123250827193260e-04,-1.493771970272064209e-01,3.275080025196075439e-02,-2.005639076232910156e-01,2.673611044883728027e-02,1.530468761920928955e-01,-6.394526362419128418e-02,1.847615540027618408e-01,-2.743125259876251221e-01,2.834106981754302979e-01,-1.163146342150866985e-03,-7.228526473045349121e-02,7.272142916917800903e-02
1.334579139947891235e-01,-1.095383688807487488e-01,2.130575478076934814e-02,8.480384200811386108e-02,7.937830686569213867e-02,9.253481775522232056e-02,-2.009003311395645142e-01,3.398377075791358948e-02,7.758098095655441284e-02,-9.011414647102355957e-02,4.364624246954917908e-02,-1.118875741958618164e-01,1.516729593276977539e-01,-1.152473166584968567e-01,-1.757648140192031860e-01,9.026185423135757446e-02,-8.137652277946472168e-02,2.013682276010513306e-01,5.036589689552783966e-03,-2.251341193914413452e-02,4.665308631956577301e-03,7.026695460081100464e-02,6.764494627714157104e-02,-1.059343069791793823e-01,-3.435954079031944275e-02,-5.392545089125633240e-02,-1.871025860309600830e-01,-6.675387173891067505e-02,-3.161907196044921875e-01,-5.881263688206672668e-02,-1.475117541849613190e-02,8.861302584409713745e-02,6.072029471397399902e-03,-3.710075095295906067e-02,7.554354518651962280e-02,6.027634069323539734e-02,-7.594526559114456177e-02,-2.267251461744308472e-01,8.057359606027603149e-03,1.634234786033630371e-01,-9.626234322786331177e-02,-1.074161976575851440e-01,-1.843182891607284546e-01,-1.955845504999160767e-01,5.476594343781471252e-02,3.043496422469615936e-02,-1.108919084072113037e-01,-4.149610549211502075e-02,2.075661867856979370e-01,6.595876067876815796e-02,-1.258517429232597351e-02,2.333732247352600098e-01,-1.249282136559486389e-01,1.391601115465164185e-01,-1.133611332625150681e-02,-1.544654369354248047e-01,8.098646998405456543e-02,-1.493689417839050293e-01,-1.079715117812156677e-01,-5.134363844990730286e-02,7.505506277084350586e-02,-8.829928934574127197e-02,8.722826838493347168e-02,-2.470507919788360596e-01
6.863999180495738983e-03,2.615089900791645050e-02,-8.496587723493576050e-02,-8.751340210437774658e-02,6.709574162960052490e-02,8.707964420318603516e-02,-1.785587668418884277e-01,-8.109158277511596680e-02,7.412125170230865479e-02,-1.897530406713485718e-01,-3.264399990439414978e-02,7.847985625267028809e-02,-6.775736063718795776e-02,1.084189191460609436e-01,-8.170609176158905029e-02,-3.422136977314949036e-02,-1.055937707424163818e-01,-1.379664521664381027e-02,-8.043774287216365337e-04,-1.220311876386404037e-02,6.483623385429382324e-02,8.179537951946258545e-02,4.449937865138053894e-02,3.446059674024581909e-02,-1.454082280397415161e-01,-9.100889414548873901e-02,8.592765778303146362e-02,1.076991483569145203e-01,-5.685119330883026123e-02,-9.445036202669143677e-02,-1.419184356927871704e-02,-1.724850684404373169e-01,-2.508321590721607208e-02,-8.307084441184997559e-02,1.816748827695846558e-01,5.928547680377960205e-02,-1.861324608325958252e-01,-1.081186980009078979e-01,8.510740101337432861e-02,6.132551468908786774e-03,2.896538004279136658e-02,1.285490859299898148e-02,-6.663583964109420776e-02,2.857834659516811371e-02,-9.123278409242630005e-02,-1.331934332847595215e-01,9.769548475742340088e-02,6.804148852825164795e-02,-1.603064239025115967e-01,-2.134853415191173553e-02,1.206377819180488586e-01,-5.860003456473350525e-02,8.591835945844650269e-02,-8.437510579824447632e-02,-1.655412912368774414e-01,-3.127613291144371033e-02,9.434851258993148804e-02,-8.328836411237716675e-02,-9.359917789697647095e-02,-8.808199316263198853e-02,-2.941675484180450439e-02,8.882848918437957764e-02,1.616256088018417358e-01,2.748831175267696381e-02
1.143167763948440552e-01,-2.021977901458740234e-01,1.781353205442428589e-01,-1.795038729906082153e-01,-5.152208358049392700e-02,5.507585406303405762e-02,-2.281628102064132690e-01,-8.052589744329452515e-02,-1.176547780632972717e-01,1.409000456333160400e-01,-1.222362518310546875e-01,-9.055794030427932739e-02,7.749888300895690918e-02,-3.040580451488494873e-01,2.287763729691505432e-02,4.609666357282549143e-04,6.375912576913833618e-02,5.980488285422325134e-02,-4.923180863261222839e-02,9.797748923301696777e-02,-7.548410445451736450e-02,-4.828753881156444550e-03,7.495778053998947144e-02,-3.130714222788810730e-02,-8.839511126279830933e-02,-1.135534122586250305e-01,7.827201485633850098e-02,-8.042432367801666260e-02,1.027960181236267090e-01,1.530854851007461548e-01,-2.305059731006622314e-01,-1.134931147098541260e-01,1.650497168302536011e-01,-1.121603604406118393e-02,1.398278474807739258e-01,1.313616428524255753e-02,-6.237817183136940002e-02,-1.020832806825637817e-01,4.616276174783706665e-02,1.044423803687095642e-01,1.078205183148384094e-01,-1.141258403658866882e-01,-1.096988916397094727e-01,6.177126616239547729e-02,-6.829218566417694092e-02,-1.472728103399276733e-01,-2.559097111225128174e-01,-1.626671552658081055e-01,-1.577419191598892212e-01,7.434286177158355713e-03,4.600942879915237427e-02,1.528669446706771851e-01,7.630822062492370605e-02,6.441334635019302368e-02,-4.535238817334175110e-02,3.491025045514106750e-02,-4.311451222747564316e-03,3.105305135250091553e-02,-6.721046566963195801e-02,3.600544994696974754e-03,2.244562953710556030e-01,1.752363331615924835e-02,8.205946534872055054e-02,7.225520163774490356e-02
-3.337939828634262085e-02,9.350837208330631256e-03,-1.166035830974578857e-01,-1.708946079015731812e-01,-4.021194204688072205e-02,7.145806681364774704e-03,-4.229771345853805542e-02,4.859207198023796082e-03,-3.186578676104545593e-02,-8.303493261337280273e-02,1.035108938813209534e-01,-4.172707721590995789e-02,-1.783255189657211304e-01,-7.606460899114608765e-02,-4.985981807112693787e-02,2.947977781295776367e-01,-6.486146897077560425e-02,-9.205472655594348907e-03,9.174967184662818909e-03,1.822884529829025269e-01,1.186290904879570007e-01,3.492949604988098145e-01,3.212451934814453125e-02,-4.214222729206085205e-02,-1.576648503541946411e-01,-1.730685471557080746e-03,1.103119552135467529e-01,1.731715202331542969e-01,-1.874040216207504272e-01,-4.071796312928199768e-03,1.365100294351577759e-01,-4.959316924214363098e-02,-2.880617603659629822e-02,-2.107736468315124512e-02,1.650564372539520264e-02,6.561309099197387695e-02,-3.012388050556182861e-01,1.693499982357025146e-01,-1.625762730836868286e-01,-9.402292221784591675e-02,-2.258514612913131714e-01,-5.023176595568656921e-02,1.641051471233367920e-01,-6.809519231319427490e-02,5.616074427962303162e-02,-4.253156483173370361e-02,-1.188426092267036438e-01,-6.011774018406867981e-02,3.499666601419448853e-02,9.613575786352157593e-02,1.334710270166397095e-01,-5.518196895718574524e-02,-1.261704564094543457e-01,6.718981079757213593e-03,-8.719031512737274170e-02,-1.856901496648788452e-01,4.483357816934585571e-02,-5.878830794245004654e-03,2.375090122222900391e-01,-2.254780940711498260e-02,-3.856639564037322998e-02,-9.408714249730110168e-03,2.928292751312255859e-02,-1.805164217948913574e-01
-1.150768995285034180e-01,7.517297565937042236e-02,8.860784582793712616e-03,1.321412175893783569e-01,-1.019208803772926331e-01,-2.447595000267028809e-01,-1.464602053165435791e-01,-1.125689521431922913e-01,-2.368861734867095947e-01,2.564882859587669373e-02,-2.239888906478881836e-01,-2.914809621870517731e-02,1.929409801959991455e-02,4.124093428254127502e-02,2.414678223431110382e-02,-1.766512840986251831e-01,3.826889023184776306e-02,1.190362349152565002e-01,8.468246087431907654e-03,-2.200088798999786377e-01,-1.087709590792655945e-01,-3.769276663661003113e-02,1.037025898694992065e-01,4.406888410449028015e-02,4.067539423704147339e-02,2.789370156824588776e-02,8.588599413633346558e-02,-6.484150886535644531e-02,2.367276847362518311e-01,1.060539931058883667e-01,-3.923376277089118958e-02,-1.136496067047119141e-01,3.979593142867088318e-02,-4.636249318718910217e-02,2.097309380769729614e-02,7.967302203178405762e-02,-3.231034427881240845e-02,1.575718373060226440e-01,4.629378020763397217e-02,-8.119813352823257446e-02,2.289910428225994110e-02,3.124415315687656403e-02,-1.282667368650436401e-01,-8.477241545915603638e-02,-1.079852040857076645e-02,-1.118153780698776245e-01,-2.019990980625152588e-01,-1.241695880889892578e-01,-1.570466905832290649e-02,-1.772810518741607666e-01,-1.295334994792938232e-01,1.611816436052322388e-01,-1.019647493958473206e-01,1.183650940656661987e-01,2.203339524567127228e-02,1.870199739933013916e-01,1.788195371627807617e-01,-2.975628478452563286e-03,-1.495170742273330688e-01,-2.326638102531433105e-01,-2.283223345875740051e-02,-1.673849821090698242e-01,6.130754202604293823e-02,-6.877671182155609131e-02
8.689457178115844727e-02,-4.151444509625434875e-02,-2.449562698602676392e-01,-6.210838630795478821e-02,2.611748315393924713e-02,1.311585754156112671e-01,-1.377956420183181763e-01,-6.803409755229949951e-02,1.073787361383438110e-01,-1.251694001257419586e-02,-1.597289741039276123e-01,-9.257605671882629395e-02,-1.383025199174880981e-01,-2.553180754184722900e-01,-1.850149482488632202e-01,-2.096047252416610718e-01,2.772577293217182159e-02,-6.724061071872711182e-02,-1.347064673900604248e-01,-2.345453649759292603e-01,2.323765680193901062e-02,-1.602386534214019775e-01,7.071142643690109253e-02,4.953328147530555725e-02,2.184452861547470093e-01,1.330656111240386963e-01,1.638492196798324585e-02,-2.692207507789134979e-02,4.023525863885879517e-03,-1.257912963628768921e-01,-1.735587418079376221e-01,1.052604056894779205e-02,-3.922190368175506592e-01,3.825451433658599854e-02,-7.913542538881301880e-02,1.399077475070953369e-01,5.983328074216842651e-02,4.904040321707725525e-02,1.232086569070816040e-01,-1.999172940850257874e-02,1.679560542106628418e-01,1.144646406173706055e-01,2.320904582738876343e-01,-1.471377462148666382e-01,-5.849751085042953491e-02,4.024791717529296875e-02,-8.662123978137969971e-02,2.466855943202972412e-02,9.811580181121826172e-02,1.452794522047042847e-01,1.029812619090080261e-01,-1.457192003726959229e-02,-1.822555959224700928e-01,1.543472614139318466e-02,-2.099684998393058777e-02,4.355921968817710876e-02,2.247008308768272400e-02,-1.215476468205451965e-01,-3.259993717074394226e-02,-1.393843740224838257e-01,-1.137477010488510132e-01,2.985405176877975464e-02,-2.111182212829589844e-01,-2.045970410108566284e-02
-1.044168323278427124e-02,1.724520325660705566e-01,-8.816731721162796021e-02,-9.410108625888824463e-02,2.180724591016769409e-02,-1.953542605042457581e-02,-7.851078361272811890e-02,-4.985997453331947327e-02,-1.645067036151885986e-01,-5.975874885916709900e-02,-5.713662877678871155e-02,8.491495996713638306e-02,-7.182080298662185669e-02,-2.165362983942031860e-02,1.457406729459762573e-01,2.582587301731109619e-01,-8.883454650640487671e-02,-1.073757410049438477e-01,6.142492592334747314e-02,3.255911916494369507e-02,-3.173330798745155334e-02,2.136390954256057739e-01,-1.017825827002525330e-01,8.009073138236999512e-02,5.309037119150161743e-02,-1.146545931696891785e-01,-4.691227339208126068e-03,-3.117942437529563904e-02,2.504224330186843872e-02,1.363363713026046753e-01,3.674991056323051453e-02,-1.128457635641098022e-01,1.551316380500793457e-01,-1.418504416942596436e-01,-2.222792506217956543e-01,-7.898265123367309570e-02,-2.351629436016082764e-01,1.835023611783981323e-01,-2.236900106072425842e-02,2.079299539327621460e-01,5.491141602396965027e-02,6.265139579772949219e-02,-2.646711170673370361e-01,-2.926026098430156708e-02,1.520889550447463989e-01,9.933348000049591064e-02,-1.041681598871946335e-02,-2.451952844858169556e-01,1.759748719632625580e-02,-2.236933410167694092e-01,-7.526908069849014282e-02,-1.463662087917327881e-01,2.310370467603206635e-02,-7.167180627584457397e-02,-1.587055772542953491e-01,1.475947648286819458e-01,1.218103691935539246e-01,7.501381635665893555e-02,-2.224984206259250641e-02,-1.364782750606536865e-01,1.618305444717407227e-01,6.234044209122657776e-02,1.265186369419097900e-01,2.135866433382034302e-01
6.049729418009519577e-03,-1.797308623790740967e-01,5.870335153304040432e-04,-3.966126590967178345e-02,-2.181996852159500122e-01,-1.661445051431655884e-01,-1.421226114034652710e-01,4.765179008245468140e-02,-4.185537621378898621e-02,4.574301093816757202e-02,1.740418188273906708e-02,-9.192629903554916382e-02,7.013282924890518188e-02,-1.524249278008937836e-02,8.285520225763320923e-02,-9.262303262948989868e-02,-8.480705320835113525e-03,-3.739824751392006874e-03,-2.364203333854675293e-01,-9.412374347448348999e-02,-2.078151255846023560e-01,2.989381924271583557e-02,-5.927705392241477966e-02,4.444429278373718262e-02,-7.672842126339673996e-03,-1.074735596776008606e-01,-2.037740647792816162e-01,-6.050367653369903564e-02,-7.171694189310073853e-02,1.221149340271949768e-01,-2.410065382719039917e-03,-1.153473928570747375e-01,-5.349605530500411987e-02,-1.463085711002349854e-01,-1.137605011463165283e-01,8.835397660732269287e-02,-5.530476942658424377e-02,-1.390314400196075439e-01,-1.240831315517425537e-01,-2.444437937811017036e-03,-2.745280042290687561e-02,2.983589656651020050e-02,1.559604797512292862e-02,2.092569023370742798e-01,-8.585583418607711792e-02,-3.983439877629280090e-02,-1.056616380810737610e-01,-7.069939374923706055e-02,-2.159899920225143433e-01,1.333948671817779541e-01,5.854382645338773727e-03,-2.822108268737792969e-01,5.813524127006530762e-02,-8.315299451351165771e-02,-9.434884786605834961e-02,-1.568069458007812500e-01,6.620340794324874878e-02,-3.021954186260700226e-02,2.326808497309684753e-02,-1.215274408459663391e-01,-5.713356658816337585e-02,-1.148246005177497864e-01,-2.354969084262847900e-01,8.761282265186309814e-02
9.004213660955429077e-02,-1.108280569314956665e-01,-1.652172207832336426e-02,8.140019327402114868e-02,-8.862835168838500977e-02,9.265217185020446777e-02,3.106893971562385559e-02,-1.117497235536575317e-01,1.492145564407110214e-02,1.443483680486679077e-01,-5.099999532103538513e-02,-1.086001023650169373e-01,2.721643261611461639e-02,-1.106221303343772888e-01,-2.693500183522701263e-02,1.303218752145767212e-01,-1.601916998624801636e-01,-1.742908060550689697e-01,-1.022514998912811279e-01,1.062935590744018555e-01,9.019693732261657715e-02,-3.739876300096511841e-02,-2.123783528804779053e-01,-9.621249139308929443e-02,-7.384406030178070068e-02,-1.274404078722000122e-01,-5.708935856819152832e-02,-1.500156968832015991e-01,3.368087857961654663e-02,9.477209299802780151e-02,1.996897608041763306e-01,5.599724501371383667e-02,2.134413272142410278e-02,-8.312716335058212280e-02,1.027130037546157837e-01,1.146661564707756042e-01,-4.098207131028175354e-02,8.525509387254714966e-02,2.728539891541004181e-02,2.081557065248489380e-01,-9.877818822860717773e-02,-1.400227397680282593e-01,5.486500449478626251e-03,-1.970616281032562256e-01,6.817550212144851685e-02,8.839588612318038940e-02,7.953874883241951466e-04,-2.221959643065929413e-02,-6.479538977146148682e-02,-1.122882775962352753e-02,-2.652065269649028778e-02,1.444427371025085449e-01,4.795002564787864685e-02,1.124728247523307800e-01,-1.586503088474273682e-01,1.702895611524581909e-01,-1.911790482699871063e-02,-2.787249162793159485e-03,1.627798378467559814e-01,1.427418756065890193e-04,-3.381554782390594482e-02,-1.334584206342697144e-01,6.460479460656642914e-03,-1.196383219212293625e-02
1.750947982072830200e-01,-4.180485010147094727e-02,-1.668245494365692139e-01,-2.296146005392074585e-02,-1.451081633567810059e-01,-1.575868576765060425e-01,-9.105573594570159912e-02,-8.191510289907455444e-02,-8.147251605987548828e-02,-3.221979364752769470e-02,1.464153677225112915e-01,-1.025057882070541382e-01,-8.607025444507598877e-02,1.299692839384078979e-01,-6.507457047700881958e-02,1.772734075784683228e-01,5.439665168523788452e-02,-1.587060540914535522e-01,3.196474537253379822e-02,1.352810561656951904e-01,-5.421505123376846313e-02,1.311522424221038818e-01,-1.581134349107742310e-01,-5.351992696523666382e-02,2.021072059869766235e-01,-2.222100049257278442e-01,-4.334280639886856079e-02,-2.041875422000885010e-01,-3.218480050563812256e-01,1.978445351123809814e-01,-1.278259046375751495e-02,7.450138032436370850e-02,4.445266351103782654e-02,-1.867807954549789429e-01,6.637347489595413208e-02,-3.181109577417373657e-02,3.757641883566975594e-03,5.468621850013732910e-02,-2.011775821447372437e-01,5.389162525534629822e-02,-2.828934788703918457e-01,8.859038352966308594e-02,-1.233402937650680542e-01,-1.576870083808898926e-01,1.608043722808361053e-02,-6.978686898946762085e-02,-6.884755939245223999e-02,-2.628882825374603271e-01,-1.583756655454635620e-01,-1.568054556846618652e-01,6.508099287748336792e-02,-2.646494805812835693e-01,-1.314848065376281738e-01,-7.543834298849105835e-02,7.707480341196060181e-02,-1.495771706104278564e-01,4.129777848720550537e-02,-1.813710778951644897e-01,1.058702841401100159e-01,-1.256210356950759888e-01,1.805644482374191284e-01,7.454851269721984863e-02,-3.148450851440429688e-01,1.274498701095581055e-01
-4.997132718563079834e-02,-7.888183742761611938e-02,-3.105929121375083923e-02,-7.402236759662628174e-02,1.005567908287048340e-01,1.707433164119720459e-01,-6.935891509056091309e-02,-6.945107132196426392e-03,1.356839686632156372e-01,-1.552311182022094727e-01,-1.538896858692169189e-01,-9.219897538423538208e-02,4.367234185338020325e-02,1.098445951938629150e-01,-6.795246899127960205e-02,-7.427423447370529175e-02,-1.342465579509735107e-01,-1.470769643783569336e-01,-2.770973742008209229e-02,-4.377448186278343201e-02,-1.264677345752716064e-01,2.436288446187973022e-01,-3.580316156148910522e-02,7.747544348239898682e-02,1.161310449242591858e-01,-6.376772373914718628e-02,1.986430585384368896e-02,-1.014479249715805054e-01,4.940747283399105072e-03,4.277513176202774048e-02,-2.002066224813461304e-01,-9.428816288709640503e-02,-1.126147434115409851e-01,1.878755390644073486e-01,-2.593711614608764648e-01,9.702159464359283447e-02,-6.934051215648651123e-02,-2.599605619907379150e-01,3.226501122117042542e-02,4.092988744378089905e-02,-1.228005588054656982e-01,6.975644081830978394e-02,1.758955232799053192e-02,-2.329933643341064453e-01,1.158694922924041748e-01,7.408558577299118042e-02,4.048592150211334229e-01,5.309473350644111633e-02,-1.055716648697853088e-01,1.072720810770988464e-01,-9.223998337984085083e-02,-6.574631482362747192e-02,1.064039207994937897e-02,2.171522378921508789e-01,-2.545958757400512695e-02,-2.698213420808315277e-02,7.222073525190353394e-02,1.046798005700111389e-01,4.999134689569473267e-02,-1.340953111648559570e-01,-1.588294059038162231e-01,9.358561038970947266e-02,-8.835028111934661865e-02,-7.289920747280120850e-02
-4.436064660549163818e-01,7.327327877283096313e-02,5.987977981567382812e-02,-6.875719875097274780e-02,1.079652756452560425e-01,1.276917606592178345e-01,3.626600652933120728e-02,6.769628264009952545e-03,-2.628474868834018707e-02,9.552720189094543457e-02,-2.870366163551807404e-02,-1.275565922260284424e-01,1.314487159252166748e-01,-1.337801665067672729e-01,3.511514887213706970e-02,7.266818732023239136e-02,1.466139033436775208e-02,-7.614532113075256348e-02,7.224889099597930908e-02,4.069652035832405090e-02,1.017749682068824768e-01,3.560922145843505859e-01,-4.874855279922485352e-02,-7.881683856248855591e-02,4.039407968521118164e-01,-9.883392602205276489e-02,2.642990648746490479e-02,3.253763318061828613e-01,1.187964435666799545e-02,5.761760473251342773e-02,6.042065843939781189e-02,-2.554644085466861725e-02,9.908308833837509155e-02,-6.693425029516220093e-02,6.958107650279998779e-02,1.060240343213081360e-02,-2.108539491891860962e-01,-1.387914717197418213e-01,7.003436982631683350e-02,-1.458164751529693604e-01,1.168648339807987213e-02,-1.236349642276763916e-01,1.856241673231124878e-01,-2.516308985650539398e-02,-6.482889503240585327e-02,-5.691900849342346191e-02,-1.640113294124603271e-01,-1.009612679481506348e-01,1.889273226261138916e-01,7.755199074745178223e-02,7.679134607315063477e-02,2.649883553385734558e-02,5.588558968156576157e-03,1.345475786365568638e-03,-7.251324504613876343e-02,-8.294875174760818481e-02,-1.196735128760337830e-01,6.354291737079620361e-02,4.085661843419075012e-02,5.282869935035705566e-02,-1.640306413173675537e-01,-3.618101775646209717e-02,-2.317869849503040314e-02,-1.559614390134811401e-01
-1.720682233572006226e-01,-1.474936604499816895e-01,-1.099032163619995117e-01,-1.598087401362136006e-04,-1.986797749996185303e-01,-6.854493170976638794e-02,-1.192258074879646301e-01,4.851939529180526733e-02,-1.090011522173881531e-01,-5.022137984633445740e-02,-5.062610656023025513e-02,9.115187823772430420e-02,-2.139426209032535553e-02,-7.037468254566192627e-02,1.127572432160377502e-01,-2.062703669071197510e-01,4.906328022480010986e-02,-1.657232046127319336e-01,-4.775464907288551331e-02,5.927503108978271484e-02,-1.435686200857162476e-01,-1.587349623441696167e-01,-1.217414662241935730e-01,-1.103594377636909485e-01,-1.069668158888816833e-01,-4.776386916637420654e-02,4.825969785451889038e-02,-7.869254797697067261e-02,1.469892412424087524e-01,1.246117129921913147e-01,7.323751598596572876e-02,1.963208988308906555e-02,1.869583278894424438e-01,-1.581688970327377319e-01,-3.416302055120468140e-02,-1.484989523887634277e-01,7.822579145431518555e-02,1.800255775451660156e-01,-1.452620178461074829e-01,1.818439960479736328e-01,-5.174835771322250366e-02,6.163407117128372192e-02,-5.809841677546501160e-03,-9.719429537653923035e-03,-6.601719558238983154e-02,-3.003762289881706238e-02,-2.093531191349029541e-02,-1.193071752786636353e-01,-3.346663143020123243e-04,9.083540737628936768e-02,-1.935891360044479370e-01,-1.973678618669509888e-01,-1.404379755258560181e-01,-1.693441532552242279e-02,-2.131284177303314209e-01,-2.085641771554946899e-01,-3.996846452355384827e-02,-2.033350765705108643e-01,-6.317566335201263428e-02,3.122785314917564392e-02,-6.917902827262878418e-02,-9.688528627157211304e-02,-1.144991368055343628e-01,-2.797467075288295746e-02
-9.621918946504592896e-02,9.678447619080543518e-03,5.215277522802352905e-02,-1.066319867968559265e-01,1.169187054038047791e-01,-1.588418334722518921e-01,-1.923852860927581787e-01,3.247266635298728943e-02,9.466955065727233887e-02,-5.130167305469512939e-02,-5.692741274833679199e-02,2.467280440032482147e-02,-1.591361612081527710e-01,-4.893239215016365051e-02,-4.625740647315979004e-02,1.675723642110824585e-01,-1.616142839193344116e-01,-1.403727978467941284e-01,-2.306089103221893311e-01,5.716425180435180664e-02,-1.568118482828140259e-01,6.271907687187194824e-02,-3.362331539392471313e-02,3.824024274945259094e-02,-1.399345695972442627e-01,1.069298163056373596e-01,1.158569846302270889e-02,4.501483403146266937e-03,-1.576500944793224335e-02,5.624203011393547058e-02,7.902568578720092773e-02,-8.416924625635147095e-02,-2.534562349319458008e-02,2.277007885277271271e-02,-5.328748747706413269e-02,4.828757420182228088e-02,4.700374603271484375e-02,-1.732109785079956055e-01,-4.518005996942520142e-02,9.300682693719863892e-02,2.483533928170800209e-03,-4.876948893070220947e-03,-2.049658298492431641e-01,-2.269917279481887817e-01,-1.371290832757949829e-01,-8.304154127836227417e-02,-2.037167251110076904e-01,-1.210732161998748779e-01,3.423033282160758972e-02,-1.264839917421340942e-01,-2.316068410873413086e-01,1.657724380493164062e-01,-1.400725394487380981e-01,-9.366428852081298828e-02,2.389290370047092438e-02,-6.884285062551498413e-02,-6.557743996381759644e-02,-5.966688320040702820e-02,-4.137102887034416199e-02,-1.631386131048202515e-01,1.666081547737121582e-01,-2.225278131663799286e-02,-1.947087794542312622e-01,2.078443765640258789e-01
-5.434177070856094360e-02,-9.759870171546936035e-02,-6.638445705175399780e-02,2.299715578556060791e-02,-4.368987865746021271e-03,3.220161795616149902e-01,4.187503457069396973e-02,9.522302448749542236e-02,-1.365978270769119263e-01,-1.112202182412147522e-01,-1.659531593322753906e-01,-1.003519743680953979e-01,-1.215857192873954773e-01,1.182089075446128845e-01,1.637458056211471558e-02,2.878177352249622345e-02,-3.188352286815643311e-02,5.111360177397727966e-02,5.817920435220003128e-03,-1.069773882627487183e-01,3.441688045859336853e-02,-8.285023272037506104e-02,-5.639863014221191406e-02,2.582581713795661926e-02,-3.529306873679161072e-02,-9.340620040893554688e-02,7.713228464126586914e-02,-1.418439019471406937e-02,1.428228337317705154e-02,-1.162493154406547546e-01,-1.192468591034412384e-02,-1.700613945722579956e-01,-1.002849563956260681e-01,-1.294832527637481689e-01,-2.825592877343297005e-03,2.302320487797260284e-02,1.209404040127992630e-02,-9.778184443712234497e-02,6.764575093984603882e-02,-1.381396055221557617e-01,-4.314341768622398376e-02,-5.304518714547157288e-02,-8.594156801700592041e-02,7.272092998027801514e-02,-6.162488088011741638e-02,-1.003810763359069824e-01,7.247087359428405762e-02,-1.896018981933593750e-01,-9.542514383792877197e-02,-1.692057251930236816e-01,-1.340882852673530579e-03,1.310021243989467621e-02,-9.663271903991699219e-02,1.836520247161388397e-02,-1.256435215473175049e-01,-2.708506584167480469e-02,-8.675201237201690674e-02,4.033726081252098083e-02,4.258857294917106628e-02,-8.796848356723785400e-02,-1.173071041703224182e-01,6.859398633241653442e-02,-4.224053025245666504e-02,-1.085698232054710388e-01
2.297212779521942139e-01,-1.070938557386398315e-01,6.787945330142974854e-02,1.897649653255939484e-02,1.158357933163642883e-01,2.217931747436523438e-01,4.338422417640686035e-02,5.775881558656692505e-02,8.315856754779815674e-02,-1.441540569067001343e-01,-1.656796038150787354e-01,-3.242590650916099548e-02,6.309342384338378906e-02,-1.029028221964836121e-01,-1.573454122990369797e-03,-2.173928022384643555e-01,-1.019326746463775635e-01,-2.626945078372955322e-02,-6.354176253080368042e-02,-1.985829323530197144e-01,2.623772062361240387e-02,3.819683939218521118e-02,-2.734491415321826935e-02,8.547609299421310425e-02,-7.033902406692504883e-02,1.025278344750404358e-01,5.114648118615150452e-02,7.563921064138412476e-02,-4.374077543616294861e-03,-1.982332617044448853e-01,-3.053941130638122559e-01,-1.492889970541000366e-01,-4.920355975627899170e-02,8.729641139507293701e-02,8.757231384515762329e-02,-2.947558462619781494e-02,-1.463117301464080811e-01,3.770679235458374023e-02,8.478879183530807495e-02,-8.894172497093677521e-03,-1.567419022321701050e-01,8.274365216493606567e-02,-1.701429113745689392e-02,9.597103297710418701e-02,2.896804129704833031e-03,-1.547147482633590698e-01,-1.090328320860862732e-01,1.392924338579177856e-01,6.251104921102523804e-02,1.998786777257919312e-01,-8.527582138776779175e-02,1.467042416334152222e-01,5.699645355343818665e-02,-1.315160691738128662e-01,-1.984309256076812744e-01,4.112644493579864502e-02,-6.522071361541748047e-02,-2.160185575485229492e-01,-5.429381132125854492e-02,6.630506366491317749e-02,7.645756006240844727e-02,-1.464861631393432617e-01,8.006514608860015869e-02,8.171661943197250366e-02
-5.763887893408536911e-03,-6.966795772314071655e-02,-8.752889186143875122e-02,-5.377972126007080078e-02,-7.581370323896408081e-02,-2.208357304334640503e-01,1.169177666306495667e-01,-1.274115443229675293e-01,5.137201398611068726e-03,-1.399245709180831909e-01,4.100541397929191589e-02,-5.457752197980880737e-02,-2.014692500233650208e-02,8.609502576291561127e-03,3.874578326940536499e-02,-9.891672432422637939e-02,5.372285097837448120e-02,1.096271052956581116e-01,-1.500057131052017212e-01,-3.845624625682830811e-02,-1.051408722996711731e-01,-9.417613595724105835e-02,-2.381308749318122864e-02,-6.541097164154052734e-02,7.015672512352466583e-03,-8.631544560194015503e-02,-7.613559067249298096e-02,-8.491624146699905396e-02,-1.085644066333770752e-01,-1.970151066780090332e-01,6.279359012842178345e-02,-2.284506522119045258e-02,-5.813980475068092346e-02,-1.185739189386367798e-01,-1.754619777202606201e-01,4.015677049756050110e-02,-6.854314357042312622e-02,2.205501943826675415e-01,1.529558468610048294e-02,2.045835256576538086e-01,-1.452702879905700684e-01,7.745027542114257812e-02,1.416806578636169434e-01,1.534454375505447388e-01,-2.600077353417873383e-02,6.293606013059616089e-03,-1.297742128372192383e-01,-7.453662157058715820e-02,-1.144458949565887451e-01,-2.614375650882720947e-01,3.915127366781234741e-02,-4.989552125334739685e-02,-9.538716077804565430e-02,-8.112725615501403809e-02,-1.932433694601058960e-01,-2.883392572402954102e-01,1.106452476233243942e-02,-2.542653679847717285e-01,1.721534132957458496e-01,1.031399890780448914e-01,-6.813631206750869751e-02,1.328402906656265259e-01,1.582408994436264038e-01,1.413792558014392853e-02
2.354988008737564087e-01,-2.299051173031330109e-02,-1.467676609754562378e-01,-1.468730997294187546e-02,-2.340000867843627930e-01,-7.821172475814819336e-02,-2.411653697490692139e-01,5.222114734351634979e-03,-8.903432637453079224e-03,-1.072113215923309326e-01,-1.752537786960601807e-01,-1.383443623781204224e-01,-1.951400637626647949e-01,-2.733955979347229004e-01,-1.482758074998855591e-01,1.229148805141448975e-01,-1.798800081014633179e-01,-6.502352654933929443e-02,-6.236898899078369141e-02,5.938116833567619324e-02,-1.426033526659011841e-01,-2.359612584114074707e-01,8.307013660669326782e-02,-2.571602119132876396e-03,1.521255634725093842e-02,-4.335387051105499268e-02,-1.852364540100097656e-01,-1.808788627386093140e-01,1.156221181154251099e-01,1.154736652970314026e-01,3.357905894517898560e-02,-1.811282485723495483e-01,1.202740818262100220e-01,1.921093463897705078e-01,-1.566734910011291504e-02,4.473540186882019043e-02,4.585552029311656952e-03,-1.592225581407546997e-01,-1.902142465114593506e-01,-3.588294610381126404e-03,-3.794112429022789001e-02,8.538968116044998169e-02,-1.986543387174606323e-01,-1.502497196197509766e-01,3.987167403101921082e-02,-1.246767416596412659e-01,1.751687750220298767e-02,-4.923294857144355774e-02,4.315720126032829285e-02,-1.589356064796447754e-01,-1.761881262063980103e-01,-2.161396294832229614e-01,-1.539204269647598267e-01,-4.132540151476860046e-02,-1.009630598127841949e-02,-3.679675981402397156e-03,1.132901608943939209e-01,1.388271600008010864e-01,-1.458666622638702393e-01,-3.824516758322715759e-02,-1.369230002164840698e-01,-1.175396591424942017e-01,-1.730417162179946899e-01,3.270559385418891907e-02
-2.730160355567932129e-01,-1.017180979251861572e-01,-9.760829806327819824e-02,-1.433505266904830933e-01,1.304237395524978638e-01,-5.976263433694839478e-02,1.873322874307632446e-01,4.164010286331176758e-02,2.512475252151489258e-01,4.672213271260261536e-02,6.192740052938461304e-02,-2.314624749124050140e-02,-1.141410097479820251e-01,1.151986271142959595e-01,3.792639821767807007e-02,-7.736982405185699463e-02,-1.332564651966094971e-01,8.852665126323699951e-02,-2.086460739374160767e-01,-1.515337172895669937e-02,-1.238221228122711182e-01,-2.118896460160613060e-03,6.634419411420822144e-02,-9.125322103500366211e-02,-4.912640154361724854e-02,-5.961365252733230591e-02,-5.112384445965290070e-03,5.901445820927619934e-02,4.465860128402709961e-02,-1.111829504370689392e-01,-9.550487250089645386e-02,-1.402942091226577759e-01,-1.158256530761718750e-01,2.318132221698760986e-01,-8.869879692792892456e-02,-1.404938250780105591e-01,-5.194599926471710205e-02,8.062323927879333496e-02,6.149771809577941895e-02,3.953669965267181396e-02,-8.648606389760971069e-02,-1.242955550551414490e-01,1.392308920621871948e-01,1.473889201879501343e-01,-7.285221666097640991e-02,-1.270506680011749268e-01,1.716196984052658081e-01,-3.348396345973014832e-02,2.007371932268142700e-01,-5.371534824371337891e-02,-6.674785912036895752e-02,1.520449519157409668e-01,9.513581544160842896e-02,-1.328108608722686768e-01,-2.273093163967132568e-02,-2.468537986278533936e-01,-2.096035927534103394e-01,-1.861796528100967407e-01,1.834286935627460480e-02,-4.715976864099502563e-02,-7.200899720191955566e-02,1.097188666462898254e-01,-7.275801897048950195e-02,-5.433946475386619568e-02
2.540074586868286133e-01,-1.334308534860610962e-01,-8.183049410581588745e-02,-6.351556163281202316e-03,-6.518183648586273193e-02,-1.659883409738540649e-01,1.223659068346023560e-01,1.370453555136919022e-02,2.106270343065261841e-01,-7.232321798801422119e-02,-1.348034739494323730e-01,-1.012797951698303223e-01,-1.878610253334045410e-02,-9.423534572124481201e-02,-1.559700667858123779e-01,-1.510307192802429199e-01,-7.789018750190734863e-02,8.588971942663192749e-02,-1.218568719923496246e-02,7.832579314708709717e-02,-5.223511159420013428e-02,5.768549069762229919e-02,3.791189193725585938e-02,-4.665839672088623047e-02,-1.281826645135879517e-01,-1.765141934156417847e-01,-9.814618527889251709e-02,2.977821789681911469e-02,-1.202637776732444763e-01,3.137784823775291443e-02,-9.163282811641693115e-02,-6.564576178789138794e-02,1.184613779187202454e-01,3.432859852910041809e-02,-2.111946493387222290e-01,-1.211836840957403183e-02,-1.300684809684753418e-01,1.745863445103168488e-02,-3.233943879604339600e-02,4.573259502649307251e-02,-8.586538583040237427e-02,-1.043742597103118896e-01,9.708146005868911743e-02,-1.873401105403900146e-01,-1.458490490913391113e-01,-1.535146236419677734e-01,5.893369391560554504e-02,5.476038157939910889e-02,-2.343668043613433838e-02,9.078123606741428375e-03,-2.323352918028831482e-02,3.789704665541648865e-02,-6.287708133459091187e-02,6.913299113512039185e-02,-3.200782462954521179e-02,-1.143033951520919800e-01,-1.393145024776458740e-01,-1.727819442749023438e-02,-1.322161555290222168e-01,-1.221603676676750183e-01,2.873912826180458069e-02,6.269355118274688721e-02,9.107775241136550903e-02,2.815380990505218506e-01
-1.636877208948135376e-01,-1.314023435115814209e-01,-2.446849457919597626e-02,-1.398483067750930786e-01,8.372202515602111816e-02,-1.957020349800586700e-02,4.764288291335105896e-02,-2.742031402885913849e-02,1.662371493875980377e-02,-1.209292635321617126e-01,-6.803343445062637329e-02,-2.326780743896961212e-02,2.990099042654037476e-02,-4.925005510449409485e-02,-2.125123888254165649e-02,-3.971143439412117004e-02,3.768109530210494995e-02,2.691327929496765137e-01,-1.743198335170745850e-01,2.668359503149986267e-02,1.051417589187622070e-01,1.501025445759296417e-02,1.826844736933708191e-02,1.841072738170623779e-02,1.612064428627490997e-02,-6.177405640482902527e-02,-1.066344529390335083e-01,-7.639763504266738892e-02,1.596666499972343445e-02,7.208974100649356842e-03,-1.188393086194992065e-01,-2.706579118967056274e-02,-6.244172900915145874e-02,-1.622120290994644165e-01,1.670629978179931641e-01,7.571411132812500000e-02,-1.187817379832267761e-02,-4.752742499113082886e-02,-8.978094160556793213e-02,-2.234685868024826050e-01,-2.493544295430183411e-02,-1.249258890748023987e-01,1.161988303065299988e-01,-7.030853629112243652e-02,-5.914619192481040955e-02,-1.651101708412170410e-01,1.803391613066196442e-02,-1.708135157823562622e-01,-2.218062244355678558e-02,-3.269075974822044373e-02,-7.893597334623336792e-02,1.482688337564468384e-01,1.030581593513488770e-01,2.575931549072265625e-01,-9.310565888881683350e-02,3.909336775541305542e-02,-2.699083387851715088e-01,-7.498305290937423706e-02,9.750115871429443359e-02,-9.350667893886566162e-02,1.296694576740264893e-01,4.920597746968269348e-02,1.876619905233383179e-01,1.022798120975494385e-01
3.526148572564125061e-02,-1.051092427223920822e-02,7.163283973932266235e-02,8.648353815078735352e-02,-2.018281072378158569e-02,8.969713002443313599e-02,-1.625312864780426025e-02,-9.457990527153015137e-02,7.965493947267532349e-02,1.044648978859186172e-02,-3.645080327987670898e-02,-1.004566997289657593e-01,9.061701595783233643e-02,-7.136946916580200195e-02,3.514812886714935303e-02,-5.459893122315406799e-02,4.137539491057395935e-02,8.989815413951873779e-02,-1.473420262336730957e-01,-1.535667330026626587e-01,-1.925407201051712036e-01,-2.072487771511077881e-01,7.519730925559997559e-02,-9.180459380149841309e-02,1.583041697740554810e-01,1.017472445964813232e-01,-8.245470374822616577e-02,-2.261533774435520172e-02,-7.443994283676147461e-02,-2.323727607727050781e-01,9.150437265634536743e-02,-7.561407238245010376e-02,6.417367607355117798e-02,1.386834960430860519e-02,-2.033377438783645630e-01,-2.144323848187923431e-02,2.864663954824209213e-03,-2.570897107943892479e-03,-1.280992627143859863e-01,1.336195021867752075e-01,-8.513757586479187012e-02,8.996729552745819092e-02,-2.074528485536575317e-01,-8.758772909641265869e-02,5.576097220182418823e-02,9.780909866094589233e-02,-1.340274512767791748e-01,1.504707522690296173e-02,-4.109313338994979858e-02,-2.631845772266387939e-01,3.602821612730622292e-03,3.971385583281517029e-02,-1.504971235990524292e-01,3.015360236167907715e-01,-1.430909037590026855e-01,-4.192037135362625122e-02,1.710080057382583618e-01,2.356487885117530823e-02,-1.652138680219650269e-02,1.245006620883941650e-01,8.391364663839340210e-02,-1.399108916521072388e-01,2.231423556804656982e-01,1.763003170490264893e-01
-9.350504726171493530e-02,-2.795264497399330139e-02,4.962115734815597534e-02,1.441869232803583145e-02,-1.883037835359573364e-01,-1.717415452003479004e-01,1.123216003179550171e-01,-1.255695372819900513e-01,-7.275091111660003662e-02,-4.800854250788688660e-03,-9.894739836454391479e-02,-4.814168810844421387e-02,-7.105209678411483765e-02,-6.285846978425979614e-02,1.502384617924690247e-02,8.402043581008911133e-02,-8.066832274198532104e-02,-3.896794840693473816e-02,-6.633350625634193420e-03,-7.600436359643936157e-02,-1.707335561513900757e-01,-4.063725471496582031e-02,-2.383769899606704712e-01,9.438651800155639648e-02,-1.002590954303741455e-01,-1.283449828624725342e-01,-2.538469247519969940e-02,-9.753286093473434448e-02,-8.252137154340744019e-02,8.249522186815738678e-03,-2.445812709629535675e-02,-1.103701516985893250e-01,-1.149242967367172241e-01,-3.716418147087097168e-01,-5.334467440843582153e-02,1.352064609527587891e-01,-7.501859683543443680e-03,-2.502981200814247131e-02,2.705692499876022339e-02,-2.447326481342315674e-02,-2.222283482551574707e-01,-6.372857093811035156e-02,-3.094006143510341644e-02,-1.083514187484979630e-02,-1.525203585624694824e-01,1.795124448835849762e-02,-1.503556966781616211e-01,-1.798616200685501099e-01,-4.493616893887519836e-02,-2.563360035419464111e-01,-1.852666586637496948e-01,-1.081423684954643250e-01,6.854525208473205566e-02,1.211767643690109253e-01,-2.591460049152374268e-01,-1.510301139205694199e-02,6.894598901271820068e-02,-1.003572121262550354e-01,7.271354645490646362e-02,-8.494966477155685425e-02,-7.582825422286987305e-02,-8.805488049983978271e-02,-1.847731769084930420e-01,4.853357747197151184e-02
-8.876529335975646973e-02,-1.161792054772377014e-01,-6.497699022293090820e-02,-3.755377605557441711e-02,3.184727951884269714e-02,-1.975344866514205933e-01,-1.267326027154922485e-01,4.103890061378479004e-02,1.592124253511428833e-02,1.196695268154144287e-01,2.099016010761260986e-01,-6.936316937208175659e-02,1.051861792802810669e-01,2.989358268678188324e-02,2.838914841413497925e-02,-6.612779945135116577e-02,-4.560412466526031494e-02,-5.779163911938667297e-02,5.738064274191856384e-02,1.075883954763412476e-01,-1.701080203056335449e-01,7.067482918500900269e-02,2.128402590751647949e-01,-6.810278445482254028e-02,-5.897612497210502625e-02,-1.625265367329120636e-02,-1.975418329238891602e-01,-3.132038563489913940e-02,2.348126471042633057e-01,1.773752868175506592e-01,-6.049513071775436401e-02,-1.173658519983291626e-01,6.166924908757209778e-02,-2.091120928525924683e-01,-2.058209665119647980e-02,-1.590684354305267334e-01,2.026143372058868408e-01,-1.267104446887969971e-01,-5.573600530624389648e-02,-1.071139648556709290e-01,3.811831399798393250e-02,6.855231523513793945e-02,-1.101683676242828369e-01,-2.464031800627708435e-02,1.550899296998977661e-01,9.350470453500747681e-02,-1.382220238447189331e-01,3.385498374700546265e-02,1.107412502169609070e-01,3.250854909420013428e-01,1.112435758113861084e-01,9.688909351825714111e-02,-5.665545538067817688e-02,-1.623229235410690308e-01,3.917118161916732788e-02,1.261890977621078491e-01,2.534622550010681152e-01,-1.014377339743077755e-03,-1.755318939685821533e-01,2.245185524225234985e-02,1.746041178703308105e-01,-2.129354625940322876e-01,-1.895100772380828857e-01,-3.271652758121490479e-02
2.083942592144012451e-01,-1.693559736013412476e-01,1.340911984443664551e-01,-9.102758020162582397e-02,-9.930787980556488037e-02,-2.761473953723907471e-01,-4.926956072449684143e-02,-1.447745710611343384e-01,-1.157556008547544479e-02,-1.091644614934921265e-01,-7.134050130844116211e-02,-3.032031282782554626e-02,-3.954263776540756226e-02,1.258100271224975586e-01,-1.679142415523529053e-01,7.277520745992660522e-02,-9.198084473609924316e-02,-4.210057854652404785e-02,-2.306665629148483276e-01,9.192474186420440674e-02,1.737773865461349487e-01,-4.479617998003959656e-02,-2.148451358079910278e-01,-8.105374127626419067e-02,-2.728913426399230957e-01,-1.712731570005416870e-01,1.389391571283340454e-01,-9.889602661132812500e-02,-1.490873098373413086e-01,-8.440808206796646118e-02,-6.541911512613296509e-02,-1.017339155077934265e-01,1.446494758129119873e-01,-5.007779970765113831e-02,2.669706940650939941e-02,-1.141816601157188416e-01,-1.380077153444290161e-01,6.259307265281677246e-03,-1.529442891478538513e-02,1.038606539368629456e-01,-1.169528812170028687e-01,-1.365496069192886353e-01,-1.680187284946441650e-01,1.437737941741943359e-01,-9.842032194137573242e-02,-1.043368782848119736e-02,-4.093875735998153687e-02,-6.846199929714202881e-02,1.016277223825454712e-01,-5.757163837552070618e-02,7.577559351921081543e-02,1.859719492495059967e-02,-6.106545031070709229e-02,8.290453255176544189e-02,-2.633377015590667725e-01,-1.170125305652618408e-01,-1.483169756829738617e-02,1.657480001449584961e-02,-1.911013424396514893e-01,-2.314022481441497803e-01,2.811657190322875977e-01,-3.436127677559852600e-02,-1.286541670560836792e-01,-1.340711265802383423e-01
-2.905136533081531525e-02,-9.375890344381332397e-02,6.745358556509017944e-02,-1.305204182863235474e-01,-2.410091459751129150e-01,7.952914386987686157e-02,1.698503494262695312e-01,-5.534649640321731567e-02,-8.062467724084854126e-02,-1.470930725336074829e-01,-1.224687620997428894e-01,-1.162145733833312988e-01,4.206768423318862915e-02,2.289865724742412567e-02,-1.232498660683631897e-01,-7.440592348575592041e-02,-1.325890328735113144e-02,1.293937675654888153e-02,-1.022563353180885315e-01,1.508859246969223022e-01,-6.690603494644165039e-02,-8.343280851840972900e-02,-2.194331884384155273e-01,-1.271468698978424072e-01,-1.495538861490786076e-03,6.482582539319992065e-02,-5.675964802503585815e-02,1.077817603945732117e-01,-6.089813634753227234e-02,2.021075785160064697e-01,6.963098049163818359e-02,-2.093450725078582764e-02,-1.399851739406585693e-01,-1.719920635223388672e-01,5.170383024960756302e-03,-1.421731561422348022e-01,-1.831269077956676483e-02,1.599745601415634155e-01,-9.264574199914932251e-02,1.265193708240985870e-02,-2.331789769232273102e-02,1.621157862246036530e-02,-6.464626640081405640e-02,5.501253902912139893e-02,1.105616018176078796e-01,2.566927112638950348e-02,-1.875308007001876831e-01,-1.392809003591537476e-01,-1.015590652823448181e-01,7.429030537605285645e-02,7.845049351453781128e-02,7.739411666989326477e-03,-9.375736117362976074e-02,-2.217333205044269562e-02,-1.017562896013259888e-01,-8.303587138652801514e-02,1.557137817144393921e-01,-1.217451468110084534e-01,-4.202088713645935059e-02,-2.370850294828414917e-01,6.830376386642456055e-02,-9.896822273731231689e-02,-1.328459829092025757e-01,3.027929738163948059e-02
-1.562609523534774780e-01,8.569165132939815521e-03,-3.732156381011009216e-02,6.086946651339530945e-02,4.571274667978286743e-02,4.958236590027809143e-02,-1.295307558029890060e-02,-1.028389930725097656e-01,1.186981871724128723e-01,2.385913580656051636e-02,-1.800017803907394409e-01,-4.609964322298765182e-03,3.186297416687011719e-02,-4.730838537216186523e-02,8.155012130737304688e-02,7.140818983316421509e-02,-4.109032824635505676e-02,-1.269210968166589737e-02,8.727855980396270752e-02,-4.646344110369682312e-02,-1.680108308792114258e-01,-8.479174971580505371e-02,-1.701699942350387573e-01,-1.715863645076751709e-01,-2.127234824001789093e-02,-6.548319756984710693e-02,-1.365795135498046875e-01,-8.099942654371261597e-02,-2.245145477354526520e-02,-9.867402911186218262e-02,1.421401556581258774e-02,-1.332119256258010864e-01,-1.683255583047866821e-01,-8.849237929098308086e-04,7.446373254060745239e-02,-6.756118685007095337e-02,-2.290703058242797852e-01,3.621954470872879028e-02,-1.020357459783554077e-01,-3.163395449519157410e-02,-1.631059050559997559e-01,-1.282886564731597900e-01,1.377461999654769897e-01,-1.277796924114227295e-01,8.507107850164175034e-04,-1.797838807106018066e-01,7.662436366081237793e-02,-2.762870304286479950e-02,-1.166707486845552921e-03,6.769008934497833252e-02,-1.373925507068634033e-01,-1.127142459154129028e-01,-1.068233102560043335e-01,-2.331036180257797241e-01,-1.155762225389480591e-01,-3.646716177463531494e-01,9.713411331176757812e-02,-1.230141147971153259e-01,-1.548470109701156616e-01,5.576423555612564087e-02,-2.263763993978500366e-01,6.482502818107604980e-02,-7.375305891036987305e-02,-9.822438471019268036e-03
-2.123261801898479462e-02,7.395416498184204102e-02,-2.356161326169967651e-01,3.698123618960380554e-02,-6.386024504899978638e-02,-2.243531346321105957e-01,9.422626346349716187e-03,6.788020581007003784e-02,5.044855549931526184e-02,2.878056839108467102e-02,-1.350746899843215942e-01,-7.108591496944427490e-02,-3.653609380125999451e-02,-3.630913048982620239e-02,-1.125208884477615356e-01,-1.485356390476226807e-01,2.158440183848142624e-03,-3.084924519062042236e-01,2.346376478672027588e-01,-5.808763951063156128e-02,-1.840358525514602661e-01,-2.441578358411788940e-02,1.856503337621688843e-01,-7.285279780626296997e-02,1.635128259658813477e-01,2.887821011245250702e-02,-2.567785419523715973e-02,-1.525099277496337891e-01,8.168511837720870972e-02,1.005368232727050781e-01,1.527228802442550659e-01,-8.283991366624832153e-02,6.203717738389968872e-02,1.853772550821304321e-01,-1.967284381389617920e-01,8.977117389440536499e-02,-3.578512743115425110e-02,-5.379524827003479004e-02,5.635575950145721436e-02,1.741919107735157013e-02,-6.262308359146118164e-02,7.588112354278564453e-02,1.403435915708541870e-01,-1.911628395318984985e-01,1.143644526600837708e-01,-6.143915001302957535e-03,8.998380042612552643e-03,-1.638539135456085205e-01,-8.405890315771102905e-02,-3.334478661417961121e-02,4.625665396451950073e-02,9.847541153430938721e-02,1.161282360553741455e-01,-2.934990823268890381e-01,1.179064139723777771e-01,-7.523207366466522217e-02,8.630744181573390961e-03,-1.248812749981880188e-01,-6.806772947311401367e-02,-2.998316586017608643e-01,7.062195986509323120e-02,-3.969300910830497742e-02,6.264758110046386719e-02,-1.603486984968185425e-01
5.619136989116668701e-02,-5.205096304416656494e-02,-1.120743062347173691e-02,9.997288137674331665e-02,1.442182809114456177e-01,-5.508934147655963898e-03,-1.957812607288360596e-01,-9.188403189182281494e-02,-4.160585347563028336e-03,1.091414131224155426e-02,1.413883361965417862e-02,5.484013259410858154e-02,-8.949725888669490814e-03,-1.926980912685394287e-01,-1.660717651247978210e-02,-2.295284122228622437e-01,2.659940347075462341e-02,-6.665802001953125000e-02,-2.267188876867294312e-01,-7.362703233957290649e-02,1.199216470122337341e-01,-1.379536688327789307e-01,-3.070393204689025879e-02,-3.714368864893913269e-02,3.277852386236190796e-02,-4.269654676318168640e-02,-7.023150473833084106e-02,-2.977830171585083008e-02,-4.674480855464935303e-02,-6.002422422170639038e-02,3.050079941749572754e-02,3.569472953677177429e-02,-6.636200845241546631e-02,-5.901885405182838440e-02,4.530104249715805054e-02,-1.024134084582328796e-01,2.435281872749328613e-02,4.873114824295043945e-02,2.499796450138092041e-02,-1.905472874641418457e-01,-1.054442599415779114e-01,7.692660391330718994e-02,6.388949230313301086e-03,-8.739060908555984497e-02,-1.954782903194427490e-01,-1.565276831388473511e-01,6.181671097874641418e-02,-1.340719163417816162e-01,-1.543517261743545532e-01,-2.002986818552017212e-01,-1.806192845106124878e-01,4.845048114657402039e-02,-5.141900479793548584e-02,1.508803665637969971e-01,-2.041221261024475098e-01,-1.364989131689071655e-01,-1.498252060264348984e-02,1.747625693678855896e-02,3.426532074809074402e-02,-2.913913456723093987e-03,9.032472968101501465e-02,1.199410334229469299e-01,-1.033661067485809326e-01,5.067014321684837341e-02
-8.823001384735107422e-02,-2.302619256079196930e-02,4.174506664276123047e-02,-1.783565804362297058e-02,8.142878860235214233e-02,7.599135488271713257e-02,2.038950026035308838e-01,-1.309086829423904419e-01,7.346235215663909912e-02,-1.686891466379165649e-01,1.849709264934062958e-02,-1.288699507713317871e-01,-5.280740186572074890e-02,-1.284144967794418335e-01,1.500916332006454468e-01,-2.337178774178028107e-02,-9.839148074388504028e-02,3.380468487739562988e-02,-2.250130921602249146e-01,5.235907062888145447e-02,-4.168607667088508606e-02,-2.818615548312664032e-02,5.932977423071861267e-02,-1.178675889968872070e-01,1.304446607828140259e-01,1.097095161676406860e-01,-4.674270004034042358e-02,8.922032266855239868e-02,1.876658760011196136e-02,1.527161598205566406e-01,-2.004328519105911255e-01,5.473375692963600159e-02,-3.208039999008178711e-01,-4.992654174566268921e-02,-1.052680015563964844e-01,1.524094194173812866e-01,8.044463396072387695e-02,7.966100424528121948e-02,1.273102164268493652e-01,8.636512793600559235e-03,6.606788188219070435e-02,-1.509885303676128387e-02,-9.161292761564254761e-02,-6.205783411860466003e-02,2.815851382911205292e-02,-6.712257117033004761e-02,5.887949466705322266e-02,9.357819706201553345e-02,-1.481681913137435913e-01,7.337594777345657349e-02,3.481541574001312256e-02,-2.478864742442965508e-03,-9.275789558887481689e-02,-6.598119437694549561e-02,-6.166228652000427246e-02,-1.152460128068923950e-01,-1.007706020027399063e-02,-1.075319275259971619e-01,-1.824166029691696167e-01,5.132000148296356201e-02,-7.295418996363878250e-03,8.519135415554046631e-02,-1.442462652921676636e-01,1.950705200433731079e-01
-9.908185154199600220e-02,-4.780719429254531860e-02,3.416415452957153320e-01,-4.838913306593894958e-02,-1.752454414963722229e-02,-1.979899704456329346e-01,-3.316924674436450005e-03,-1.374512612819671631e-01,-3.300428390502929688e-01,-1.082393974065780640e-01,-1.338517516851425171e-01,3.677959321066737175e-04,1.316664516925811768e-01,-6.090055406093597412e-02,-1.310659348964691162e-01,9.649476036429405212e-03,7.470644265413284302e-02,-2.450550198554992676e-01,-1.008115932345390320e-01,-6.314630806446075439e-02,-2.116044014692306519e-01,-4.035691544413566589e-02,-2.246511429548263550e-01,2.943184599280357361e-02,-1.019142493605613708e-01,-3.148425742983818054e-02,-3.153452416881918907e-03,-4.712154716253280640e-02,-2.966319322586059570e-01,-2.741754949092864990e-01,-1.490508615970611572e-01,-1.145183369517326355e-01,2.083801627159118652e-01,-1.460082828998565674e-01,-2.829869985580444336e-01,-8.566452562808990479e-02,-2.050113677978515625e-01,-2.527626454830169678e-01,2.439349482301622629e-04,3.134492784738540649e-02,-2.722004354000091553e-01,6.306592375040054321e-02,-2.764409221708774567e-02,-9.427937865257263184e-02,-1.691109091043472290e-01,-6.373011320829391479e-02,-6.279764324426651001e-02,-1.086704954504966736e-01,-8.029174804687500000e-02,-3.814749419689178467e-02,-2.074017971754074097e-01,1.648606956005096436e-01,-4.443719983100891113e-02,-2.525900304317474365e-01,-1.969322413206100464e-01,-1.112491488456726074e-01,-2.696395218372344971e-01,-1.528901308774948120e-01,-5.892465123906731606e-04,-1.522741019725799561e-01,7.789050042629241943e-02,-2.214252948760986328e-01,1.131752654910087585e-01,-1.790863089263439178e-02
-3.887366503477096558e-02,8.077670633792877197e-02,-4.079663008451461792e-02,1.182986721396446228e-01,-3.781535848975181580e-02,-2.055500447750091553e-01,-2.279106713831424713e-02,-1.172542478889226913e-02,4.763895273208618164e-02,-1.869557201862335205e-01,6.116864830255508423e-02,3.099662065505981445e-02,-6.505108624696731567e-02,-1.985068917274475098e-01,-1.734097450971603394e-01,5.136089771986007690e-02,6.468266248703002930e-02,-6.191191822290420532e-02,1.122480779886245728e-01,-1.474144160747528076e-01,1.521298885345458984e-01,4.171532392501831055e-02,8.382782340049743652e-02,1.363770850002765656e-02,-2.930893748998641968e-02,-1.908134110271930695e-02,-5.365484580397605896e-02,5.221791192889213562e-02,4.076101258397102356e-02,1.345336437225341797e-01,5.789091065526008606e-02,4.374554380774497986e-02,7.022231817245483398e-02,-6.451077759265899658e-02,-3.831689432263374329e-02,1.033033207058906555e-01,-6.454264372587203979e-02,-1.068123281002044678e-01,-4.687687009572982788e-02,-1.252051591873168945e-01,5.609207600355148315e-02,6.286238133907318115e-02,-2.393473125994205475e-02,-6.191346794366836548e-02,8.053699135780334473e-02,5.372930318117141724e-02,-8.385969698429107666e-02,-2.077509313821792603e-01,-1.280295252799987793e-01,-1.138252485543489456e-02,-8.879593014717102051e-02,1.683731749653816223e-02,-1.352333128452301025e-01,4.805022850632667542e-02,-5.905609577894210815e-02,-1.880966126918792725e-01,-6.524042692035436630e-03,7.728313654661178589e-02,-1.837388128042221069e-01,-1.548674404621124268e-01,2.620527446269989014e-01,-3.633201867341995239e-02,6.937434524297714233e-02,2.445180900394916534e-02
3.746520355343818665e-02,-1.195005252957344055e-01,-1.728428006172180176e-01,1.931288838386535645e-02,1.003297939896583557e-01,-1.170018687844276428e-01,-1.830780506134033203e-01,1.897757500410079956e-02,1.438869684934616089e-01,2.454645000398159027e-02,-5.357289314270019531e-02,-1.679704487323760986e-01,-7.464958727359771729e-02,-8.957289159297943115e-02,1.503553800284862518e-02,-1.599418669939041138e-01,-8.567020297050476074e-02,4.991830512881278992e-02,-1.474583446979522705e-01,-1.482651829719543457e-01,-3.866477683186531067e-02,-9.732580184936523438e-02,4.058508668094873428e-03,1.370717771351337433e-02,3.012665212154388428e-01,5.211750790476799011e-02,1.408249326050281525e-02,1.864679343998432159e-02,-9.748203307390213013e-02,-5.270719900727272034e-02,-6.949864327907562256e-03,-1.015687361359596252e-01,-1.888030618429183960e-01,6.445476412773132324e-02,-1.394470334053039551e-01,6.464164704084396362e-02,-1.099960505962371826e-01,5.221154168248176575e-02,3.655948117375373840e-02,-1.138352155685424805e-01,-1.886132359504699707e-02,-3.748078271746635437e-02,1.923720091581344604e-01,-6.629710644483566284e-02,1.485935319215059280e-02,7.126375287771224976e-02,3.931676223874092102e-02,9.929893910884857178e-02,-5.568266287446022034e-02,1.004729866981506348e-01,5.564946681261062622e-02,1.244985610246658325e-01,1.001344174146652222e-01,-1.716440469026565552e-01,-1.505016349256038666e-02,-5.239016842097043991e-03,-2.774320356547832489e-02,3.200713172554969788e-02,-9.540519863367080688e-02,7.586605101823806763e-02,-8.229367434978485107e-02,-1.570456773042678833e-01,-8.344248682260513306e-02,-7.442787289619445801e-02
-1.090594530105590820e-01,1.213568598031997681e-01,1.520873326808214188e-02,-8.073177933692932129e-02,1.645436584949493408e-01,-1.508397907018661499e-01,-3.384965658187866211e-02,2.272762358188629150e-02,1.189815402030944824e-01,-5.505312979221343994e-02,3.374396637082099915e-02,4.819507896900177002e-02,6.142961233854293823e-02,2.143249958753585815e-01,1.497323513031005859e-01,-1.443131826817989349e-02,9.863551706075668335e-02,-7.633326202630996704e-02,-9.702027589082717896e-02,8.690159022808074951e-02,-1.291056126356124878e-01,1.447179615497589111e-01,-1.645429432392120361e-01,-4.206189420074224472e-03,-5.722271278500556946e-02,3.875104337930679321e-02,-3.360499814152717590e-02,5.339576676487922668e-02,-1.422372609376907349e-01,-7.022318243980407715e-02,9.295959770679473877e-02,-6.108678132295608521e-02,1.186336800456047058e-01,2.637995872646570206e-03,1.201455667614936829e-01,8.699779212474822998e-02,-6.951621919870376587e-02,1.538192331790924072e-01,1.136372089385986328e-01,4.115529730916023254e-02,-1.059362143278121948e-01,4.128302633762359619e-02,4.402244836091995239e-02,-4.302901402115821838e-02,-3.817938268184661865e-02,-2.131670713424682617e-02,-1.278597861528396606e-02,8.001603186130523682e-02,7.085531949996948242e-02,-4.212049767374992371e-02,-5.900783836841583252e-02,1.381520479917526245e-01,-1.202172264456748962e-01,9.366925060749053955e-02,-1.592717170715332031e-01,-1.518126279115676880e-01,1.543374210596084595e-01,-1.195539440959692001e-02,2.679014392197132111e-02,-9.122357517480850220e-02,2.296560555696487427e-01,-1.332909464836120605e-01,6.457227468490600586e-02,9.922436624765396118e-02
1.633790135383605957e-01,1.238067895174026489e-01,-3.917665779590606689e-02,-1.290341466665267944e-01,-9.414269775152206421e-02,7.447371631860733032e-02,-2.521663308143615723e-01,-1.258949935436248779e-01,-1.118659228086471558e-02,-1.209959685802459717e-01,1.425601541996002197e-02,1.913713663816452026e-02,-1.455713212490081787e-01,-1.770739108324050903e-01,-2.195645123720169067e-02,-9.264682233333587646e-02,-2.733522281050682068e-02,-8.112016320228576660e-02,1.616254635155200958e-02,-1.079026162624359131e-01,-1.815295070409774780e-01,-2.408817261457443237e-01,-2.075098603963851929e-01,-5.666844174265861511e-02,1.178744249045848846e-02,8.479536511003971100e-03,-2.866667881608009338e-02,3.976779058575630188e-03,-2.219503074884414673e-01,-1.803361028432846069e-01,-1.304878145456314087e-01,-1.147349923849105835e-01,1.844739615917205811e-01,-8.534488081932067871e-02,-9.389978647232055664e-02,7.370600104331970215e-02,-4.224493801593780518e-01,-3.091685473918914795e-02,-7.135006040334701538e-02,-1.927395910024642944e-02,-1.113851889967918396e-01,7.129608653485774994e-03,1.122883483767509460e-01,-1.215085014700889587e-01,-9.628054499626159668e-02,3.310310468077659607e-02,-1.581534892320632935e-01,3.946010954678058624e-03,4.344709590077400208e-02,-8.080906420946121216e-02,-1.503242254257202148e-01,3.399443626403808594e-01,-1.869001775048673153e-03,1.941564492881298065e-02,-7.582896947860717773e-02,-2.033876627683639526e-01,-1.559022814035415649e-01,-8.741170167922973633e-02,-1.518243402242660522e-01,-3.103659674525260925e-02,-3.793745860457420349e-02,-1.887908577919006348e-01,-8.586347103118896484e-03,5.540178716182708740e-02
-1.258441209793090820e-01,-9.341226518154144287e-02,-1.019089445471763611e-01,9.148982912302017212e-02,-9.351300448179244995e-02,-9.329044073820114136e-02,-6.004349514842033386e-02,-1.603588461875915527e-02,-2.130378037691116333e-02,5.242508277297019958e-02,1.386286914348602295e-01,6.919595599174499512e-02,4.264398291707038879e-02,-9.990959428250789642e-03,-9.390647709369659424e-02,-1.321146171540021896e-02,8.428336679935455322e-02,7.318083196878433228e-02,2.344434894621372223e-02,7.877379655838012695e-03,-9.930460155010223389e-02,1.171664819121360779e-01,-1.553445309400558472e-01,-3.494424454402178526e-04,-4.126955568790435791e-02,-4.173617810010910034e-02,-1.675274223089218140e-01,6.704033911228179932e-02,2.226265072822570801e-01,2.452852949500083923e-02,4.850568622350692749e-02,7.317330688238143921e-02,8.815713226795196533e-02,-6.442124396562576294e-02,-3.531894460320472717e-02,4.371955618262290955e-02,1.387142855674028397e-02,2.671569883823394775e-01,-1.222271099686622620e-01,2.944724261760711670e-02,-7.713464088737964630e-03,-1.437507420778274536e-01,1.575761437416076660e-01,4.680684208869934082e-02,3.746031224727630615e-02,-1.892805546522140503e-01,-1.443083398044109344e-02,4.389669001102447510e-02,1.575978249311447144e-01,-1.089655086398124695e-01,2.162228971719741821e-01,-3.072353079915046692e-02,-3.683107718825340271e-02,1.053011044859886169e-02,1.068883314728736877e-01,-9.235608577728271484e-02,9.172972291707992554e-02,9.999413788318634033e-02,2.113511860370635986e-01,4.550548270344734192e-02,-1.016053631901741028e-01,1.160380523651838303e-02,3.975664265453815460e-03,1.544220745563507080e-01
-1.577176600694656372e-01,-1.321848481893539429e-01,1.493245959281921387e-01,1.087197735905647278e-01,-2.032117359340190887e-02,3.604102432727813721e-01,-8.859023451805114746e-03,-1.748659648001194000e-02,1.419406086206436157e-01,-1.225725002586841583e-02,-8.453194168396294117e-04,4.971941187977790833e-02,9.634712338447570801e-02,-4.955628141760826111e-02,-1.557759102433919907e-02,-1.017042696475982666e-01,1.158381551504135132e-01,-9.176026284694671631e-02,-2.275121510028839111e-01,5.309182405471801758e-02,-1.510429978370666504e-01,1.060807779431343079e-01,-8.743866533041000366e-02,-3.457529097795486450e-02,-7.558567821979522705e-02,1.477122157812118530e-01,-7.277628034353256226e-02,-1.334494054317474365e-01,-7.006838452070951462e-03,-9.057039767503738403e-02,9.236378222703933716e-02,-1.011891141533851624e-01,6.421091407537460327e-02,2.133815176784992218e-02,-1.506624668836593628e-01,-2.072112411260604858e-01,-2.090660631656646729e-01,1.598864980041980743e-02,1.408600131981074810e-03,4.345476999878883362e-02,-4.433123022317886353e-02,-7.661748677492141724e-02,2.352737449109554291e-02,1.524965092539787292e-02,-1.414376646280288696e-01,5.670489743351936340e-02,4.163268208503723145e-02,-5.504816025495529175e-02,-4.616019874811172485e-02,2.920964546501636505e-02,1.051522791385650635e-01,2.001462280750274658e-01,3.850232437252998352e-02,6.169744208455085754e-02,1.300030481070280075e-02,-1.969008594751358032e-01,-6.990626454353332520e-02,-3.370254114270210266e-02,-1.603851653635501862e-02,-5.849282070994377136e-02,-1.626724898815155029e-01,-1.227064877748489380e-01,2.217410504817962646e-02,1.284908354282379150e-01
3.492900356650352478e-02,-1.011049523949623108e-01,-3.024454973638057709e-02,3.764593228697776794e-02,-6.547075510025024414e-02,-1.757161766290664673e-01,1.104779019951820374e-01,-4.535530880093574524e-02,1.006106287240982056e-02,-6.572861969470977783e-02,7.557503879070281982e-03,-1.440735161304473877e-01,1.202642545104026794e-02,2.241186425089836121e-02,2.708653360605239868e-02,1.441741883754730225e-01,-1.445484906435012817e-01,-2.805299824103713036e-03,-3.447111323475837708e-02,-3.173134326934814453e-01,-1.017620414495468140e-01,8.355598151683807373e-02,-2.347563058137893677e-01,-1.324961930513381958e-01,-8.628532290458679199e-03,3.006920963525772095e-02,-3.782172873616218567e-02,-2.702247723937034607e-02,2.834594435989856720e-02,-3.804629445075988770e-01,-6.569184362888336182e-02,7.671923190355300903e-02,6.052384618669748306e-03,-1.387359946966171265e-01,6.515318155288696289e-02,-9.103000909090042114e-02,-1.841651350259780884e-01,2.615905134007334709e-03,-1.708929687738418579e-01,-1.189469099044799805e-01,-2.494822889566421509e-01,-1.395104825496673584e-02,-6.175895780324935913e-02,-6.052293255925178528e-02,-1.577365249395370483e-01,9.867158532142639160e-02,-9.180700033903121948e-02,4.161221161484718323e-02,-8.430021256208419800e-02,-9.207043051719665527e-02,-2.787124924361705780e-02,1.674909293651580811e-01,-7.648639380931854248e-02,2.513148486614227295e-01,-3.717962279915809631e-02,-2.025036215782165527e-01,-1.167644709348678589e-01,-2.261487767100334167e-02,1.196672767400741577e-01,6.243597716093063354e-02,4.605071991682052612e-02,2.129959166049957275e-01,-2.172594666481018066e-01,1.165751516819000244e-01
-1.907870620489120483e-01,9.535662084817886353e-02,1.411846131086349487e-01,8.095352351665496826e-02,-1.530212163925170898e-01,2.096273750066757202e-01,7.121951878070831299e-02,-4.161785542964935303e-02,1.096373721957206726e-01,6.063960865139961243e-02,1.506782025098800659e-01,-1.057971566915512085e-01,8.397011458873748779e-02,2.914801053702831268e-02,6.848027557134628296e-02,-2.408783137798309326e-01,-2.621365524828433990e-02,-7.967809587717056274e-02,1.167386919260025024e-01,-7.694780826568603516e-02,1.559002995491027832e-01,-1.244599521160125732e-01,-6.770718097686767578e-02,-9.979431331157684326e-02,-2.213801443576812744e-02,1.438187062740325928e-02,1.323679834604263306e-02,-1.896918192505836487e-02,-1.737589389085769653e-01,-1.806633174419403076e-01,6.696712970733642578e-02,-8.168718963861465454e-02,-2.653688788414001465e-01,-7.685439288616180420e-02,1.684887409210205078e-01,-2.622883999720215797e-03,-1.249414160847663879e-01,-3.332697227597236633e-02,6.812085211277008057e-02,1.040309444069862366e-01,4.157008975744247437e-02,6.440623849630355835e-02,1.190739274024963379e-01,7.142328470945358276e-02,-1.288675814867019653e-01,-1.588668823242187500e-01,-1.290542483329772949e-01,-4.643874615430831909e-02,1.204197257757186890e-01,2.336369268596172333e-02,5.528708919882774353e-02,2.835194766521453857e-02,-1.456871926784515381e-01,-9.929509460926055908e-02,5.841558799147605896e-02,-5.618461593985557556e-02,5.338738113641738892e-02,-2.979714982211589813e-02,-4.495290666818618774e-02,-1.824260801076889038e-01,-5.696013942360877991e-02,8.657402941025793552e-04,-1.443367544561624527e-02,1.560806334018707275e-01
1.395564973354339600e-01,-7.234908640384674072e-02,3.086591698229312897e-02,1.570310257375240326e-02,1.682978495955467224e-02,1.500150840729475021e-02,2.292994558811187744e-01,-1.337234526872634888e-01,-4.922043997794389725e-03,-8.435454964637756348e-02,-1.831175535917282104e-01,4.524040594696998596e-02,1.002874597907066345e-01,4.017106071114540100e-02,-1.092922464013099670e-01,-1.361597329378128052e-01,9.435962140560150146e-02,-4.739876464009284973e-02,9.378962963819503784e-02,-6.792621314525604248e-02,-7.434587180614471436e-02,-3.655081614851951599e-02,6.419818848371505737e-02,1.110539287328720093e-01,7.794634252786636353e-02,4.883245751261711121e-02,4.023154824972152710e-02,-6.974840164184570312e-02,-7.057402282953262329e-02,4.188428074121475220e-02,-2.481244653463363647e-01,-1.670417785644531250e-01,-1.806346885859966278e-02,-1.501191407442092896e-01,-5.628612637519836426e-02,-5.983167886734008789e-02,-7.401045411825180054e-02,-9.549096226692199707e-03,-1.289188563823699951e-01,-2.233178317546844482e-01,-1.627375930547714233e-01,-1.378033012151718140e-01,-1.711392588913440704e-02,-2.464754134416580200e-01,-2.834051474928855896e-02,-1.346725821495056152e-01,1.588213741779327393e-01,1.381409168243408203e-01,1.437212824821472168e-01,-1.009808629751205444e-01,7.855211198329925537e-02,-6.893475529068382457e-06,1.517466362565755844e-02,-1.220692694187164307e-01,-7.287698239088058472e-02,-3.340675309300422668e-02,1.172714754939079285e-01,-1.453558448702096939e-02,-7.609452307224273682e-02,-6.492212414741516113e-02,-1.099244207143783569e-01,-5.616930499672889709e-02,-6.265667080879211426e-02,-1.420215815305709839e-01
-8.953943848609924316e-02,-8.076354116201400757e-02,-9.999623894691467285e-02,-7.524278014898300171e-02,-4.104815423488616943e-02,-2.355768829584121704e-01,4.637812077999114990e-02,4.896496236324310303e-02,-1.301189959049224854e-01,-1.100282371044158936e-01,-1.541966497898101807e-01,-4.325831308960914612e-02,-3.404861781746149063e-03,9.290713816881179810e-02,-1.821157783269882202e-01,-4.351587593555450439e-02,8.808216452598571777e-02,8.154922723770141602e-02,1.828196644783020020e-01,2.975567430257797241e-02,8.531185984611511230e-02,-7.851119339466094971e-02,4.923994466662406921e-02,-5.106137320399284363e-02,1.462133526802062988e-01,6.124905869364738464e-02,-1.939053833484649658e-01,6.137583032250404358e-02,-1.433447152376174927e-01,-6.293237209320068359e-02,-5.307171028107404709e-03,5.395877361297607422e-02,-4.256550222635269165e-03,1.896961927413940430e-01,-1.076596081256866455e-01,2.005836367607116699e-01,1.293380111455917358e-01,2.061143368482589722e-01,-1.338519006967544556e-01,-8.185185492038726807e-03,-1.577427089214324951e-01,-1.780421137809753418e-01,4.487967118620872498e-02,-8.228208124637603760e-02,1.109112426638603210e-01,4.809663444757461548e-02,-1.540754735469818115e-01,2.459580823779106140e-02,5.947809293866157532e-02,-2.414717525243759155e-01,9.097248315811157227e-02,-1.744455546140670776e-01,5.828463658690452576e-02,-4.962727054953575134e-02,5.197956413030624390e-02,-7.108217477798461914e-02,-1.483413577079772949e-01,-1.334172487258911133e-01,9.749195724725723267e-02,3.921848908066749573e-02,-1.390494257211685181e-01,-5.880829319357872009e-02,5.972895771265029907e-02,-1.972523778676986694e-01
6.807078421115875244e-02,-5.600868538022041321e-02,6.794274598360061646e-02,2.237393707036972046e-02,5.821990594267845154e-02,1.208439692854881287e-01,-2.425118982791900635e-01,-1.162413060665130615e-01,-5.850164219737052917e-02,-1.622318029403686523e-01,-3.879201784729957581e-02,1.772371469996869564e-03,1.242258585989475250e-02,2.424413710832595825e-01,-6.612653844058513641e-03,5.291746184229850769e-02,-1.196760982275009155e-01,3.041781857609748840e-02,-7.525935769081115723e-02,9.383962303400039673e-02,-4.699559509754180908e-02,-1.643753945827484131e-01,1.426450759172439575e-01,-1.452418118715286255e-01,5.379299819469451904e-02,6.593472789973020554e-05,5.858447030186653137e-02,1.375087536871433258e-02,-1.646859347820281982e-01,-1.249369047582149506e-02,-6.925768405199050903e-02,5.533682182431221008e-02,1.301553752273321152e-02,-2.825070321559906006e-01,4.495505616068840027e-02,-1.183354184031486511e-01,-4.123131558299064636e-02,-2.749072015285491943e-02,-1.052961051464080811e-01,1.266736686229705811e-01,2.488816715776920319e-02,2.573148161172866821e-02,-1.631279587745666504e-01,-9.775856882333755493e-02,6.538956612348556519e-02,-2.517015673220157623e-02,-6.387551128864288330e-02,5.998662672936916351e-03,7.711639627814292908e-03,-5.339002609252929688e-02,7.029497530311346054e-03,2.193523645401000977e-01,4.697774350643157959e-02,-1.336834728717803955e-01,1.292490307241678238e-02,-9.922498464584350586e-02,9.704591333866119385e-02,-1.623349338769912720e-01,-3.359656780958175659e-02,1.615773290395736694e-01,1.991725713014602661e-01,1.356802284717559814e-01,2.476067654788494110e-02,7.651276141405105591e-02
