-7.159376144409179688e-02,-1.398710906505584717e-02,-6.092863529920578003e-02,-1.910157501697540283e-02,-8.615450561046600342e-02,6.686053425073623657e-02,-1.841330379247665405e-01,-1.164332106709480286e-01,2.667293138802051544e-02,-8.732687681913375854e-03,-8.291943371295928955e-02,-1.102855354547500610e-01,-2.649619579315185547e-01,-2.639764845371246338e-01,2.525027990341186523e-01,5.524002388119697571e-02,-4.746252298355102539e-02,-2.111047953367233276e-01,3.101980686187744141e-02,-3.285562619566917419e-02,-1.838875561952590942e-02,-6.560614705085754395e-02,6.276170164346694946e-02,3.209506347775459290e-02,-2.745398879051208496e-01,-1.820000261068344116e-01,-2.862782031297683716e-02,-5.398656800389289856e-02,-1.535384953022003174e-01,-1.868862956762313843e-01,-3.720737248659133911e-02,6.171157211065292358e-02,3.540565073490142822e-02,-1.567134559154510498e-01,1.632395684719085693e-01,6.935104727745056152e-02,-4.546634480357170105e-02,-1.483228355646133423e-01,-7.949581742286682129e-02,-2.362600415945053101e-01,-5.890351906418800354e-02,1.436778604984283447e-01,-3.440108150243759155e-02,-5.748627707362174988e-02,-3.144238516688346863e-02,-1.235070899128913879e-01,-7.722026854753494263e-02,9.922199696302413940e-02,-7.441337406635284424e-02,-9.518428146839141846e-02,3.910396248102188110e-03,-5.040978267788887024e-02,-1.030643731355667114e-01,1.731072552502155304e-03,-4.567383229732513428e-02,-2.179251760244369507e-01,-1.235353052616119385e-01,-1.381110399961471558e-01,-4.480457678437232971e-02,1.933861896395683289e-02,-1.358527839183807373e-01,-3.161260187625885010e-01,-4.670572653412818909e-02,-1.410723924636840820e-01,-1.095049455761909485e-01,-7.204045355319976807e-02,-1.796528697013854980e-01,-3.610048815608024597e-02,-5.755153670907020569e-02,-1.173929795622825623e-01,-1.188762113451957703e-01,-1.558436602354049683e-01,-1.087171360850334167e-01,4.919334128499031067e-02,-3.764870390295982361e-02,-1.880584843456745148e-02,-1.219007074832916260e-01,1.390002667903900146e-01,3.588455170392990112e-02,4.481264477362856269e-05,-9.489528089761734009e-02,-1.668440550565719604e-01,-6.291421502828598022e-02,-2.778865694999694824e-01,-2.018139660358428955e-01,1.756986379623413086e-01,-6.891539692878723145e-02,-6.764572113752365112e-02,-1.263701915740966797e-01,-7.127815485000610352e-02,-4.942994192242622375e-02,2.405686527490615845e-01,2.408918142318725586e-01,-1.743599623441696167e-01,-9.896089136600494385e-02,-7.612778246402740479e-02,-5.240519344806671143e-02,-1.026092022657394409e-01,-9.915930032730102539e-02,1.079556941986083984e-01,1.103702187538146973e-02,-1.818175762891769409e-01,-3.236177563667297363e-02,-9.645641595125198364e-02,-1.015881225466728210e-01,-3.111827187240123749e-02,-1.610538661479949951e-01,-6.156696751713752747e-02,-2.524228952825069427e-02,-2.778636850416660309e-02,-2.148030251264572144e-01,-7.128448784351348877e-02,-3.048025071620941162e-02,-8.255851268768310547e-02,-1.494663208723068237e-01,-1.218631863594055176e-01,1.087238173931837082e-02,-2.220428586006164551e-01,-8.253427594900131226e-02,-7.826358079910278320e-03,-1.681381911039352417e-01,1.294548362493515015e-01,-1.356928348541259766e-01,2.171909958124160767e-01,-1.215009242296218872e-01,-3.491409122943878174e-02,-9.913124144077301025e-02,-2.588652670383453369e-01,5.000937730073928833e-02,1.400161236524581909e-01,-2.346676886081695557e-01,-1.568072587251663208e-01,-6.587579101324081421e-02,-9.460027515888214111e-02,-1.486822310835123062e-02,-1.053818836808204651e-01,-2.208328433334827423e-02,-1.111277639865875244e-01,-1.778769046068191528e-01,-7.386355847120285034e-02,-1.579748094081878662e-01,-1.918964982032775879e-01,-2.019038349390029907e-01,7.652102410793304443e-02,-2.564750239253044128e-02,-3.611453995108604431e-02,-8.656892180442810059e-02,-1.428253501653671265e-01,-7.439034432172775269e-02,-1.566157042980194092e-01,-7.295029610395431519e-02,-8.299130946397781372e-02,-3.455544114112854004e-01,-5.797411501407623291e-02,-1.414283812046051025e-01,-1.990438252687454224e-01,-6.043720990419387817e-02,-6.342409551143646240e-02,-9.407943487167358398e-02,-4.926501959562301636e-02,-1.731003671884536743e-01,-1.107088401913642883e-01,-1.557283103466033936e-01,1.942467987537384033e-01,1.038301065564155579e-01,-1.833056062459945679e-01,-2.303746342658996582e-02,1.532862335443496704e-01,-3.916031494736671448e-02,-2.036892324686050415e-01,-1.970957219600677490e-02,-1.665221154689788818e-01,-9.291069209575653076e-02,-9.167555719614028931e-02,-5.042742937803268433e-02,-2.354138642549514771e-01,-1.300428956747055054e-01,-3.834829106926918030e-02,-1.895018517971038818e-01,-7.031993567943572998e-02,-1.125402525067329407e-01,-4.916457086801528931e-02,-2.477610856294631958e-01,3.575965238269418478e-04,-1.278050541877746582e-01,6.689968705177307129e-02,1.448766887187957764e-02,-1.703010872006416321e-02,-2.227773666381835938e-01,-5.887384712696075439e-02,-1.888007670640945435e-01,-1.780382841825485229e-01,-5.865691229701042175e-03,3.284472599625587463e-02,-7.784191519021987915e-02,-1.131057515740394592e-01,-9.856867045164108276e-02,-9.975296258926391602e-02,-4.350910708308219910e-02,1.148039624094963074e-01,-9.005334973335266113e-02,-1.700368672609329224e-01,-4.223261401057243347e-02,5.057809408754110336e-03,1.913206838071346283e-02,-4.327495396137237549e-02,-1.947589218616485596e-01,-7.540764659643173218e-02,-1.077041625976562500e-01,-2.760901814326643944e-03,-2.547973394393920898e-01,1.270620524883270264e-01,-7.225670665502548218e-02,5.941521376371383667e-02,-1.623668074607849121e-01,9.137132763862609863e-02,-8.732707798480987549e-02,-9.763534367084503174e-02,-1.682407855987548828e-01,-2.677072882652282715e-01,6.283996254205703735e-02,-5.165589600801467896e-02,-8.583323657512664795e-02,-1.021752655506134033e-01,-5.600528419017791748e-02,-1.663644909858703613e-01,-9.654449671506881714e-02,-1.012685224413871765e-01,1.381393428891897202e-02,-8.242002874612808228e-02,-2.315144799649715424e-02,1.071216017007827759e-01,-3.410873189568519592e-02,-8.970677852630615234e-02,-7.829996943473815918e-02,-9.300351142883300781e-02,-2.637254893779754639e-01,-1.015828177332878113e-01,-1.270254403352737427e-01,-3.033417463302612305e-02,1.863673031330108643e-01,-1.053161323070526123e-01,9.485807968303561211e-04,-3.553156927227973938e-02,-2.114057093858718872e-01,-6.655256450176239014e-02,-9.610878676176071167e-02,-5.801546573638916016e-02,6.830570846796035767e-02,1.135434955358505249e-01,-1.299671530723571777e-01,-1.248063892126083374e-01,-1.387793570756912231e-01,-2.705692313611507416e-02,-5.346955731511116028e-02,-2.487942874431610107e-01
-1.194706782698631287e-01,-2.678903518244624138e-03,-3.739756643772125244e-01,-2.943141572177410126e-02,1.722910255193710327e-02,-5.641504377126693726e-02,-3.253630995750427246e-01,-1.498267352581024170e-01,5.728199146687984467e-03,-1.990223377943038940e-01,-3.315226733684539795e-02,-1.634897291660308838e-02,7.175537198781967163e-02,4.465749114751815796e-02,1.675035953521728516e-01,-2.307881414890289307e-01,-2.436612546443939209e-01,-8.544498682022094727e-02,-9.505487978458404541e-02,4.568593576550483704e-03,-4.646559059619903564e-02,-1.854769587516784668e-01,1.099235340952873230e-01,-9.834160655736923218e-02,1.724294722080230713e-01,-3.221898525953292847e-02,-3.098759055137634277e-01,-1.192849129438400269e-01,-8.503008633852005005e-02,-9.938190877437591553e-02,-6.679303199052810669e-02,4.566442593932151794e-02,1.125043407082557678e-01,2.868288010358810425e-02,7.569863647222518921e-02,2.714421972632408142e-02,-2.286831438541412354e-01,-1.367458254098892212e-01,-5.394142866134643555e-02,-1.609325036406517029e-02,-2.308711409568786621e-01,-6.298261880874633789e-02,-1.237316131591796875e-01,-7.141839712858200073e-02,-2.222629189491271973e-01,-9.056088328361511230e-02,-9.217338263988494873e-02,2.277422882616519928e-02,5.570154637098312378e-02,6.470749527215957642e-02,-6.151653081178665161e-02,-1.139298453927040100e-01,-6.136433407664299011e-02,-7.727850973606109619e-02,-7.611642032861709595e-02,-1.563291251659393311e-01,-5.786808952689170837e-02,-4.864521324634552002e-02,-6.315330415964126587e-02,-2.101456522941589355e-01,-6.786929070949554443e-02,1.368682738393545151e-02,-1.808078587055206299e-01,4.502207506448030472e-03,8.608288317918777466e-02,1.070214621722698212e-02,7.463422417640686035e-02,-1.128596439957618713e-01,-1.031831279397010803e-01,-1.480832397937774658e-01,-2.299018204212188721e-01,-2.570108324289321899e-02,-1.934047043323516846e-01,-1.292281448841094971e-01,-4.579919204115867615e-02,-2.076974064111709595e-01,2.587163075804710388e-02,5.399495363235473633e-02,1.346365176141262054e-02,-1.039322838187217712e-02,-1.690317094326019287e-01,-4.408835619688034058e-02,-8.436668664216995239e-02,7.484625559300184250e-03,-1.088080704212188721e-01,4.989920929074287415e-02,5.702919512987136841e-02,-4.441056400537490845e-02,-7.667943090200424194e-02,-2.307317703962326050e-01,-1.159907653927803040e-01,-1.391239091753959656e-02,9.756733477115631104e-02,3.007839201018214226e-03,-1.647711843252182007e-01,-8.244062773883342743e-03,-2.417338490486145020e-01,-5.574797093868255615e-02,-6.603503972291946411e-02,8.100893348455429077e-02,6.304981559514999390e-02,4.530733823776245117e-02,-9.044434130191802979e-02,-1.434268653392791748e-01,-1.321995556354522705e-01,1.360665559768676758e-01,2.250400334596633911e-01,-6.737869232892990112e-02,1.073935534805059433e-02,5.726340785622596741e-02,1.232940480113029480e-01,-6.228964775800704956e-02,-2.125311046838760376e-01,-1.337310820817947388e-01,-3.801040723919868469e-02,-2.026561498641967773e-01,-1.447993218898773193e-01,3.348459675908088684e-02,3.377101197838783264e-02,-3.156273812055587769e-02,2.052862942218780518e-02,-6.752941757440567017e-02,3.073553144931793213e-01,1.107079070061445236e-02,1.225409358739852905e-01,1.237327754497528076e-01,-1.374211460351943970e-01,1.630277559161186218e-02,1.643426865339279175e-01,2.563624642789363861e-03,-7.632125914096832275e-02,-1.125350967049598694e-01,-6.022586673498153687e-02,-1.158008947968482971e-01,8.315690606832504272e-02,-6.583292037248611450e-02,-4.037686288356781006e-01,-1.638511121273040771e-01,9.915199130773544312e-02,-1.304001659154891968e-01,-1.027383953332901001e-01,-6.050297245383262634e-02,7.169289141893386841e-02,7.416744530200958252e-02,9.076325595378875732e-02,-1.489609181880950928e-01,-9.771127253770828247e-02,-3.160734176635742188e-01,-1.724838614463806152e-01,-4.951608553528785706e-02,-4.746298864483833313e-02,-1.812207847833633423e-01,5.943360179662704468e-02,-1.370228081941604614e-01,3.145976364612579346e-02,-4.966212436556816101e-02,-1.203133687376976013e-01,-1.275686323642730713e-01,-7.086486369371414185e-02,-2.669632807374000549e-02,-8.115158975124359131e-02,-2.731829648837447166e-03,-4.115239158272743225e-02,3.177340142428874969e-03,1.126183643937110901e-01,1.694830656051635742e-01,-1.116971578449010849e-02,4.713607206940650940e-02,2.489861287176609039e-02,6.603038311004638672e-02,1.994382441043853760e-01,-6.595993787050247192e-02,-6.193536147475242615e-02,-4.385809414088726044e-03,-1.386716067790985107e-01,-5.689223855733871460e-02,1.212011873722076416e-01,2.613190747797489166e-02,-3.701498266309499741e-03,6.082240026444196701e-03,-6.864775717258453369e-02,4.870477598160505295e-03,-7.921481132507324219e-02,-1.090978384017944336e-01,-2.026828378438949585e-01,-7.575267553329467773e-02,3.231007978320121765e-02,-1.268351376056671143e-01,1.360853314399719238e-01,-1.162956953048706055e-01,4.841856658458709717e-02,-1.097283586859703064e-01,-1.718257069587707520e-01,5.698212236166000366e-02,4.530641809105873108e-02,-2.825819142162799835e-02,5.757882818579673767e-02,2.029559947550296783e-02,-8.344615250825881958e-02,-2.406458634141017683e-06,-8.872915059328079224e-02,-2.584743797779083252e-01,8.359776437282562256e-02,3.449755162000656128e-02,2.103092521429061890e-02,-1.972101479768753052e-01,-9.166107047349214554e-04,-7.977319508790969849e-02,-2.612656354904174805e-01,-2.944985032081604004e-02,3.694478049874305725e-02,-1.216052994132041931e-01,-1.663004010915756226e-01,-9.717020392417907715e-02,-1.927246600389480591e-01,-2.297402918338775635e-01,-1.611836138181388378e-03,-1.170949861407279968e-01,3.308990038931369781e-03,4.754301160573959351e-02,3.622689098119735718e-02,-4.873119294643402100e-02,-1.151434779167175293e-01,-2.042791396379470825e-01,-2.000889331102371216e-01,3.832032158970832825e-02,-3.833914175629615784e-02,-3.057678416371345520e-02,4.798422567546367645e-03,1.309566348791122437e-01,5.298360064625740051e-02,2.027450501918792725e-02,1.092934161424636841e-01,5.101847276091575623e-02,-1.321033854037523270e-02,-9.789799898862838745e-02,7.758130878210067749e-02,-1.479379087686538696e-02,-1.321016252040863037e-01,-1.528801470994949341e-01,1.500077992677688599e-01,-5.993473902344703674e-02,1.296221744269132614e-02,7.002802193164825439e-02,1.730421334505081177e-01,-1.020710021257400513e-01,-2.230666764080524445e-02,-2.536510825157165527e-01,-2.964771538972854614e-02,4.640886560082435608e-02,-1.753162294626235962e-01,-2.192955613136291504e-01,-1.995511502027511597e-01,-6.643540412187576294e-02,-2.002384364604949951e-01,3.142465651035308838e-02
5.869533494114875793e-02,-1.000895202159881592e-01,-1.077039018273353577e-01,-2.515228651463985443e-02,2.503853291273117065e-02,2.614524401724338531e-02,7.536165416240692139e-02,-1.900382898747920990e-02,-6.116969510912895203e-02,-1.178693398833274841e-02,3.419504314661026001e-02,1.265129745006561279e-01,-1.342462152242660522e-01,-9.453397244215011597e-02,-1.843046955764293671e-02,-1.960823312401771545e-02,-7.652731239795684814e-02,-8.052270859479904175e-02,-1.069128736853599548e-01,1.248104944825172424e-01,1.348671764135360718e-01,-6.567415595054626465e-02,3.059085272252559662e-02,-9.421718865633010864e-02,6.931793689727783203e-02,-3.307608142495155334e-02,-1.273801177740097046e-01,-9.469660371541976929e-02,-1.744018495082855225e-01,3.294442966580390930e-02,6.277479231357574463e-02,1.264707446098327637e-01,1.386856138706207275e-01,1.306553836911916733e-02,8.299120701849460602e-03,-2.006514742970466614e-02,-1.163585260510444641e-01,-3.905333206057548523e-02,1.070602983236312866e-01,-4.537018761038780212e-02,1.573660597205162048e-02,3.283086791634559631e-02,8.811763674020767212e-02,-7.643231749534606934e-02,-5.642500519752502441e-02,-8.557941764593124390e-02,8.582432568073272705e-02,-1.408870071172714233e-01,-2.581693790853023529e-02,-6.235194206237792969e-02,-4.309657588601112366e-02,-3.012538515031337738e-02,-9.600853919982910156e-02,-7.455440610647201538e-02,-1.006426475942134857e-02,-1.519199907779693604e-01,-1.035717800259590149e-01,-9.069035202264785767e-02,2.715413086116313934e-02,-2.137516625225543976e-02,6.070304661989212036e-02,-1.405411679297685623e-02,7.056014984846115112e-02,2.897590771317481995e-02,4.041712731122970581e-03,1.587333232164382935e-01,-8.858538419008255005e-02,3.434599190950393677e-02,-1.397978216409683228e-01,1.504288055002689362e-02,-1.215100437402725220e-01,4.480631649494171143e-02,1.976291090250015259e-02,-5.105007439851760864e-02,2.640438964590430260e-03,1.513331979513168335e-01,4.865911602973937988e-02,1.001091599464416504e-01,-2.075274288654327393e-02,2.005594819784164429e-01,-6.169438734650611877e-02,-4.163927584886550903e-02,2.330424450337886810e-02,3.573134541511535645e-03,-1.147210448980331421e-01,4.357684776186943054e-02,2.640648372471332550e-02,7.186219096183776855e-02,-5.340963974595069885e-02,3.432619571685791016e-02,1.680476516485214233e-01,-1.900557875633239746e-01,2.508316189050674438e-02,7.591342926025390625e-02,-5.024099349975585938e-02,-7.614920288324356079e-02,5.744252726435661316e-02,2.665068209171295166e-02,-1.253670305013656616e-01,-6.033990997821092606e-03,-1.478294003754854202e-02,-9.620596468448638916e-02,1.910556666553020477e-02,-1.186526939272880554e-01,-1.080118641257286072e-01,1.199076026678085327e-01,5.397476628422737122e-02,1.510749012231826782e-01,8.152291923761367798e-02,2.138228528201580048e-02,-1.328642200678586960e-02,1.347171664237976074e-01,-7.645595818758010864e-02,-8.986308425664901733e-02,-1.285334303975105286e-02,-1.298490613698959351e-01,1.818418502807617188e-02,-3.357261791825294495e-02,-3.127273917198181152e-02,9.539264440536499023e-02,-1.572677046060562134e-01,5.151639878749847412e-02,6.556201726198196411e-02,1.175069138407707214e-01,7.837145030498504639e-02,1.215203404426574707e-01,-2.877085283398628235e-02,-4.511816054582595825e-02,-1.224248111248016357e-01,1.213033944368362427e-01,8.139057457447052002e-02,-1.013356968760490417e-01,2.047852873802185059e-01,8.337081968784332275e-02,1.179356575012207031e-01,8.410587906837463379e-02,-1.258467417210340500e-02,1.493015326559543610e-02,-6.251382827758789062e-02,1.172123774886131287e-01,1.859025284647941589e-02,-6.319954246282577515e-02,8.829011768102645874e-02,6.341907195746898651e-03,7.992526143789291382e-02,1.977066099643707275e-01,6.978939287364482880e-03,9.505654685199260712e-03,-2.244611270725727081e-02,-2.154565043747425079e-02,1.072980836033821106e-02,6.691053509712219238e-02,-8.679678291082382202e-02,1.701884865760803223e-01,6.882666051387786865e-02,-2.102288603782653809e-02,6.558903958648443222e-03,-9.524314850568771362e-02,-6.601124256849288940e-02,4.993768408894538879e-02,-4.763663560152053833e-02,9.992134571075439453e-02,-7.721599936485290527e-02,-3.114067949354648590e-02,4.662984609603881836e-02,-1.166145801544189453e-01,1.640717685222625732e-01,-1.296372618526220322e-02,-1.603051833808422089e-02,-4.626457020640373230e-02,1.397160887718200684e-01,-1.415403932332992554e-01,6.714466214179992676e-02,8.823331445455551147e-02,1.524200290441513062e-01,-1.344236880540847778e-01,8.345060795545578003e-02,-3.604276804253458977e-03,4.833549261093139648e-02,7.922365516424179077e-02,1.218928694725036621e-01,2.977480553090572357e-02,-1.527212411165237427e-01,-7.532703876495361328e-02,-4.587997216731309891e-03,7.073510438203811646e-02,-2.922827005386352539e-02,2.350087650120258331e-02,1.021515354514122009e-01,4.906296730041503906e-02,3.215343877673149109e-02,8.090146817266941071e-03,-6.549515575170516968e-02,7.047521322965621948e-02,9.630025364458560944e-03,7.509328424930572510e-03,-1.074931845068931580e-01,-7.989643141627311707e-03,-7.958090305328369141e-02,-6.572499871253967285e-02,9.749516844749450684e-02,8.806496858596801758e-02,9.489627555012702942e-03,-4.664004594087600708e-02,1.332263946533203125e-01,4.992366209626197815e-02,-1.150718182325363159e-01,-7.967659831047058105e-02,-8.233107626438140869e-02,1.537532657384872437e-01,4.155980795621871948e-02,4.522809758782386780e-02,-1.261221319437026978e-01,8.683580905199050903e-02,-7.584653794765472412e-02,2.812037765979766846e-01,1.965707987546920776e-01,-9.909742325544357300e-02,2.375894039869308472e-02,5.706311017274856567e-02,5.403567478060722351e-02,1.384957730770111084e-01,4.086043685674667358e-02,-5.421232059597969055e-02,-8.591800928115844727e-02,-1.106871291995048523e-01,-1.333588808774948120e-01,1.024733558297157288e-01,-9.901794046163558960e-02,7.845504581928253174e-02,6.892248243093490601e-02,1.041715890169143677e-01,7.892569899559020996e-02,-8.149492740631103516e-02,-6.603099405765533447e-02,8.828163146972656250e-03,8.584812283515930176e-02,-1.375322788953781128e-01,-3.488885611295700073e-02,8.491738140583038330e-02,9.475120343267917633e-03,1.101613119244575500e-01,6.423982977867126465e-02,4.971727728843688965e-02,-2.710269019007682800e-02,-1.716663711704313755e-03,2.584011107683181763e-02,-6.906139850616455078e-02,3.375669568777084351e-02,3.071464598178863525e-02,-6.540430337190628052e-02,2.307081036269664764e-02,1.567404568195343018e-01,4.725075140595436096e-02,7.524818181991577148e-02,-1.171186864376068115e-01
-9.924723207950592041e-02,1.969459354877471924e-01,2.608678936958312988e-01,-1.511033475399017334e-01,2.101792581379413605e-02,1.469343602657318115e-01,1.139924377202987671e-01,8.080510050058364868e-02,-5.087499693036079407e-02,1.742314547300338745e-01,1.043562218546867371e-01,-5.674042180180549622e-02,-2.107615768909454346e-01,-7.515855133533477783e-02,-2.602891251444816589e-02,9.805177152156829834e-02,-1.658730655908584595e-01,-1.847845911979675293e-01,1.596883982419967651e-01,-1.294316723942756653e-02,-1.274939328432083130e-01,1.877131313085556030e-01,2.029442973434925079e-02,-1.623235046863555908e-01,-1.405672729015350342e-01,-2.093779146671295166e-01,1.319922506809234619e-01,5.833663791418075562e-02,-1.972219347953796387e-01,-6.817413121461868286e-02,-1.767372190952301025e-01,-5.293896049261093140e-02,-1.076164934784173965e-02,-7.274392247200012207e-02,-6.183720380067825317e-02,-4.280927032232284546e-02,3.873736411333084106e-02,1.544826012104749680e-02,-1.482473015785217285e-01,-1.313387751579284668e-01,-6.977787613868713379e-02,-1.224236339330673218e-01,1.146953254938125610e-01,-1.092379540205001831e-01,1.014444157481193542e-01,1.116962060332298279e-01,5.245141685009002686e-02,-3.535209968686103821e-02,-1.014216169714927673e-01,-3.744792938232421875e-02,2.835225760936737061e-01,-3.541108593344688416e-02,-7.342685759067535400e-02,-3.371528536081314087e-02,-1.480802446603775024e-01,-1.154061630368232727e-01,-5.489389598369598389e-02,-2.229083180427551270e-01,-6.562948226928710938e-02,-7.149295508861541748e-02,1.218358799815177917e-01,-1.510201096534729004e-01,1.592138111591339111e-01,-6.693100184202194214e-02,-1.593068242073059082e-01,-1.103596314787864685e-01,-1.145424023270606995e-01,-1.273249741643667221e-03,-1.397172063589096069e-01,-3.668948262929916382e-02,1.760145127773284912e-01,-1.335117816925048828e-01,-1.137764453887939453e-01,-4.947508499026298523e-02,-9.077404439449310303e-02,2.259510904550552368e-01,-9.491489268839359283e-03,-9.031412005424499512e-02,-1.062258854508399963e-01,-8.801702409982681274e-03,3.082956075668334961e-01,5.996816791594028473e-03,4.475035518407821655e-02,-1.995215415954589844e-01,-1.327919512987136841e-01,7.768412679433822632e-02,1.841986924409866333e-02,1.108959168195724487e-01,2.219763845205307007e-01,2.285639643669128418e-01,-2.468838356435298920e-02,-3.673181682825088501e-02,-1.248504593968391418e-01,-5.793419480323791504e-02,-1.094418689608573914e-01,-4.269460216164588928e-02,1.145832017064094543e-01,-1.602789908647537231e-01,9.885406494140625000e-02,-5.774711817502975464e-02,5.084659904241561890e-02,-3.186609223484992981e-02,2.377985790371894836e-02,-3.197836875915527344e-02,-1.685886383056640625e-01,-3.848075494170188904e-02,-1.829785704612731934e-01,-1.692890375852584839e-02,1.349739283323287964e-01,-3.632262349128723145e-02,-1.081250235438346863e-01,-2.956826239824295044e-02,1.049801632761955261e-01,1.472492963075637817e-01,5.493644624948501587e-02,2.633516192436218262e-01,2.167069315910339355e-01,2.025661244988441467e-02,-1.430462463758885860e-03,-7.753729820251464844e-02,3.176075965166091919e-02,-1.482432633638381958e-01,-3.294338583946228027e-01,7.250265032052993774e-02,-1.289876252412796021e-01,-1.189443618059158325e-01,-1.759101077914237976e-02,-5.829484015703201294e-02,-7.131054252386093140e-02,-2.906463807448744774e-03,-6.592363119125366211e-02,8.592899143695831299e-02,5.547599866986274719e-02,8.122780919075012207e-02,-7.125738263130187988e-02,-3.827800974249839783e-02,2.841131091117858887e-01,1.956150308251380920e-02,-1.549093574285507202e-01,1.171510890126228333e-01,5.963953211903572083e-02,-7.190204225480556488e-03,-1.447528749704360962e-01,-4.276570305228233337e-02,-6.496586650609970093e-02,8.350782841444015503e-02,1.197235062718391418e-01,1.972748637199401855e-01,8.215473592281341553e-02,1.095928028225898743e-01,-2.922499552369117737e-02,-6.230746209621429443e-02,-2.225459516048431396e-01,8.575634658336639404e-02,-1.634779572486877441e-02,-6.613618135452270508e-02,-1.202079118229448795e-03,2.781528979539871216e-02,1.578551903367042542e-02,-4.820227622985839844e-02,-1.609122902154922485e-01,8.451919257640838623e-02,-6.023087725043296814e-02,-4.121857881546020508e-02,2.107341289520263672e-01,-1.507549285888671875e-01,-9.922380745410919189e-02,-1.086316704750061035e-01,-1.048243790864944458e-01,-2.126736044883728027e-01,2.223632298409938812e-03,3.741145133972167969e-02,-7.816249877214431763e-02,-2.596990764141082764e-02,-3.243676573038101196e-02,-1.368472278118133545e-01,-2.138538956642150879e-01,6.858088821172714233e-02,-1.374522596597671509e-01,9.371700882911682129e-02,-1.573365181684494019e-01,-1.586330085992813110e-01,-8.505953103303909302e-02,-5.709856748580932617e-03,-1.116244867444038391e-02,-2.060042880475521088e-02,-6.760711967945098877e-02,1.331272907555103302e-02,-1.371227949857711792e-01,2.797393687069416046e-02,-2.008176147937774658e-01,-1.511171013116836548e-01,2.563566565513610840e-01,-9.812565892934799194e-02,-5.663862451910972595e-02,-5.227577686309814453e-02,-5.384223908185958862e-02,9.690828621387481689e-02,1.290262937545776367e-01,4.867010563611984253e-02,4.943408444523811340e-02,3.621920477598905563e-03,-8.902986347675323486e-02,6.567281484603881836e-02,-1.490308195352554321e-01,-7.156328298151493073e-03,-1.274076700210571289e-01,-3.352739289402961731e-02,6.074697151780128479e-02,-5.205177515745162964e-02,-6.289795041084289551e-02,-4.788412526249885559e-02,-6.150469928979873657e-02,1.066169440746307373e-01,-3.503134939819574356e-03,-7.686395198106765747e-02,5.862551555037498474e-02,-3.665400668978691101e-02,-1.496545225381851196e-02,-5.292537063360214233e-02,-9.226369857788085938e-02,-1.346598751842975616e-02,-8.433947712182998657e-02,-1.232330501079559326e-01,1.237212494015693665e-01,-1.273626685142517090e-01,-1.346286833286285400e-01,-1.227938607335090637e-01,6.588485836982727051e-02,-2.690161950886249542e-02,2.356802113354206085e-02,-2.877271175384521484e-02,-9.646074473857879639e-02,1.859146286733448505e-03,1.574908792972564697e-01,-2.136060595512390137e-02,-8.867233991622924805e-02,1.531355977058410645e-01,2.314177900552749634e-01,6.676439940929412842e-02,9.726254642009735107e-02,2.285825014114379883e-01,-3.835089132189750671e-02,-1.480506956577301025e-01,-7.289818674325942993e-02,-1.033900082111358643e-01,1.431094855070114136e-01,-8.380751311779022217e-02,1.775544136762619019e-03,8.048149757087230682e-03,-1.315567344427108765e-01,2.141088545322418213e-01,7.453713566064834595e-02,-1.441120654344558716e-01,9.902010858058929443e-02,-1.869167536497116089e-01
-5.250947922468185425e-02,1.653681993484497070e-01,7.770697027444839478e-02,8.643599599599838257e-02,-1.764816045761108398e-02,5.664398148655891418e-02,1.199303492903709412e-01,1.713594794273376465e-02,5.337615311145782471e-02,4.976326599717140198e-02,-6.612599641084671021e-02,1.442690938711166382e-02,-1.721787005662918091e-01,-1.051559001207351685e-01,5.698385462164878845e-02,-8.772227168083190918e-02,3.724876046180725098e-02,-2.137321680784225464e-01,1.545020751655101776e-02,5.932419002056121826e-02,-3.466457128524780273e-02,1.353990584611892700e-01,7.566339522600173950e-02,-3.322581574320793152e-02,-4.886493086814880371e-02,-5.113062262535095215e-02,-7.514261454343795776e-02,8.487427979707717896e-02,-9.511553496122360229e-02,-1.545710116624832153e-01,-1.030068099498748779e-01,2.840787172317504883e-03,-1.220024004578590393e-01,1.254985388368368149e-02,9.983854740858078003e-02,1.357198972254991531e-02,1.955146044492721558e-01,5.830845609307289124e-02,4.647215083241462708e-02,-3.691918030381202698e-02,9.767733514308929443e-03,3.851111978292465210e-02,-1.213307604193687439e-01,6.415791064500808716e-02,2.810184285044670105e-02,-6.505051162093877792e-03,-2.176204230636358261e-03,4.147123172879219055e-02,1.029153168201446533e-01,-6.685288995504379272e-02,1.197068989276885986e-01,1.090534925460815430e-01,-4.288037493824958801e-02,6.694708764553070068e-02,-6.475096940994262695e-02,-8.900415152311325073e-02,-3.032201156020164490e-02,-9.881276637315750122e-02,-2.087170956656336784e-03,7.259994000196456909e-02,1.262938082218170166e-01,-1.433865725994110107e-01,3.332394734025001526e-02,-1.190267428755760193e-01,-2.299018800258636475e-01,-1.284739375114440918e-01,7.695385813713073730e-02,4.756231606006622314e-02,-6.143075600266456604e-02,6.828439980745315552e-02,1.529881805181503296e-01,-1.076721623539924622e-01,5.775972828269004822e-02,-2.059485949575901031e-02,-4.975250456482172012e-03,8.060854673385620117e-02,-8.744607120752334595e-02,-2.081847563385963440e-02,4.956757184118032455e-03,-5.805907770991325378e-02,1.396392881870269775e-01,2.107103914022445679e-02,1.291944831609725952e-01,-2.376405522227287292e-02,-1.797421127557754517e-01,-7.198727130889892578e-02,-2.781995199620723724e-02,-9.308437258005142212e-02,1.044109836220741272e-01,-4.110506922006607056e-02,3.410688042640686035e-02,3.630577027797698975e-02,1.042279973626136780e-02,-7.130862027406692505e-02,-1.192678958177566528e-01,-1.252665966749191284e-01,3.315394371747970581e-02,-1.453911662101745605e-01,-9.948664344847202301e-03,-1.130746491253376007e-02,-1.062149088829755783e-02,-2.122479528188705444e-01,7.301323115825653076e-02,3.401378542184829712e-02,9.887414425611495972e-02,2.976548112928867340e-02,-4.114950820803642273e-02,-1.737006008625030518e-02,-2.006080001592636108e-02,-8.364021778106689453e-02,-5.053072422742843628e-02,3.584463894367218018e-02,7.434223592281341553e-02,-7.816303521394729614e-02,-3.170680627226829529e-02,4.086061939597129822e-02,-9.085338562726974487e-02,-1.790288239717483521e-01,-3.465525805950164795e-02,1.037218496203422546e-01,-1.405455768108367920e-01,7.483246922492980957e-02,-5.093696713447570801e-02,8.152139931917190552e-02,-4.105184972286224365e-02,-1.747590154409408569e-01,-4.034350067377090454e-02,-9.179695509374141693e-03,-8.622094988822937012e-02,-1.734343543648719788e-02,-6.438940763473510742e-02,-9.751974046230316162e-02,-2.277713268995285034e-02,8.137951046228408813e-02,2.391977980732917786e-02,2.669589035212993622e-02,1.263558864593505859e-01,2.932949736714363098e-02,2.709172107279300690e-02,5.559849739074707031e-02,-3.625307604670524597e-02,2.211857214570045471e-02,-1.513431221246719360e-01,-5.672512575984001160e-02,-1.271399110555648804e-01,-1.493897885084152222e-01,1.106914132833480835e-01,2.156454324722290039e-01,-1.436631232500076294e-01,6.141794379800558090e-03,-3.795200586318969727e-02,-2.324928157031536102e-02,-7.404560595750808716e-02,3.462368156760931015e-03,2.996592782437801361e-02,-1.495724171400070190e-02,-9.438837319612503052e-02,-1.757388748228549957e-02,1.223654374480247498e-01,-2.258110046386718750e-02,-6.481663882732391357e-02,8.680520951747894287e-02,-1.409157812595367432e-01,7.046389579772949219e-02,1.750687211751937866e-01,-7.126314193010330200e-02,-6.184421852231025696e-02,-9.174975752830505371e-02,-1.609612256288528442e-02,-7.686635851860046387e-02,6.874705106019973755e-02,-5.037632584571838379e-02,-9.817633777856826782e-02,2.803285047411918640e-02,2.882920391857624054e-02,-1.468092650175094604e-01,-1.901521533727645874e-02,-1.352244913578033447e-01,-5.700416862964630127e-02,1.011944264173507690e-01,-1.323901861906051636e-01,2.556581795215606689e-02,4.291899502277374268e-02,-1.100566014647483826e-01,2.359087467193603516e-01,-2.052806131541728973e-02,1.529857236891984940e-02,-8.785544335842132568e-02,2.978761866688728333e-02,-7.854354381561279297e-02,8.245160803198814392e-03,-2.239812761545181274e-01,1.862287335097789764e-02,-3.646758571267127991e-02,6.778749823570251465e-02,-3.722015023231506348e-02,5.274914950132369995e-02,-9.098107367753982544e-02,9.656190872192382812e-02,1.067504286766052246e-02,8.794329315423965454e-02,-3.395172953605651855e-02,-1.557815223932266235e-01,1.678031310439109802e-02,-1.426926814019680023e-02,-1.234084144234657288e-01,-2.415170073509216309e-01,-3.779791668057441711e-02,5.809177085757255554e-02,4.792286083102226257e-02,-1.411487758159637451e-01,-4.521884396672248840e-02,7.225057482719421387e-02,2.151786088943481445e-01,8.105062693357467651e-02,-8.967529237270355225e-02,-3.251478448510169983e-02,6.957118865102529526e-03,-1.152440086007118225e-01,-5.675892904400825500e-02,8.398526161909103394e-02,1.089663505554199219e-01,-1.136647835373878479e-01,3.170805424451828003e-02,2.564049325883388519e-02,-1.655992120504379272e-01,7.032859325408935547e-02,4.143879283219575882e-03,-1.353172808885574341e-01,6.316882371902465820e-02,-6.023119762539863586e-02,-1.381332725286483765e-01,9.775928407907485962e-02,-2.142404392361640930e-02,6.566152721643447876e-02,-1.052839457988739014e-01,4.497297480702400208e-02,3.405875340104103088e-02,7.713327556848526001e-02,-4.833939671516418457e-02,9.023074805736541748e-02,2.447018027305603027e-01,-6.471384316682815552e-02,-6.683295965194702148e-02,-1.263940185308456421e-01,-3.012207895517349243e-02,1.572653884068131447e-03,-1.843082457780838013e-01,1.367856841534376144e-02,-1.013387814164161682e-01,-1.252676546573638916e-01,1.513894051313400269e-01,-1.375355292111635208e-02,-8.154097944498062134e-02,9.480324387550354004e-02,-1.085853651165962219e-01
3.929102793335914612e-02,2.075105905532836914e-02,-8.782462030649185181e-02,-1.073176190257072449e-01,-4.779444634914398193e-02,-8.436992019414901733e-02,9.275469183921813965e-02,-5.700487270951271057e-02,-8.349896222352981567e-02,-5.700166150927543640e-02,2.709268778562545776e-02,7.850785553455352783e-02,-6.526279449462890625e-02,4.218786209821701050e-02,5.221746396273374557e-03,-6.599535048007965088e-02,6.719312816858291626e-02,-2.131642540916800499e-03,-1.548464000225067139e-01,3.729098290205001831e-02,-4.616253450512886047e-02,-1.256000995635986328e-01,-5.524560064077377319e-02,7.925574481487274170e-02,8.900674432516098022e-02,8.905187994241714478e-02,-1.086181402206420898e-01,-3.692935407161712646e-02,-9.688571095466613770e-02,8.302204310894012451e-02,-1.756359338760375977e-01,-6.322590261697769165e-02,-3.913785144686698914e-02,-7.896361500024795532e-02,7.229854911565780640e-02,-1.220065578818321228e-01,-1.833418197929859161e-02,-1.823327839374542236e-01,-6.269689649343490601e-02,-9.776733070611953735e-02,-1.421700268983840942e-01,-1.143530830740928650e-01,6.231636181473731995e-02,-1.810889542102813721e-01,1.690325438976287842e-01,-8.849903941154479980e-02,-2.480456531047821045e-01,9.028436988592147827e-02,4.966138675808906555e-02,2.465290278196334839e-01,-4.142660275101661682e-02,-5.027732253074645996e-02,1.060365661978721619e-01,1.207616180181503296e-01,-3.091171011328697205e-02,8.139107376337051392e-03,-4.659313242882490158e-03,6.262707710266113281e-02,-1.519416272640228271e-02,5.875963717699050903e-02,-1.645759344100952148e-01,-1.371303945779800415e-01,-1.479009240865707397e-01,4.281388595700263977e-02,-4.293210431933403015e-02,-4.743934422731399536e-02,-1.768204569816589355e-02,-5.184752121567726135e-02,-5.259886011481285095e-02,7.179018855094909668e-02,-8.877688646316528320e-02,1.221229806542396545e-01,-1.157768443226814270e-01,-3.669495135545730591e-02,-8.183479309082031250e-02,-3.128207102417945862e-02,1.179800480604171753e-01,5.628099097521044314e-05,-6.577040255069732666e-02,-1.147891655564308167e-01,-2.421122416853904724e-02,9.673327207565307617e-02,-8.813712000846862793e-02,-3.345447406172752380e-02,-2.943835966289043427e-02,-1.905621588230133057e-02,-6.133217737078666687e-02,-9.575627744197845459e-02,4.407518729567527771e-02,-1.451972573995590210e-01,5.887679755687713623e-02,-1.271950453519821167e-01,-3.981217369437217712e-02,-1.205957606434822083e-01,-5.681820586323738098e-02,-2.672726288437843323e-02,-1.019302979111671448e-01,-2.283095009624958038e-02,3.732560947537422180e-02,6.295958068221807480e-03,1.820880733430385590e-02,-7.213030476123094559e-03,-9.868553280830383301e-02,-1.630626767873764038e-01,-3.307304810732603073e-03,-1.332540959119796753e-01,-6.658034771680831909e-02,-1.157395690679550171e-01,1.550631504505872726e-02,-2.838161587715148926e-02,-1.309985518455505371e-01,-4.286700859665870667e-02,1.849839687347412109e-01,6.434220820665359497e-02,3.420122712850570679e-02,-8.746302127838134766e-02,5.611037835478782654e-02,-3.979776799678802490e-02,-8.242920786142349243e-02,-1.708387583494186401e-02,2.356390506029129028e-01,8.102023601531982422e-02,4.390847310423851013e-02,1.299763619899749756e-01,-1.577898412942886353e-01,4.410324618220329285e-02,7.021536678075790405e-02,-4.820366576313972473e-02,1.046483870595693588e-02,-1.321916878223419189e-01,-1.136860176920890808e-01,-1.010984629392623901e-01,-1.446266025304794312e-01,6.976466625928878784e-02,-9.538967907428741455e-02,3.616989403963088989e-02,1.191936880350112915e-01,-5.297782365232706070e-03,-4.577327892184257507e-02,-1.227003112435340881e-01,-3.106637112796306610e-02,1.463520973920822144e-01,-1.256814599037170410e-02,-1.248063072562217712e-01,-4.825234413146972656e-03,5.598331615328788757e-02,4.972788691520690918e-02,2.599876932799816132e-02,3.509870916604995728e-02,7.158263027667999268e-02,-8.500042557716369629e-02,6.723628193140029907e-02,1.703121885657310486e-02,-3.060683794319629669e-02,-7.672366336919367313e-04,-1.470788866281509399e-01,-1.197022292762994766e-02,-9.287409484386444092e-02,1.923291385173797607e-01,-9.091068059206008911e-02,-2.057407200336456299e-01,-1.329089105129241943e-01,-1.967927441000938416e-02,5.240305885672569275e-02,-6.876348704099655151e-02,-9.753781557083129883e-02,-1.471210867166519165e-01,8.954181335866451263e-03,2.189719825983047485e-01,-1.056361272931098938e-01,-8.911886811256408691e-02,-4.064607620239257812e-02,-5.577268823981285095e-02,1.138604134321212769e-01,-1.606446355581283569e-01,-1.338561475276947021e-01,-6.510317325592041016e-02,1.715645380318164825e-02,7.410824298858642578e-02,1.038179323077201843e-01,-8.804818987846374512e-02,1.162232533097267151e-01,-1.446604356169700623e-02,1.330939531326293945e-01,-6.204941123723983765e-02,-9.074948728084564209e-02,3.165765479207038879e-02,-1.099184677004814148e-01,4.795632138848304749e-02,-1.461326032876968384e-01,-6.856890767812728882e-02,-1.024396345019340515e-01,9.967833012342453003e-02,5.336703732609748840e-03,-2.514626272022724152e-02,1.135227903723716736e-01,-7.063004374504089355e-02,1.554307937622070312e-01,3.225581720471382141e-02,6.887418683618307114e-03,-2.160728871822357178e-01,-7.768247276544570923e-02,-1.268276274204254150e-01,8.872553706169128418e-02,3.483076021075248718e-02,-5.289570987224578857e-02,-1.898656040430068970e-02,-1.517078652977943420e-02,-1.956021785736083984e-01,5.508897453546524048e-02,9.262105077505111694e-02,7.386992126703262329e-02,5.556258186697959900e-02,-1.660020276904106140e-02,1.639199554920196533e-01,-1.620391383767127991e-02,9.708532691001892090e-02,4.862020909786224365e-02,-1.569765359163284302e-01,7.509763538837432861e-02,3.343615680932998657e-02,-1.011205986142158508e-01,-7.033904641866683960e-02,-4.708437994122505188e-02,9.970876574516296387e-02,-3.052863106131553650e-02,1.241646036505699158e-01,-2.391586899757385254e-01,2.575556933879852295e-01,-1.283283531665802002e-02,-9.235641919076442719e-03,5.799091979861259460e-02,-1.108577772974967957e-01,-1.156096234917640686e-01,-1.524090468883514404e-01,-4.043075442314147949e-02,-1.753897406160831451e-02,-7.638397812843322754e-02,-1.153789758682250977e-01,1.607438027858734131e-01,5.913081392645835876e-02,-1.128804981708526611e-01,3.382098302245140076e-02,-9.876468032598495483e-02,-7.178439199924468994e-02,6.685670465230941772e-02,-4.590512439608573914e-02,1.652836799621582031e-01,-2.280228026211261749e-02,-6.406944990158081055e-02,1.297549903392791748e-01,-1.600103825330734253e-02,7.415884733200073242e-02,-1.199907809495925903e-01,-1.310180872678756714e-02,-1.076803952455520630e-01
3.729408979415893555e-02,-1.199465915560722351e-01,2.658244222402572632e-02,-9.104597568511962891e-02,-1.020749136805534363e-01,-2.584185637533664703e-02,5.459956079721450806e-02,-6.466757506132125854e-02,9.736913442611694336e-02,7.983174920082092285e-02,-2.870352007448673248e-02,4.124926775693893433e-02,1.132299602031707764e-01,6.772835552692413330e-02,9.287891536951065063e-02,9.839946031570434570e-02,-3.698237985372543335e-02,-7.084021810442209244e-03,-4.290913231670856476e-03,7.766872644424438477e-02,3.839009255170822144e-02,7.450306415557861328e-02,-3.782375156879425049e-02,3.519392758607864380e-02,4.398746043443679810e-02,-1.087125912308692932e-01,-1.210444867610931396e-01,6.810798496007919312e-02,-3.666649386286735535e-02,1.201846972107887268e-01,4.841287434101104736e-02,1.347716152667999268e-01,2.686419337987899780e-02,-5.177698656916618347e-02,1.233964599668979645e-02,2.246211050078272820e-03,-7.417365908622741699e-02,-1.001965999603271484e-01,-4.623112082481384277e-02,-5.226391181349754333e-02,4.762024804949760437e-02,-1.452901512384414673e-01,-9.658899903297424316e-02,8.126379549503326416e-02,1.826776075176894665e-03,-2.044805884361267090e-02,2.973188646137714386e-02,1.307392213493585587e-02,1.141542494297027588e-01,-8.340465277433395386e-02,2.986353635787963867e-02,1.208865642547607422e-02,-2.453798614442348480e-02,-2.060717437416315079e-03,-1.196449398994445801e-01,1.146790459752082825e-01,-8.392465114593505859e-02,-8.867380023002624512e-02,2.071655122563242912e-03,-8.515062928199768066e-02,-5.375539883971214294e-02,-1.417483389377593994e-01,4.897836223244667053e-02,-9.398182481527328491e-02,-2.144137583673000336e-02,2.618834935128688812e-02,-1.486875233240425587e-03,-5.020378902554512024e-02,-5.158512294292449951e-02,-4.082864522933959961e-02,-9.230738878250122070e-02,8.200082927942276001e-02,1.171740069985389709e-01,-7.969325780868530273e-02,-4.214623570442199707e-02,1.205097511410713196e-01,1.610216945409774780e-01,-5.397944245487451553e-03,-1.164974346756935120e-01,9.275447577238082886e-02,1.035696119070053101e-01,-1.138220801949501038e-01,-5.926008895039558411e-02,1.088638529181480408e-01,1.295229494571685791e-01,-2.336953952908515930e-02,8.456263691186904907e-02,-3.775652125477790833e-02,-6.210550665855407715e-02,-5.649518594145774841e-02,-6.136241555213928223e-02,6.841358542442321777e-02,1.545958667993545532e-01,8.121621608734130859e-02,5.136218667030334473e-02,-3.773772716522216797e-02,9.557160735130310059e-02,-8.443857543170452118e-03,6.700944900512695312e-02,1.373643875122070312e-01,-1.178226768970489502e-01,-1.202576309442520142e-01,1.112346909940242767e-02,-9.271459281444549561e-02,9.173193573951721191e-02,-3.509008884429931641e-02,-1.772879995405673981e-02,-1.223304942250251770e-01,6.872387975454330444e-02,-4.600152373313903809e-02,-3.581144288182258606e-02,4.170942306518554688e-02,1.624265313148498535e-01,4.004332795739173889e-02,-1.211042478680610657e-01,-7.958201318979263306e-02,1.118259280920028687e-01,3.914402052760124207e-02,4.462906718254089355e-02,6.095966696739196777e-02,-4.296350479125976562e-02,2.874532900750637054e-02,-9.731045365333557129e-02,-5.583939701318740845e-02,1.317913760431110859e-03,7.245493680238723755e-02,-1.357014179229736328e-01,-7.258471846580505371e-02,-4.070977866649627686e-02,8.603622764348983765e-02,-1.453811526298522949e-01,-5.235297977924346924e-02,8.706294745206832886e-02,2.562090195715427399e-02,3.185503184795379639e-02,3.903555497527122498e-02,-4.669260978698730469e-02,1.258987486362457275e-01,-4.135423898696899414e-02,8.414542302489280701e-03,1.416769772768020630e-01,2.145715802907943726e-02,-9.252094477415084839e-02,1.596202328801155090e-02,1.143659949302673340e-01,2.165973186492919922e-03,2.990331687033176422e-02,1.137216016650199890e-01,-1.046612579375505447e-02,-1.228751465678215027e-01,-8.819785714149475098e-02,7.287144660949707031e-03,-5.170672386884689331e-02,-7.656773924827575684e-02,-9.753354638814926147e-02,-2.264695358462631702e-04,-6.200160831212997437e-02,-1.185062527656555176e-02,3.002475015819072723e-02,-3.675432130694389343e-02,-9.233753196895122528e-03,1.302156224846839905e-02,-6.345009803771972656e-02,-2.250707335770130157e-02,6.821610033512115479e-02,-1.645810529589653015e-02,-7.699979841709136963e-02,8.659464865922927856e-02,6.336750835180282593e-02,6.116119772195816040e-02,-1.085004881024360657e-01,8.305542916059494019e-02,-3.976278752088546753e-02,1.386761367321014404e-01,9.011609852313995361e-02,4.349243640899658203e-02,-9.309478849172592163e-02,3.020047023892402649e-02,3.494391962885856628e-02,-1.615393161773681641e-01,-6.578889489173889160e-02,1.022984385490417480e-01,1.479355692863464355e-01,1.111098080873489380e-01,-9.673994034528732300e-02,1.033570393919944763e-01,5.269792675971984863e-02,-8.579397201538085938e-02,3.652571886777877808e-02,1.222761645913124084e-01,9.463185817003250122e-02,2.318918937817215919e-03,-3.934872150421142578e-02,5.542129278182983398e-02,-1.382413506507873535e-02,-2.028603851795196533e-02,1.057152822613716125e-01,2.860269136726856232e-02,3.251862525939941406e-02,1.863478450104594231e-03,-8.705421537160873413e-02,-9.572205692529678345e-02,1.474474370479583740e-01,1.213118955492973328e-01,1.954975724220275879e-01,-1.604071259498596191e-02,3.719581291079521179e-02,-3.862380981445312500e-02,5.792480707168579102e-02,1.369234919548034668e-01,-6.317167729139328003e-02,-2.986880391836166382e-02,-5.364028364419937134e-02,-1.851002126932144165e-02,1.002760007977485657e-01,8.246042579412460327e-02,-6.559718400239944458e-02,1.163587556220591068e-03,2.238056622445583344e-02,2.822330780327320099e-02,4.510878026485443115e-02,-8.025793731212615967e-02,-9.632223844528198242e-02,7.687615603208541870e-02,1.292657386511564255e-02,-3.763249516487121582e-02,8.957962691783905029e-02,2.919454313814640045e-02,-4.897730797529220581e-02,-6.845011841505765915e-03,-1.241992115974426270e-01,1.036825329065322876e-01,5.794820189476013184e-02,-1.190797090530395508e-01,7.234761118888854980e-02,-5.249309539794921875e-02,-5.355953052639961243e-02,-4.411692172288894653e-02,3.852167725563049316e-02,9.629061073064804077e-02,1.517041176557540894e-01,2.277703210711479187e-02,-1.123230531811714172e-01,6.904652714729309082e-02,8.352958410978317261e-02,-4.293546080589294434e-02,-7.575154304504394531e-02,2.089904062449932098e-02,-1.733132265508174896e-02,1.369307339191436768e-01,8.966840803623199463e-03,6.822190433740615845e-02,-3.811561688780784607e-02,-8.898180723190307617e-02,7.165712118148803711e-02,8.573800325393676758e-02
-1.136661507189273834e-02,-1.768625341355800629e-02,2.342154271900653839e-02,1.046094018965959549e-02,6.056832149624824524e-02,-1.018204912543296814e-02,4.253778606653213501e-02,-3.234415873885154724e-02,5.108779668807983398e-02,1.338467448949813843e-01,-6.957739591598510742e-03,-1.737541705369949341e-02,-7.055256515741348267e-02,6.479430478066205978e-03,4.735345020890235901e-02,1.682187244296073914e-02,6.486473232507705688e-02,5.061877146363258362e-02,1.429896950721740723e-01,-5.899227783083915710e-02,-9.063178300857543945e-02,8.841490000486373901e-02,1.367924064397811890e-01,5.331071838736534119e-02,8.928401023149490356e-02,-1.037819534540176392e-01,5.492720752954483032e-02,5.054152011871337891e-02,1.266812682151794434e-01,3.777521476149559021e-02,3.292218223214149475e-02,-6.671217083930969238e-02,8.236519061028957367e-03,1.674936413764953613e-01,5.316519737243652344e-02,9.826662391424179077e-02,7.014547288417816162e-02,-8.375016599893569946e-02,-8.299493789672851562e-02,1.348744034767150879e-01,1.517202556133270264e-01,5.425396561622619629e-02,1.040336266160011292e-01,-1.162394210696220398e-01,-1.376288682222366333e-01,2.168253809213638306e-01,9.784265607595443726e-02,9.010182321071624756e-02,1.202075183391571045e-01,9.674636647105216980e-03,5.503311753273010254e-02,7.381248474121093750e-02,-3.746059536933898926e-02,5.240187048912048340e-02,-5.674433708190917969e-02,-1.155239418148994446e-01,4.536324739456176758e-02,4.482090100646018982e-02,-1.106912791728973389e-01,-1.135203465819358826e-01,2.421993203461170197e-02,-6.880863755941390991e-02,1.486779600381851196e-01,6.307104974985122681e-02,1.347870975732803345e-01,-5.607800092548131943e-03,-1.892718374729156494e-01,-9.080102294683456421e-02,3.992674127221107483e-02,1.443200111389160156e-01,1.206345707178115845e-01,1.932356134057044983e-02,4.383832588791847229e-02,-1.151997148990631104e-01,-5.110543966293334961e-02,6.450185924768447876e-02,-2.648117952048778534e-02,1.074796542525291443e-01,2.414256334304809570e-03,-4.381444305181503296e-02,1.322941184043884277e-01,-1.493766307830810547e-01,8.879459649324417114e-02,-1.098408247344195843e-03,-1.905675083398818970e-01,9.138746559619903564e-02,6.959933042526245117e-02,-3.609883040189743042e-02,1.197481453418731689e-01,1.738477349281311035e-01,-6.283187121152877808e-02,-1.140782311558723450e-01,1.170831769704818726e-01,1.360932737588882446e-02,-4.699859023094177246e-02,-1.209592819213867188e-02,1.392150223255157471e-01,1.023956090211868286e-01,1.424412149935960770e-02,2.704451605677604675e-02,-4.886340722441673279e-02,3.378712758421897888e-02,1.384450197219848633e-01,1.566414833068847656e-01,1.159109324216842651e-01,-1.221948862075805664e-02,1.268843887373805046e-03,-5.021348595619201660e-02,-8.763052523136138916e-02,1.056533753871917725e-01,2.149966079741716385e-03,-4.303753376007080078e-03,6.265806406736373901e-02,1.055608317255973816e-02,-4.845203459262847900e-02,1.301586180925369263e-01,1.291988044977188110e-01,-3.910457715392112732e-02,8.876574039459228516e-02,7.161692529916763306e-02,1.077932193875312805e-01,-1.291774660348892212e-01,6.558216363191604614e-02,-6.606009323149919510e-03,-1.434212028980255127e-01,6.299228966236114502e-02,-1.194839999079704285e-01,-8.234474807977676392e-02,9.106213599443435669e-02,5.556371808052062988e-02,6.482403725385665894e-02,1.327475160360336304e-01,4.707683622837066650e-02,-8.133991062641143799e-02,1.205577403306961060e-01,-5.587166920304298401e-02,1.182565987110137939e-01,-7.069581001996994019e-02,6.981787830591201782e-02,1.622795164585113525e-01,-1.508170515298843384e-01,2.671331539750099182e-02,1.516562849283218384e-01,-1.898532547056674957e-02,7.728341966867446899e-03,-1.322578489780426025e-01,-1.473398059606552124e-01,1.102852225303649902e-01,-1.991695165634155273e-02,-1.107142888940870762e-03,-1.203250735998153687e-01,-1.326560974121093750e-02,9.505370259284973145e-02,6.823652982711791992e-02,1.283434480428695679e-01,-5.704047158360481262e-02,4.615792259573936462e-02,5.181895568966865540e-03,-8.526073396205902100e-02,2.785953879356384277e-02,1.379863917827606201e-01,3.721573576331138611e-02,-1.685789227485656738e-01,7.472425699234008789e-02,4.296134039759635925e-02,5.031854659318923950e-02,7.243919372558593750e-02,6.097294390201568604e-02,2.552970545366406441e-03,4.611723870038986206e-02,1.128976512700319290e-02,1.166014894843101501e-01,6.318013183772563934e-04,3.224455192685127258e-02,1.200661435723304749e-02,-6.359297037124633789e-02,1.809609867632389069e-02,1.247114688158035278e-01,-7.181575987488031387e-03,1.271068900823593140e-01,-1.435620784759521484e-01,1.022543460130691528e-01,1.105540171265602112e-01,6.638239137828350067e-03,3.540604934096336365e-02,4.297673702239990234e-02,7.179647684097290039e-02,7.086730748414993286e-02,1.273430287837982178e-01,9.702846407890319824e-02,1.360941231250762939e-01,1.480714976787567139e-01,5.422109272330999374e-03,-3.859871998429298401e-02,-7.824340462684631348e-02,1.170513778924942017e-02,8.014981448650360107e-02,-1.812635548412799835e-02,3.634906187653541565e-02,6.898362934589385986e-02,1.562193781137466431e-01,3.439274430274963379e-02,1.833602972328662872e-02,-4.651257023215293884e-02,7.434872537851333618e-02,-4.073229804635047913e-02,2.761726081371307373e-01,-6.278575211763381958e-02,9.842754900455474854e-02,6.844596564769744873e-02,4.115409031510353088e-02,-1.494537293910980225e-01,2.934991940855979919e-02,-6.486629694700241089e-02,-1.590961217880249023e-01,-6.831732392311096191e-02,1.001924276351928711e-01,3.842624649405479431e-02,1.158296912908554077e-01,-1.017241179943084717e-01,9.843543916940689087e-02,7.023446727544069290e-03,6.445971131324768066e-02,-2.080870233476161957e-02,-1.378447399474680424e-03,-9.299365431070327759e-02,1.656818389892578125e-02,-3.981659561395645142e-02,-1.010150685906410217e-01,8.468312025070190430e-02,1.058307215571403503e-01,1.823762655258178711e-01,-6.561811268329620361e-02,-1.067426800727844238e-01,7.210573554039001465e-02,-1.212451457977294922e-01,9.627951681613922119e-02,1.996890008449554443e-01,-5.650994554162025452e-02,-1.127297431230545044e-01,-2.141717448830604553e-02,1.541387736797332764e-01,-1.064451318234205246e-02,2.635822445154190063e-02,6.906682997941970825e-02,-6.307998299598693848e-02,4.837715253233909607e-02,4.333962500095367432e-02,-9.787876904010772705e-02,1.375238411128520966e-02,-1.390546411275863647e-01,2.095127552747726440e-01,4.051235318183898926e-02,1.042574420571327209e-01,9.543213993310928345e-02,5.137589573860168457e-02
-9.132512658834457397e-02,3.394808992743492126e-02,1.798582379706203938e-03,-1.136991977691650391e-01,3.180983662605285645e-02,8.898051828145980835e-02,-1.737433858215808868e-02,1.137569732964038849e-02,-9.597926586866378784e-02,7.264770567417144775e-02,2.644735947251319885e-02,-3.620484471321105957e-02,4.543376713991165161e-02,-4.496443644165992737e-02,1.017513051629066467e-01,-5.140718445181846619e-02,7.716725766658782959e-02,-1.899787336587905884e-01,1.181832142174243927e-02,4.077807441353797913e-02,-5.344087257981300354e-02,7.711452245712280273e-02,-6.702794879674911499e-02,7.788347452878952026e-02,-1.148808449506759644e-01,-7.010741531848907471e-02,2.447282522916793823e-01,1.391830742359161377e-01,1.591951469890773296e-03,4.959878325462341309e-02,-1.860439218580722809e-02,-1.107466667890548706e-01,-1.284876763820648193e-01,1.371580064296722412e-01,8.741929195821285248e-03,-6.893755495548248291e-02,1.415075212717056274e-01,9.371025115251541138e-02,-9.086298197507858276e-02,2.569550462067127228e-02,-1.093012690544128418e-01,-3.932076692581176758e-02,4.478170350193977356e-02,-7.161813974380493164e-02,1.348464787006378174e-01,9.618975222110748291e-02,1.196623593568801880e-01,-1.417442560195922852e-01,-9.472635388374328613e-02,-7.345958729274570942e-04,-5.666481703519821167e-02,-4.206979647278785706e-02,5.913392081856727600e-02,-3.636252880096435547e-02,4.796010255813598633e-02,2.376384660601615906e-02,-1.241897493600845337e-01,8.455570787191390991e-02,-1.201092824339866638e-02,1.189848780632019043e-01,6.539249420166015625e-02,-1.692683435976505280e-02,8.096574246883392334e-02,2.110623382031917572e-02,-9.090022183954715729e-03,7.237688452005386353e-02,-1.280447840690612793e-01,-3.740206360816955566e-02,-1.379606574773788452e-01,4.469938576221466064e-02,2.221776358783245087e-02,-6.788712739944458008e-02,-4.151225090026855469e-02,-6.153071671724319458e-02,-2.222438529133796692e-02,1.710627675056457520e-01,8.668539673089981079e-02,-4.834532365202903748e-02,6.255685538053512573e-02,-1.581184007227420807e-02,7.761150598526000977e-02,1.483531743288040161e-01,2.096493542194366455e-02,-5.762935429811477661e-02,7.386710960417985916e-03,1.016960218548774719e-01,-6.075095757842063904e-02,-6.168905645608901978e-02,-4.536780714988708496e-02,9.529607370495796204e-03,7.475058734416961670e-02,-1.334446966648101807e-01,1.206055632792413235e-03,1.112019177526235580e-03,-1.264420244842767715e-02,-3.067684173583984375e-02,-8.652400970458984375e-02,6.374466465786099434e-04,-9.730949997901916504e-02,-1.017140448093414307e-01,-9.177526086568832397e-02,-1.249770596623420715e-01,-1.298402249813079834e-01,-3.620517998933792114e-02,8.861895650625228882e-03,-1.220342814922332764e-01,2.213935600593686104e-03,8.648020774126052856e-02,-7.284430786967277527e-03,-4.621195793151855469e-02,1.615670882165431976e-02,1.359762530773878098e-02,1.279278099536895752e-02,-1.416304707527160645e-01,-3.548785299062728882e-02,5.448516458272933960e-02,1.761361211538314819e-02,-7.414561510086059570e-02,-1.121850758790969849e-01,3.987266216427087784e-03,1.013037166558206081e-03,-8.647222816944122314e-02,4.447036236524581909e-02,4.611587151885032654e-03,4.217985272407531738e-02,-1.128210350871086121e-01,1.078736782073974609e-01,-1.418588906526565552e-01,-1.159803271293640137e-01,-1.236304491758346558e-01,3.252734988927841187e-02,4.916449077427387238e-03,-8.833696134388446808e-03,8.142952620983123779e-02,-3.072576411068439484e-02,3.871076554059982300e-02,-3.651096671819686890e-02,6.370523571968078613e-02,-6.457385420799255371e-02,1.397955715656280518e-01,1.180332712829113007e-02,-1.081466600298881531e-01,-3.860936686396598816e-02,1.631940342485904694e-02,-6.610239297151565552e-02,-4.099981859326362610e-02,-2.303150109946727753e-02,-8.511214703321456909e-02,-6.239840015769004822e-02,5.597934126853942871e-02,-9.399937093257904053e-02,-1.314345598220825195e-01,-1.689005494117736816e-01,-5.245292559266090393e-02,-4.296457767486572266e-02,7.113154232501983643e-02,-3.156551346182823181e-02,1.143193244934082031e-01,5.379729717969894409e-02,-2.403612807393074036e-02,8.612181991338729858e-02,-5.720950290560722351e-02,8.076397329568862915e-02,-4.931291937828063965e-02,-1.928723417222499847e-02,-8.491490781307220459e-02,-4.799291491508483887e-02,1.022072061896324158e-01,-7.900734245777130127e-02,-1.052258443087339401e-02,-1.397098507732152939e-02,1.491711358539760113e-03,-1.241664811968803406e-01,-2.818211214616894722e-03,7.424275577068328857e-02,-1.521175056695938110e-01,-7.289187610149383545e-02,7.015176117420196533e-02,-1.327495127916336060e-01,-4.668354243040084839e-02,-5.758681148290634155e-02,-3.034253604710102081e-02,6.568762660026550293e-02,-7.759580761194229126e-02,-4.300514981150627136e-02,-1.114683821797370911e-01,-8.062213659286499023e-02,4.482528194785118103e-02,-1.408809721469879150e-01,-2.725350856781005859e-02,-4.269598051905632019e-02,-1.491413712501525879e-01,7.661177217960357666e-02,8.763073384761810303e-02,8.375164866447448730e-02,4.552529007196426392e-02,-3.818802908062934875e-02,-1.894134469330310822e-02,3.528066724538803101e-02,9.742075577378273010e-03,6.055422127246856689e-02,9.370207041501998901e-02,-7.144167274236679077e-02,-4.318896308541297913e-02,-1.227786540985107422e-01,-3.036687709391117096e-02,-9.402586519718170166e-02,-9.032917022705078125e-02,-5.318585783243179321e-03,8.366820216178894043e-02,4.105158150196075439e-02,5.799254402518272400e-02,-6.025710701942443848e-02,-4.908801242709159851e-02,-4.094159975647926331e-02,-7.043823599815368652e-02,-5.698579549789428711e-02,2.047900296747684479e-02,-1.040836870670318604e-01,-4.698252677917480469e-02,4.222095385193824768e-02,-8.216378837823867798e-02,-1.294620633125305176e-01,4.730613902211189270e-02,7.287773489952087402e-02,-1.666353493928909302e-01,9.008361399173736572e-02,-2.783048339188098907e-02,-8.968717604875564575e-02,-1.050735544413328171e-02,-9.324213117361068726e-02,7.212013006210327148e-02,-9.369327872991561890e-02,-4.951748251914978027e-02,-8.606220595538616180e-03,-9.192183613777160645e-02,-2.274448424577713013e-02,8.372358977794647217e-02,1.912674754858016968e-01,6.851212680339813232e-02,-5.500667169690132141e-02,4.275470227003097534e-02,-1.506360471248626709e-01,3.089847974479198456e-02,6.314436346292495728e-02,8.734014630317687988e-02,1.781001314520835876e-02,1.234017089009284973e-01,6.844389252364635468e-03,1.364150363951921463e-02,8.440785855054855347e-02,2.822788199409842491e-03,-1.987501233816146851e-02,1.094027310609817505e-01,1.165465861558914185e-01,-1.223813649266958237e-02
-1.359575986862182617e-02,-5.663142353296279907e-02,-7.010666653513908386e-03,5.445116758346557617e-02,5.181938409805297852e-03,-9.918630123138427734e-03,6.046230439096689224e-03,2.668318152427673340e-02,-2.998262643814086914e-03,-5.801361799240112305e-02,-1.027906239032745361e-01,8.826202154159545898e-02,7.503258436918258667e-02,2.515828050673007965e-02,7.066547125577926636e-02,4.443284869194030762e-02,5.001306533813476562e-02,-7.294047158211469650e-03,-8.719503879547119141e-02,-8.992880582809448242e-02,4.512767493724822998e-02,9.621009975671768188e-02,-1.971599459648132324e-02,1.359686255455017090e-02,6.353279948234558105e-02,-2.446255087852478027e-02,7.739391922950744629e-02,-3.531110286712646484e-02,2.469583228230476379e-02,-1.227252837270498276e-02,-2.179478853940963745e-02,5.007770657539367676e-02,-9.400990605354309082e-02,-3.214278072118759155e-02,-1.700103282928466797e-03,1.227824687957763672e-01,-6.274843215942382812e-02,-9.510263800621032715e-02,-7.978734374046325684e-02,-1.479078270494937897e-02,2.625555917620658875e-02,-1.575919985771179199e-02,-4.561096429824829102e-02,5.424991250038146973e-02,1.216914057731628418e-01,4.107349365949630737e-02,7.438957691192626953e-03,-8.705586194992065430e-03,-7.568845152854919434e-02,-4.932177066802978516e-02,-5.933839082717895508e-02,-1.121267676353454590e-02,-7.118947803974151611e-02,-1.004528999328613281e-01,1.241204738616943359e-01,-6.881710886955261230e-02,1.807853579521179199e-02,-9.694951772689819336e-02,4.164516925811767578e-02,-1.060724258422851562e-02,8.735930919647216797e-02,-6.142070516943931580e-03,1.066066026687622070e-01,6.520405411720275879e-02,-9.108152985572814941e-02,-2.397966384887695312e-02,-3.130842745304107666e-02,9.617194533348083496e-02,-8.291646838188171387e-02,-4.234912991523742676e-02,1.477292180061340332e-02,-1.087683737277984619e-01,-1.708805561065673828e-02,4.504227638244628906e-02,2.226105332374572754e-02,-1.012383401393890381e-01,-8.490666747093200684e-02,2.149710059165954590e-02,-8.591926097869873047e-02,-7.593542337417602539e-02,1.497343182563781738e-01,6.497451663017272949e-02,-9.426501393318176270e-02,-4.951487481594085693e-02,-5.274022370576858521e-02,6.688928604125976562e-02,-3.687945008277893066e-02,1.242319643497467041e-01,-4.169850796461105347e-02,-2.136036753654479980e-02,4.636847972869873047e-02,-6.783959269523620605e-02,-1.119654476642608643e-01,-3.556033223867416382e-02,8.948338031768798828e-02,-7.839420437812805176e-02,-9.260618686676025391e-02,-9.268209338188171387e-02,-5.578786134719848633e-02,-6.403941661119461060e-02,-3.244027495384216309e-02,2.530579082667827606e-02,3.227603435516357422e-02,-2.658301405608654022e-02,-1.905186288058757782e-02,5.267396569252014160e-02,6.510105449706315994e-03,-6.483754515647888184e-02,4.755896329879760742e-02,1.192496716976165771e-01,6.380645930767059326e-02,-5.993244051933288574e-02,7.827696204185485840e-02,-1.116240024566650391e-02,9.404987096786499023e-03,-1.162649989128112793e-01,3.245911002159118652e-02,-6.438123434782028198e-02,-8.225166797637939453e-02,2.440246939659118652e-02,4.187303781509399414e-02,-3.018648363649845123e-03,-6.377051025629043579e-02,-1.046562790870666504e-01,9.132931008934974670e-03,4.430776834487915039e-02,-4.134818911552429199e-02,1.002307161688804626e-01,7.558876276016235352e-02,2.553665637969970703e-02,-5.618423223495483398e-03,-4.526895284652709961e-02,3.880488872528076172e-02,1.651862263679504395e-02,6.521195173263549805e-03,7.589918375015258789e-02,9.846187382936477661e-02,-1.238856613636016846e-01,3.922739624977111816e-02,-1.041187942028045654e-01,1.330354809761047363e-02,-8.453252911567687988e-02,-1.131511256098747253e-01,-1.130574047565460205e-01,-8.356752991676330566e-02,5.448794364929199219e-02,-7.842996716499328613e-02,4.888772964477539062e-04,8.669114112854003906e-02,2.201071381568908691e-02,8.042752742767333984e-02,2.462214231491088867e-02,-3.111919760704040527e-02,-1.146154105663299561e-01,1.233415603637695312e-01,-7.265371084213256836e-02,4.200345277786254883e-02,3.951907157897949219e-02,-2.682805061340332031e-02,-2.383744716644287109e-02,-5.098142474889755249e-02,-1.174817681312561035e-01,2.902910113334655762e-02,-3.379935398697853088e-02,9.971636533737182617e-02,-1.017445847392082214e-01,1.068002283573150635e-01,1.123911142349243164e-01,-5.859848856925964355e-02,7.962527871131896973e-02,1.168699264526367188e-01,-6.047379970550537109e-02,4.014447331428527832e-02,3.253111243247985840e-02,-1.331059820950031281e-02,8.029396831989288330e-02,9.202193468809127808e-02,-1.145938038825988770e-02,-1.015785057097673416e-02,-4.082798957824707031e-02,-5.675632134079933167e-02,-5.846917629241943359e-03,-7.563857734203338623e-02,-3.503328561782836914e-02,5.337879061698913574e-02,-2.077566226944327354e-03,2.041560411453247070e-02,9.133270382881164551e-02,1.014715805649757385e-01,-2.974388003349304199e-02,-1.188009679317474365e-01,-5.134326871484518051e-03,1.076919436454772949e-01,-1.867514848709106445e-02,8.844816684722900391e-02,-3.619322180747985840e-02,-3.271430730819702148e-02,-9.726944565773010254e-02,5.175608396530151367e-02,-1.122799813747406006e-01,1.236201524734497070e-01,-6.935116648674011230e-02,2.760571241378784180e-02,7.025165110826492310e-02,-1.128106340765953064e-01,9.331074357032775879e-02,4.058920592069625854e-02,6.505486369132995605e-02,-2.672183513641357422e-02,-2.010822296142578125e-02,9.236264228820800781e-02,2.665287256240844727e-02,7.286357879638671875e-02,-1.111596524715423584e-01,-6.672444939613342285e-02,8.933347463607788086e-02,1.170096825808286667e-02,-8.765116333961486816e-02,5.176478531211614609e-03,-9.385603666305541992e-02,2.819684147834777832e-02,-3.383007645606994629e-02,7.758796215057373047e-02,4.035010933876037598e-02,6.555229425430297852e-03,-6.512422859668731689e-02,5.635869503021240234e-02,-5.325356125831604004e-02,-1.801133900880813599e-02,-9.416559338569641113e-02,1.125876307487487793e-01,4.144427180290222168e-02,6.140583753585815430e-02,8.430075645446777344e-02,-3.932893276214599609e-03,-7.689914107322692871e-02,-6.325247138738632202e-02,7.413536310195922852e-02,-1.114667952060699463e-01,-6.785792112350463867e-02,-7.957753539085388184e-02,2.460220828652381897e-03,-1.171580925583839417e-01,-1.204705238342285156e-01,1.204691231250762939e-01,2.803456783294677734e-02,9.223568439483642578e-02,7.869848608970642090e-02,-6.205959245562553406e-02,1.074403226375579834e-01,9.292113780975341797e-02,-7.671785354614257812e-02,-9.793326258659362793e-02,3.704497218132019043e-02,1.114309132099151611e-01,1.007256284356117249e-01
-8.652292191982269287e-02,-4.502343386411666870e-02,4.232522845268249512e-02,-6.601399183273315430e-02,-1.123694255948066711e-01,-1.178761720657348633e-01,-6.519463658332824707e-02,3.655611351132392883e-02,8.687555044889450073e-02,8.380922675132751465e-02,9.230811148881912231e-03,-5.823809653520584106e-02,-1.436252240091562271e-02,1.033560335636138916e-01,1.133080348372459412e-01,-5.606147274374961853e-02,8.478288352489471436e-02,-8.205314725637435913e-02,-7.329610735177993774e-02,4.421486705541610718e-02,1.157451570034027100e-01,-1.418491592630743980e-03,7.741953432559967041e-02,6.655703485012054443e-02,1.058382466435432434e-01,1.331267319619655609e-02,1.518883407115936279e-01,2.468067407608032227e-02,-9.959127753973007202e-02,2.089713001623749733e-03,-4.115338623523712158e-02,1.766848936676979065e-02,-1.190485879778862000e-01,1.050727162510156631e-02,-5.018905922770500183e-02,4.834435507655143738e-02,7.969556748867034912e-02,-7.163780927658081055e-02,-1.243304312229156494e-01,2.102083712816238403e-02,1.537386029958724976e-01,-6.643153727054595947e-02,8.050405979156494141e-02,3.025071695446968079e-02,7.535350322723388672e-02,-1.289510875940322876e-01,-7.111587375402450562e-02,-4.276627302169799805e-02,2.560803294181823730e-02,2.574527263641357422e-02,5.316528677940368652e-02,2.453023195266723633e-02,-6.672170758247375488e-02,2.514186687767505646e-02,-6.304624676704406738e-02,-9.208104759454727173e-02,-1.052604615688323975e-01,-5.154538154602050781e-02,5.067169666290283203e-02,7.893788814544677734e-02,4.644735530018806458e-02,4.436876997351646423e-02,1.119092106819152832e-01,1.157195568084716797e-01,-6.875440478324890137e-02,-1.243717893958091736e-01,-1.161423698067665100e-01,-2.342054247856140137e-02,1.006482243537902832e-01,-1.134678721427917480e-02,7.228189706802368164e-02,2.948704361915588379e-02,1.286699473857879639e-01,8.913916349411010742e-02,-1.023434102535247803e-01,2.346926555037498474e-02,-1.932850480079650879e-02,7.757441699504852295e-02,3.238761052489280701e-02,1.175456196069717407e-01,4.385873675346374512e-02,5.502610653638839722e-02,-4.881507158279418945e-02,4.404881596565246582e-02,9.364515542984008789e-02,6.537745893001556396e-02,8.087104558944702148e-02,-6.041518226265907288e-02,4.066053032875061035e-02,1.160092204809188843e-01,-8.616922050714492798e-02,1.436902582645416260e-01,-5.067010968923568726e-02,9.844181686639785767e-02,8.850970864295959473e-02,-6.698328256607055664e-02,-3.494694828987121582e-02,-9.655173122882843018e-02,4.620733857154846191e-02,-1.375129073858261108e-01,-9.974729269742965698e-02,-3.362171119078993797e-03,-8.823832124471664429e-02,-3.259995579719543457e-02,5.453740805387496948e-02,5.504821892827749252e-03,-3.489525616168975830e-02,-8.493853360414505005e-02,7.989494502544403076e-02,1.368510723114013672e-02,-1.031379327178001404e-01,-3.842818737030029297e-02,-5.792444944381713867e-02,-5.527234077453613281e-02,-6.986457854509353638e-02,-7.021023333072662354e-02,-4.990029335021972656e-02,9.730305522680282593e-02,4.558104276657104492e-02,1.242781654000282288e-01,5.057406425476074219e-02,1.052147895097732544e-01,7.999886572360992432e-02,-5.193659663200378418e-02,7.839875668287277222e-02,5.513805523514747620e-02,-1.819381117820739746e-02,-5.625612288713455200e-02,8.157339692115783691e-02,-9.920078516006469727e-02,-3.473177552223205566e-02,-1.104781031608581543e-01,-2.846271917223930359e-02,1.389920711517333984e-02,-4.039923660457134247e-03,-2.448028326034545898e-02,1.403146684169769287e-01,5.844819545745849609e-02,5.333432927727699280e-02,6.477297097444534302e-02,-1.006130874156951904e-01,-1.596543705090880394e-03,1.217318177223205566e-01,-1.194469183683395386e-01,5.635545402765274048e-02,1.573452726006507874e-02,-2.915799617767333984e-03,1.386991143226623535e-02,1.190478503704071045e-01,1.890915632247924805e-02,9.757202863693237305e-02,-5.619466304779052734e-03,-7.979098707437515259e-03,2.021385543048381805e-02,4.466367140412330627e-02,-7.716685533523559570e-03,-1.198785006999969482e-01,6.200944259762763977e-02,-6.822180747985839844e-02,-8.556140959262847900e-02,1.345868706703186035e-01,6.223841384053230286e-02,1.132642701268196106e-01,-4.571554809808731079e-02,3.158144280314445496e-02,1.275191158056259155e-01,1.003348156809806824e-01,7.770902663469314575e-02,-3.186446428298950195e-02,9.722565114498138428e-02,-1.036092340946197510e-01,-6.828933954238891602e-03,-3.029682859778404236e-02,9.056538343429565430e-03,-1.235557273030281067e-01,2.432802505791187286e-02,-6.565397232770919800e-02,4.934297874569892883e-02,-5.175858736038208008e-02,4.199913144111633301e-02,5.218085646629333496e-02,3.434747457504272461e-02,-6.181841716170310974e-02,4.873618483543395996e-02,7.347211241722106934e-02,7.002955675125122070e-02,-4.247088357806205750e-02,4.999242350459098816e-02,9.347768127918243408e-02,-9.898081421852111816e-02,1.466968655586242676e-02,9.436573833227157593e-02,-1.215424239635467529e-01,-4.064885433763265610e-03,-1.000062525272369385e-01,-2.199547830969095230e-03,-1.483460515737533569e-02,-3.401823714375495911e-02,4.870679974555969238e-02,8.459337800741195679e-02,1.337140500545501709e-01,-4.044253751635551453e-02,8.713398873805999756e-02,-3.669829666614532471e-02,6.938615441322326660e-02,-4.604474455118179321e-02,-5.395192652940750122e-03,7.124572992324829102e-03,-1.226365566253662109e-03,4.274379462003707886e-02,4.924088716506958008e-03,-9.396099299192428589e-02,-1.136050820350646973e-01,-2.768612839281558990e-02,6.399942934513092041e-02,1.007670834660530090e-01,-7.037203758955001831e-02,3.642320632934570312e-02,-4.433664306998252869e-02,8.675974607467651367e-02,2.282992564141750336e-02,-1.217240914702415466e-01,9.007185697555541992e-03,1.147312521934509277e-01,9.621263295412063599e-02,-1.578050479292869568e-02,-7.376658916473388672e-02,1.173243522644042969e-01,-2.034306526184082031e-04,4.022339358925819397e-02,5.378830805420875549e-02,7.133480161428451538e-02,1.367862056940793991e-02,3.820520639419555664e-02,-5.711627006530761719e-02,-7.813152670860290527e-02,5.918131675571203232e-03,-7.271343469619750977e-02,-1.046732962131500244e-01,-1.244252026081085205e-01,7.281588017940521240e-02,6.345085799694061279e-02,6.371074169874191284e-02,-3.903523087501525879e-02,8.989875763654708862e-02,8.047002553939819336e-02,-1.144006252288818359e-01,-1.080523952841758728e-01,5.165416002273559570e-02,-4.552831128239631653e-02,-1.190227270126342773e-01,-5.537447333335876465e-02,2.549161203205585480e-03,6.408372521400451660e-02,6.805986166000366211e-02,-1.586501253768801689e-03
-8.962659537792205811e-02,-1.167212277650833130e-01,9.341711550951004028e-02,1.852769553661346436e-01,1.720039248466491699e-01,1.656416431069374084e-02,2.698537521064281464e-02,1.624601660296320915e-03,2.484983056783676147e-01,1.026186509989202023e-03,3.079720437526702881e-01,5.273509770631790161e-02,2.775909379124641418e-02,-6.331662833690643311e-02,-1.563405543565750122e-01,-1.864948123693466187e-01,9.508477151393890381e-02,3.708556294441223145e-02,-1.198248714208602905e-01,2.622821927070617676e-01,1.375408656895160675e-02,-4.937916994094848633e-03,-3.462453186511993408e-01,2.019431907683610916e-03,-9.120998531579971313e-02,-2.196289226412773132e-02,-6.949848681688308716e-02,-1.473542302846908569e-01,2.215517610311508179e-01,3.503978624939918518e-02,-4.450479894876480103e-02,-9.930142760276794434e-02,2.859763801097869873e-01,1.341834757477045059e-02,-2.079250216484069824e-01,-2.378927022218704224e-01,-2.743975259363651276e-02,-9.677568078041076660e-02,-1.014318019151687622e-01,-6.949236243963241577e-02,-1.126501262187957764e-01,-2.997226826846599579e-02,-2.336535602807998657e-02,2.049243450164794922e-01,-4.382131993770599365e-02,-1.557815074920654297e-01,8.448941260576248169e-02,-3.755725175142288208e-02,-6.854584068059921265e-02,4.282762110233306885e-02,-5.123630911111831665e-02,-7.800054550170898438e-02,2.994225174188613892e-02,1.338016092777252197e-01,-7.807314395904541016e-03,1.676886975765228271e-01,1.304400712251663208e-01,5.541390739381313324e-03,-1.775158643722534180e-01,2.666896395385265350e-02,1.579776853322982788e-01,-1.251072995364665985e-02,-1.142740845680236816e-01,3.618159145116806030e-02,-1.494027078151702881e-01,1.967374533414840698e-01,-2.536537684500217438e-02,1.319442875683307648e-02,-1.219016965478658676e-02,-9.396538138389587402e-02,-4.876679927110671997e-02,-6.125597748905420303e-03,1.215014532208442688e-01,7.938031852245330811e-02,-5.932690203189849854e-02,1.500939130783081055e-01,-4.809476668015122414e-04,-2.226637899875640869e-01,-5.044491626904346049e-05,3.041964173316955566e-01,5.995512753725051880e-02,6.243671290576457977e-03,8.808881044387817383e-03,-3.186739608645439148e-02,-1.176154334098100662e-02,-3.439827561378479004e-01,-3.001261502504348755e-02,2.039943784475326538e-01,2.456313371658325195e-02,-8.277864009141921997e-02,2.188790440559387207e-01,-1.880559772253036499e-01,-1.812437474727630615e-01,5.133177712559700012e-02,8.567333966493606567e-02,6.371480971574783325e-02,-7.572982460260391235e-03,-2.845394983887672424e-02,-3.598186746239662170e-02,-1.646268814802169800e-01,2.201756685972213745e-01,1.133306995034217834e-01,-2.377895414829254150e-01,-1.067862063646316528e-01,9.249921143054962158e-02,1.566518843173980713e-02,8.484553545713424683e-03,3.010670244693756104e-01,3.205441534519195557e-01,-5.761232972145080566e-02,1.117935553193092346e-01,-7.796452939510345459e-02,8.403081446886062622e-02,2.231441438198089600e-02,2.481426149606704712e-01,-1.569256633520126343e-01,3.891786932945251465e-02,9.810716658830642700e-02,-2.884379029273986816e-02,1.987297236919403076e-01,-2.341372333467006683e-02,-1.501099616289138794e-01,1.585772782564163208e-01,-2.624052762985229492e-01,9.418058395385742188e-02,-9.034516662359237671e-02,1.355588585138320923e-01,-6.239846721291542053e-02,1.181641221046447754e-02,-2.778627276420593262e-01,-1.134600564837455750e-01,1.361542847007513046e-02,2.539816498756408691e-01,1.064042672514915466e-01,2.514110505580902100e-01,6.807646900415420532e-02,-3.122485056519508362e-02,1.405880302190780640e-01,-1.314785033464431763e-01,1.407056599855422974e-01,-4.305212572216987610e-02,-8.382267504930496216e-02,-3.930633515119552612e-02,-2.768253982067108154e-01,-1.074574589729309082e-01,2.602197825908660889e-01,5.741049721837043762e-02,-9.516612440347671509e-02,6.591724231839179993e-03,1.366869956254959106e-01,3.142850995063781738e-01,1.913228258490562439e-02,-7.659026980400085449e-02,9.614027291536331177e-02,3.190372288227081299e-01,-2.501321136951446533e-01,-3.550836071372032166e-02,-7.725413888692855835e-04,-1.292704343795776367e-01,7.551784813404083252e-02,-1.681670993566513062e-01,-1.417384743690490723e-01,-8.169743418693542480e-02,-9.651215374469757080e-02,-2.837447822093963623e-01,-9.956769645214080811e-02,1.574624925851821899e-01,-3.209045529365539551e-01,-7.499380409717559814e-02,-6.643918156623840332e-02,-1.499128639698028564e-01,7.373689115047454834e-02,-9.339880198240280151e-03,-2.613485231995582581e-02,-1.527808457612991333e-01,-1.987091451883316040e-02,-1.613685339689254761e-01,1.422477215528488159e-01,-1.763404458761215210e-01,9.371772408485412598e-03,-6.099795177578926086e-02,8.601736277341842651e-02,-1.016843244433403015e-01,2.296459116041660309e-02,7.359708845615386963e-02,-4.377810657024383545e-02,3.235750198364257812e-01,2.212341688573360443e-02,-5.667933449149131775e-02,-7.397562265396118164e-03,4.478206485509872437e-02,2.257119305431842804e-02,-1.069369018077850342e-01,2.765715122222900391e-01,4.279733449220657349e-02,4.880847036838531494e-02,-4.124040529131889343e-02,-6.521546095609664917e-02,1.603040099143981934e-02,-1.833684742450714111e-01,1.669233441352844238e-01,1.161891780793666840e-02,1.107647046446800232e-01,1.021029204130172729e-01,-2.627553343772888184e-01,2.267850488424301147e-01,1.346558891236782074e-02,-1.070388033986091614e-01,8.523412793874740601e-02,-2.476907670497894287e-01,-1.420533377677202225e-02,1.135182827711105347e-01,9.482675790786743164e-02,8.369410783052444458e-02,4.710022360086441040e-02,-2.253675600513815880e-03,-6.361329462379217148e-03,7.469616830348968506e-02,3.960001468658447266e-02,2.614242024719715118e-02,-2.801516354084014893e-01,1.712008416652679443e-01,4.669933021068572998e-02,-5.321367830038070679e-02,1.497531533241271973e-01,-1.969459839165210724e-02,1.144809182733297348e-02,-4.413127154111862183e-02,5.143448337912559509e-02,6.501439958810806274e-03,1.716855615377426147e-01,-1.171728968620300293e-01,2.917630374431610107e-01,-5.091774836182594299e-02,-3.919487074017524719e-02,-3.356290748342871666e-03,-1.033610254526138306e-01,-2.018357664346694946e-01,-1.638388484716415405e-01,8.045228570699691772e-02,-2.212191820144653320e-01,6.349727511405944824e-02,-2.444348856806755066e-02,9.147614240646362305e-03,-4.820863902568817139e-02,-2.665733732283115387e-02,-2.798694185912609100e-03,4.434343054890632629e-02,-1.813080757856369019e-01,-2.525745332241058350e-01,1.196057498455047607e-01,-8.875450491905212402e-02,2.104060500860214233e-01,1.882772147655487061e-01,-1.004542596638202667e-02,2.741417847573757172e-02
-1.384857594966888428e-01,-8.294060081243515015e-02,-2.418458089232444763e-02,3.515119478106498718e-02,-2.500250339508056641e-01,1.920949667692184448e-02,-1.049572676420211792e-01,-1.640618741512298584e-01,-1.596328318119049072e-01,7.307898998260498047e-02,-2.527483105659484863e-01,-1.658979952335357666e-01,-8.753225207328796387e-02,3.787289559841156006e-02,-1.101647038012742996e-02,1.152419857680797577e-02,-6.725697219371795654e-02,-7.510836701840162277e-03,6.654904037714004517e-02,-5.283803865313529968e-02,-1.154990196228027344e-01,6.153109297156333923e-02,-4.884145781397819519e-02,-2.051960676908493042e-02,6.352316588163375854e-02,2.602009288966655731e-02,-6.615382432937622070e-02,-1.440365612506866455e-01,2.006084425374865532e-03,-5.800335481762886047e-02,-2.345837838947772980e-02,-9.359247982501983643e-02,-1.175465434789657593e-01,-5.036595743149518967e-03,-1.287241876125335693e-01,-3.766216710209846497e-02,-5.546300858259201050e-02,-8.052606135606765747e-02,3.099588444456458092e-03,1.816775463521480560e-02,-8.632487617433071136e-03,-2.872356772422790527e-02,-1.259474456310272217e-02,-1.356127262115478516e-01,-1.315758526325225830e-01,-8.807745762169361115e-03,-1.231706980615854263e-02,-6.786836683750152588e-02,-8.827374130487442017e-02,-8.071655780076980591e-02,1.089018955826759338e-01,2.446109056472778320e-02,1.498317439109086990e-02,-1.717027127742767334e-01,1.466672029346227646e-02,-8.478976041078567505e-02,-1.161697506904602051e-01,4.068528115749359131e-02,1.224019937217235565e-02,3.983313217759132385e-02,-1.055958271026611328e-01,-7.500332780182361603e-03,6.867922376841306686e-03,-1.899984925985336304e-01,6.387721002101898193e-02,-6.865101307630538940e-02,1.093766745179891586e-02,-1.451173722743988037e-01,-2.044697254896163940e-01,-1.611399650573730469e-01,-1.399869918823242188e-01,-1.307734996080398560e-01,-3.105494678020477295e-01,-5.487006902694702148e-02,2.771757543087005615e-02,-1.233110129833221436e-01,-1.936209499835968018e-01,-5.079171061515808105e-02,-1.271816790103912354e-01,-1.766773611307144165e-01,-2.089951187372207642e-01,-4.114808980375528336e-04,-4.365285113453865051e-02,-6.303907837718725204e-03,1.004833802580833435e-01,-1.789019256830215454e-02,-8.881329745054244995e-02,-2.373188138008117676e-01,-1.447340846061706543e-01,-8.337626606225967407e-02,-1.558775156736373901e-01,1.388682168908417225e-03,2.148282900452613831e-02,-2.005860023200511932e-02,2.667353302240371704e-02,-7.330841850489377975e-03,-3.521000966429710388e-02,-2.155800312757492065e-01,1.181592643260955811e-01,-1.064619496464729309e-01,-9.367418289184570312e-02,-4.672504961490631104e-02,-6.437697913497686386e-03,-6.759527325630187988e-02,3.988566249608993530e-02,-8.109790086746215820e-02,8.528422564268112183e-02,-1.186352223157882690e-01,-5.808259546756744385e-02,1.145955175161361694e-03,2.634197473526000977e-02,-9.397251158952713013e-02,-1.848428547382354736e-01,-5.527969077229499817e-02,-2.164478302001953125e-01,-1.027594655752182007e-01,-1.376941427588462830e-02,4.846538975834846497e-02,4.193101450800895691e-02,-6.799970567226409912e-02,-2.788036763668060303e-01,1.812184229493141174e-02,2.485746750608086586e-03,1.565368846058845520e-02,-1.183165684342384338e-01,-1.425958722829818726e-01,-2.071728706359863281e-01,-1.993404626846313477e-01,9.967269003391265869e-02,-1.284091472625732422e-01,-4.152026772499084473e-02,-2.549536824226379395e-01,-1.063973307609558105e-01,-1.304723620414733887e-01,-2.200685143470764160e-01,-1.871124953031539917e-01,6.122289970517158508e-02,-1.473150998353958130e-01,6.625964492559432983e-02,2.073724940419197083e-02,-1.339527517557144165e-01,-2.874948680400848389e-01,5.835672840476036072e-02,-1.520378328859806061e-02,-1.383096426725387573e-01,-2.473254688084125519e-02,-7.178672403097152710e-02,-7.936837524175643921e-02,-8.080087602138519287e-03,-1.153472214937210083e-01,-1.588771939277648926e-01,-1.029261872172355652e-01,-4.403311386704444885e-02,-2.291759401559829712e-01,-2.072485536336898804e-01,-8.983816206455230713e-02,-7.716979086399078369e-02,-5.045253038406372070e-02,-1.461276859045028687e-01,-1.082761660218238831e-01,-3.398666903376579285e-02,4.352427273988723755e-02,6.080904603004455566e-02,7.486460264772176743e-03,3.495925664901733398e-02,7.157120108604431152e-02,-2.167066335678100586e-01,2.584070153534412384e-02,-1.666123569011688232e-01,-5.682443734258413315e-03,-1.211127936840057373e-01,-1.346082389354705811e-01,7.637990266084671021e-02,-8.829095214605331421e-02,-2.126187272369861603e-02,1.192122697830200195e-02,-6.410597264766693115e-02,-3.321830332279205322e-01,-7.509312033653259277e-02,-2.626628242433071136e-02,1.076793968677520752e-01,-1.483540534973144531e-01,1.366888289339840412e-03,-3.418906778097152710e-02,2.531394921243190765e-02,-6.188264489173889160e-02,-2.775379121303558350e-01,-1.022458970546722412e-01,1.625105179846286774e-02,-5.145128350704908371e-03,-2.529338002204895020e-01,7.481144368648529053e-02,-3.574368730187416077e-02,-5.534207075834274292e-02,-6.547124683856964111e-02,-2.275063693523406982e-01,4.571170359849929810e-02,-7.479533553123474121e-03,-9.601456671953201294e-02,-7.563328742980957031e-02,-1.829794049263000488e-01,-1.275700777769088745e-01,-1.694168448448181152e-01,-1.601319909095764160e-01,-4.299958702176809311e-03,-2.907184064388275146e-01,1.017717365175485611e-02,-5.637294799089431763e-02,6.023371219635009766e-02,1.373513322323560715e-02,5.431438796222209930e-03,-1.309695541858673096e-01,-1.338697820901870728e-01,-6.513512879610061646e-02,-3.228867650032043457e-01,-2.297814935445785522e-02,-8.281242847442626953e-02,-2.695755101740360260e-02,1.640497520565986633e-02,-2.157158451154828072e-03,-8.431412279605865479e-02,-8.507686853408813477e-02,-1.549521088600158691e-01,-2.944674715399742126e-02,-2.931874990463256836e-02,2.915857732295989990e-02,-8.373891562223434448e-02,1.496539562940597534e-01,-1.905313320457935333e-02,-1.622129678726196289e-01,-9.624920785427093506e-02,-4.691261798143386841e-02,-1.843914389610290527e-01,1.689848490059375763e-02,-3.212023526430130005e-02,-1.196913123130798340e-01,9.294576942920684814e-02,-2.204757370054721832e-02,-9.226460754871368408e-02,-2.348337136209011078e-02,3.373501822352409363e-02,-1.145991459488868713e-01,6.019178777933120728e-02,-1.170455068349838257e-01,1.569689437747001648e-02,-1.776541699655354023e-03,-1.169857848435640335e-02,-7.681094855070114136e-02,-2.647205628454685211e-02,-1.293962746858596802e-01,-1.927110105752944946e-01,-1.248117312788963318e-01,-2.857101149857044220e-02,-1.242473497986793518e-01,-3.160725161433219910e-02,1.502317655831575394e-02
3.675129264593124390e-02,2.706114389002323151e-02,1.006793379783630371e-01,-1.319749504327774048e-01,-2.393997311592102051e-01,1.617193222045898438e-02,2.146899886429309845e-02,-1.468701958656311035e-01,-1.303573399782180786e-01,-7.404632866382598877e-02,-7.885793596506118774e-02,-1.081498246639966965e-02,2.075687516480684280e-03,2.072271332144737244e-02,3.312363848090171814e-02,-3.710100799798965454e-02,-1.267116665840148926e-01,-5.934780463576316833e-02,-1.779608428478240967e-02,-1.210757344961166382e-01,-3.927821293473243713e-02,-8.484620600938796997e-02,-1.432102471590042114e-01,-1.762264072895050049e-01,7.378830015659332275e-02,1.315440684556961060e-01,-2.747149951756000519e-02,-1.477036178112030029e-01,-3.181756287813186646e-02,-7.452227175235748291e-03,1.306677311658859253e-01,-7.033485174179077148e-02,-9.273028373718261719e-02,8.023181557655334473e-02,3.712831065058708191e-02,5.134505778551101685e-02,6.987697631120681763e-02,-8.950185775756835938e-02,5.967219546437263489e-02,5.794470012187957764e-02,-8.276672102510929108e-03,-1.096651777625083923e-01,-5.263554863631725311e-03,-1.709187328815460205e-01,6.452473998069763184e-02,1.152572780847549438e-02,-1.451942026615142822e-01,1.737830229103565216e-02,-9.686918556690216064e-02,-5.115005001425743103e-02,4.560474306344985962e-02,8.501143194735050201e-03,6.721615791320800781e-02,-1.474653482437133789e-01,-3.938293829560279846e-02,-8.668631315231323242e-02,-1.636487394571304321e-01,1.580542027950286865e-01,1.165151596069335938e-02,-1.100423038005828857e-01,-9.663353860378265381e-02,6.020641326904296875e-02,-1.477532982826232910e-01,-2.249194532632827759e-01,8.710249513387680054e-02,-2.015045285224914551e-01,-2.038015052676200867e-02,5.120320618152618408e-02,-1.006873548030853271e-01,-1.034584045410156250e-01,-5.812399461865425110e-02,-9.856233745813369751e-02,-2.605499923229217529e-01,6.795066874474287033e-03,-6.322611123323440552e-02,-1.053320337086915970e-02,-2.380058616399765015e-01,5.676921457052230835e-02,-8.939589560031890869e-02,-5.910159274935722351e-02,3.398767858743667603e-02,3.450576961040496826e-02,-6.541259586811065674e-02,6.640467792749404907e-02,4.708870500326156616e-02,2.014010213315486908e-02,-1.661540269851684570e-01,-2.141083180904388428e-01,8.102415502071380615e-02,-1.320841163396835327e-01,-2.388437390327453613e-01,-9.779915213584899902e-02,-1.575889065861701965e-02,3.532493114471435547e-02,3.316587582230567932e-02,-4.370399191975593567e-02,-1.484661400318145752e-01,-2.033416777849197388e-01,1.231613103300333023e-02,-5.972505733370780945e-02,-2.224081903696060181e-01,-8.090557903051376343e-02,6.046559289097785950e-02,7.082795258611440659e-03,1.738695204257965088e-01,-6.517809629440307617e-02,-3.702548891305923462e-02,-1.799072325229644775e-01,2.091570757329463959e-03,-1.197938472032546997e-01,-9.414389729499816895e-03,-1.663293340243399143e-03,-1.909393966197967529e-01,-1.205063387751579285e-01,-1.843790560960769653e-01,-9.313544631004333496e-02,-4.478299990296363831e-02,-1.505403816699981689e-01,-3.484055399894714355e-02,-3.992794081568717957e-02,-1.397477686405181885e-01,-5.152256414294242859e-02,6.649815943092107773e-03,2.642682939767837524e-02,-1.083634048700332642e-01,-1.804347783327102661e-01,-1.566965728998184204e-01,-8.980262279510498047e-02,1.287626009434461594e-02,6.962871551513671875e-02,2.413819544017314911e-02,-2.278542518615722656e-01,-4.458815231919288635e-02,-7.248185575008392334e-02,-1.643877327442169189e-01,-9.138930588960647583e-02,7.398382574319839478e-02,-6.689052283763885498e-02,9.981027245521545410e-02,-3.086353838443756104e-02,-2.703461050987243652e-01,-1.149946376681327820e-01,-6.811486184597015381e-02,-1.015789508819580078e-01,-1.216641589999198914e-01,-1.753015071153640747e-01,1.271826177835464478e-01,-9.297018498182296753e-02,-5.405134707689285278e-02,-1.800822913646697998e-01,-9.752752631902694702e-02,-1.459171622991561890e-01,1.899523101747035980e-02,-1.710059940814971924e-01,-1.225673556327819824e-01,1.120028644800186157e-01,-1.693321205675601959e-02,-1.410791557282209396e-02,-9.935802966356277466e-02,-7.677892595529556274e-02,-8.824903517961502075e-03,-5.939473956823348999e-02,2.472600713372230530e-02,-5.920684710144996643e-02,-8.031095564365386963e-02,3.240528050810098648e-03,-2.091777920722961426e-01,-9.966713935136795044e-02,-1.103067472577095032e-01,3.759453445672988892e-02,-4.948525875806808472e-02,-9.428830444812774658e-02,-1.481296420097351074e-01,-3.629534691572189331e-02,-5.877161771059036255e-02,5.254342779517173767e-02,-5.448273569345474243e-02,-7.586531341075897217e-02,-2.635858766734600067e-02,-9.177225083112716675e-02,8.553527295589447021e-02,-9.219686686992645264e-02,-4.412885755300521851e-02,1.063264384865760803e-01,-1.524394936859607697e-02,-1.559312194585800171e-01,-1.311063170433044434e-01,-2.992057614028453827e-02,1.026507094502449036e-01,-1.389399170875549316e-01,-1.213425248861312866e-01,4.444270208477973938e-02,9.562061727046966553e-02,-1.423538848757743835e-02,-1.636557094752788544e-02,-1.961618214845657349e-01,3.681335225701332092e-02,1.033727675676345825e-01,8.624596893787384033e-02,-5.510423332452774048e-03,-7.947219163179397583e-02,-1.341746188700199127e-02,-5.706622079014778137e-02,-3.590163588523864746e-02,-5.657142400741577148e-02,-1.579533815383911133e-01,7.073377072811126709e-02,-1.704376488924026489e-01,-1.391867846250534058e-01,-3.971713036298751831e-02,3.482056781649589539e-02,5.626036599278450012e-02,-1.372196525335311890e-01,7.513844221830368042e-02,-7.786823809146881104e-02,9.142766892910003662e-02,-1.015672385692596436e-01,-1.820944547653198242e-01,8.558197319507598877e-02,-1.390562057495117188e-01,5.219358205795288086e-02,-1.268647313117980957e-01,-1.232795417308807373e-01,-1.722121387720108032e-01,1.946992799639701843e-02,7.773836702108383179e-02,-2.135502696037292480e-01,3.449847549200057983e-02,1.100920289754867554e-01,-1.438718289136886597e-01,-8.345302939414978027e-02,1.001557707786560059e-02,-2.689541876316070557e-01,-7.462014257907867432e-02,-8.865731209516525269e-02,-7.336137443780899048e-02,1.740373787470161915e-03,-3.745913971215486526e-03,1.455677580088376999e-02,-1.309060454368591309e-01,-6.648693978786468506e-02,1.163514852523803711e-01,7.289878278970718384e-02,-1.590193435549736023e-02,1.647203117609024048e-01,-1.426902711391448975e-01,4.964079707860946655e-02,-7.625128328800201416e-02,-2.495170757174491882e-02,-4.604259971529245377e-03,-1.606118679046630859e-01,-3.345364332199096680e-02,-2.002646476030349731e-01,-1.813453882932662964e-01,1.883220858871936798e-02,8.967391215264797211e-03
1.016283407807350159e-01,-1.282469183206558228e-02,-3.515307232737541199e-02,6.839749217033386230e-02,-1.624823361635208130e-02,2.341915108263492584e-02,-9.860993921756744385e-02,7.606208324432373047e-02,-1.003584116697311401e-01,-3.016941994428634644e-02,-7.878213189542293549e-03,4.939601197838783264e-02,-4.692541062831878662e-02,7.029502838850021362e-02,-2.816305961459875107e-03,1.880825124680995941e-02,9.030424803495407104e-02,-5.768796801567077637e-02,-4.177557304501533508e-02,-7.899926602840423584e-02,-1.885707490146160126e-02,-4.495210945606231689e-03,8.338727802038192749e-02,-1.156947202980518341e-02,-1.195041760802268982e-01,-5.648701265454292297e-02,-5.801233649253845215e-02,2.271793782711029053e-02,1.395768206566572189e-02,4.082502797245979309e-02,6.428653746843338013e-02,7.640064507722854614e-02,1.120844632387161255e-01,-6.023547425866127014e-02,6.551228463649749756e-02,1.081351414322853088e-01,6.958149839192628860e-03,6.246112752705812454e-03,9.835197776556015015e-02,-9.218297153711318970e-02,-2.648659422993659973e-02,4.010435938835144043e-02,1.073095295578241348e-02,9.885822236537933350e-02,4.026697203516960144e-02,2.902007289230823517e-02,-4.983448982238769531e-02,-1.038056164979934692e-01,-1.058027148246765137e-02,-8.513724803924560547e-02,4.413801804184913635e-02,1.104459464550018311e-01,1.721096038818359375e-02,8.865145593881607056e-02,-1.682958006858825684e-02,9.508355520665645599e-03,-6.735008955001831055e-02,1.395720243453979492e-01,-7.983359694480895996e-02,8.520884439349174500e-04,-4.149107262492179871e-02,-4.496049880981445312e-02,1.065234243869781494e-01,7.007267326116561890e-02,-2.212749235332012177e-02,-3.392815217375755310e-02,1.468654721975326538e-01,9.954096376895904541e-02,1.911923475563526154e-02,-7.883930951356887817e-02,-2.204756624996662140e-02,-8.403738960623741150e-03,3.722759708762168884e-02,-9.167288243770599365e-02,-3.291129320859909058e-02,-1.205332577228546143e-01,-8.055952191352844238e-02,7.310415804386138916e-02,-7.079860568046569824e-02,2.355046104639768600e-03,8.278200775384902954e-02,-6.709983944892883301e-02,2.564353868365287781e-02,-2.804490737617015839e-02,-4.392714798450469971e-02,5.608325824141502380e-02,-3.268268704414367676e-02,-6.594346463680267334e-02,-6.989049911499023438e-02,6.827044486999511719e-02,-2.536134608089923859e-02,2.157554589211940765e-02,-7.940150797367095947e-02,-5.856219306588172913e-02,3.659227117896080017e-02,3.959333896636962891e-02,-1.006746944040060043e-02,-4.267408046871423721e-03,5.277917534112930298e-02,-2.402550354599952698e-02,-8.117893338203430176e-02,3.109377622604370117e-02,2.390260994434356689e-02,-1.347607821226119995e-01,-1.035985276103019714e-01,-7.546619325876235962e-02,-1.272648721933364868e-01,-1.286026183515787125e-02,9.046781808137893677e-02,7.434305548667907715e-02,-6.061739847064018250e-02,-2.446306683123111725e-02,4.466582089662551880e-02,-1.019133105874061584e-01,-9.897106140851974487e-02,1.603665575385093689e-02,-7.765485346317291260e-02,-6.166721880435943604e-02,1.983225904405117035e-02,-9.781584143638610840e-02,8.820095658302307129e-02,6.103601306676864624e-02,-3.344924002885818481e-02,-3.252081945538520813e-02,8.642891049385070801e-02,-1.081693544983863831e-01,1.679801009595394135e-02,2.953158691525459290e-03,9.467250853776931763e-02,-9.294283390045166016e-02,8.308899402618408203e-02,1.699892282485961914e-01,-8.472054451704025269e-02,-1.114692836999893188e-01,6.328942626714706421e-02,-3.455848246812820435e-02,-1.423556450754404068e-02,7.610942423343658447e-02,5.111717060208320618e-02,-9.972468018531799316e-02,5.513880029320716858e-02,-1.163328811526298523e-01,1.190618276596069336e-01,7.764429599046707153e-02,-2.385556697845458984e-02,7.964149117469787598e-02,5.369297787547111511e-02,-8.644386380910873413e-02,-5.307240039110183716e-02,-5.983806028962135315e-02,1.110007166862487793e-01,9.830659627914428711e-02,4.478262364864349365e-02,-7.702846825122833252e-02,7.747101038694381714e-02,-1.193463131785392761e-01,-9.589215368032455444e-02,-6.834040582180023193e-02,8.771865814924240112e-02,-6.994856148958206177e-02,4.520258400589227676e-03,3.011178039014339447e-02,8.620575815439224243e-02,-2.265417575836181641e-02,1.504078228026628494e-02,-2.712419070303440094e-02,3.824648261070251465e-02,-1.860085316002368927e-02,4.121447727084159851e-02,2.476105839014053345e-02,-8.071580529212951660e-02,3.324491903185844421e-02,-5.461584031581878662e-02,1.112339273095130920e-01,-6.370603293180465698e-02,-1.137036085128784180e-01,5.381083115935325623e-02,-7.003638148307800293e-02,-4.283128306269645691e-02,-2.488432684913277626e-03,-3.763287141919136047e-02,-9.431623667478561401e-02,5.235689878463745117e-02,-2.553600072860717773e-02,5.208459496498107910e-02,-2.846741676330566406e-02,-5.198450759053230286e-02,-1.297162771224975586e-01,-1.333583593368530273e-01,-8.161962032318115234e-03,9.355631656944751740e-03,-8.058159053325653076e-02,-1.207437962293624878e-01,-1.270597130060195923e-01,-5.267767608165740967e-02,-1.228688508272171021e-01,5.312218889594078064e-02,1.129800379276275635e-01,-8.276581764221191406e-02,-4.623834788799285889e-02,3.330303728580474854e-02,-8.458795957267284393e-03,3.678531572222709656e-02,6.859213113784790039e-03,-7.057914137840270996e-02,1.123147159814834595e-01,-1.062595173716545105e-01,5.297491699457168579e-02,7.810254395008087158e-02,-3.774195909500122070e-02,1.012255027890205383e-01,9.346838295459747314e-02,-1.246732622385025024e-01,-7.433608174324035645e-02,-9.350113570690155029e-02,-2.233392000198364258e-02,-9.895125031471252441e-02,9.720780700445175171e-02,4.759375471621751785e-03,-6.874511390924453735e-02,-1.398354172706604004e-01,7.571441680192947388e-02,8.013490587472915649e-02,-1.890040235593914986e-03,9.901048243045806885e-02,1.024227514863014221e-01,-2.287423424422740936e-02,5.725504085421562195e-02,1.094466354697942734e-02,6.034035980701446533e-02,7.798387741786427796e-06,1.024995148181915283e-01,-5.891779437661170959e-03,1.051599606871604919e-01,-9.682482481002807617e-02,2.159458398818969727e-02,-5.531156063079833984e-02,-2.143176086246967316e-02,-1.255342215299606323e-01,7.185303419828414917e-02,-1.157081723213195801e-01,-3.939266316592693329e-03,-1.106781437993049622e-01,7.919362187385559082e-02,-1.085350438952445984e-01,-1.060751006007194519e-01,7.120392471551895142e-02,-9.598687291145324707e-02,3.021089732646942139e-02,5.284396931529045105e-02,5.451380833983421326e-02,-8.271758258342742920e-02,-9.815094619989395142e-02,6.105158478021621704e-02,-5.071736872196197510e-02,5.452328920364379883e-02
