-2.300815880298614502e-01,-2.478401958942413330e-01,-6.258563399314880371e-01,1.729296147823333740e-01,-1.854399144649505615e-01,-2.265202403068542480e-01,-5.899579524993896484e-01,-1.248381435871124268e-01,-2.932237088680267334e-01,-6.434872746467590332e-01,4.282100200653076172e-01,-1.143387630581855774e-01,-6.968802958726882935e-02,-7.426030188798904419e-02,-4.394940733909606934e-01,-2.787468731403350830e-01,-2.957940399646759033e-01,9.329947084188461304e-02,-6.167388558387756348e-01,-4.556121528148651123e-01,-4.063433706760406494e-01,-3.165214955806732178e-01,-5.025165677070617676e-01,-2.171929925680160522e-01,-2.839535474777221680e-01,3.224618732929229736e-02,-6.368327140808105469e-01,1.709185391664505005e-01,-6.619947552680969238e-01,-5.522700548171997070e-01,-6.516394764184951782e-02,-7.052696943283081055e-01,9.938650578260421753e-02,-6.685361266136169434e-01,5.468887686729431152e-01,-2.510996460914611816e-01,1.365195512771606445e-01,-2.332788556814193726e-01,1.623410284519195557e-01,-2.856535911560058594e-01,5.618749856948852539e-01,-5.173503160476684570e-01,-2.440054267644882202e-01,3.467430174350738525e-02,-1.577140539884567261e-01,-5.286855697631835938e-01,-4.803386628627777100e-01,-9.858573228120803833e-02,-4.847028851509094238e-01,-6.883595585823059082e-01,-4.169841110706329346e-01,-7.487234473228454590e-01,-5.368835330009460449e-01,1.368042081594467163e-01,-6.362773180007934570e-01,6.751720905303955078e-01,-5.630496144294738770e-01,-5.045794844627380371e-01,-4.403685629367828369e-01,-1.669008731842041016e-01,-4.220652580261230469e-01,-1.474747359752655029e-01,-1.839945614337921143e-01,-1.821871846914291382e-01,-5.638662576675415039e-01,-3.210280239582061768e-01,-1.805472224950790405e-01,-3.881533741950988770e-01,-5.921826362609863281e-01,-5.026187300682067871e-01,-6.168789267539978027e-01,-1.499577760696411133e-01,-7.287021279335021973e-01,-2.587835788726806641e-01,-5.623261928558349609e-01,-6.387091279029846191e-01,-5.106601119041442871e-01,-3.328603506088256836e-01,2.524837851524353027e-01,-2.198396541643887758e-04,-4.143579602241516113e-01,-4.456327557563781738e-01,-3.061031550168991089e-02,-4.907957315444946289e-01,5.472999215126037598e-01,-4.833150506019592285e-01,-6.287949085235595703e-01,-2.357095032930374146e-01,-4.561732113361358643e-01,-3.999314904212951660e-01,6.258603334426879883e-01,-3.962216675281524658e-01,-3.132782876491546631e-01,-2.241912782192230225e-01,3.732093870639801025e-01,-3.314866423606872559e-01,-5.368997454643249512e-01,-5.053937435150146484e-01,-5.740686655044555664e-01,-3.896293044090270996e-01,-2.547933161258697510e-01,-2.904968261718750000e-01,-3.227356970310211182e-01,-5.505555272102355957e-01,-5.679661631584167480e-01,-5.192427039146423340e-01,-5.067580342292785645e-01,2.202947437763214111e-02,-4.372677803039550781e-01,-4.361895024776458740e-01,-4.466046094894409180e-01,-6.575717329978942871e-01,-2.814264595508575439e-01,3.043598830699920654e-01,-1.621196269989013672e-01,-3.365493714809417725e-01,-1.276758313179016113e-01,5.749923586845397949e-01,-5.975105762481689453e-01,-5.288801789283752441e-01,-1.074487641453742981e-01,-5.166873335838317871e-01,-4.650589823722839355e-01,-5.997869372367858887e-01,7.959693074226379395e-01,-2.558340132236480713e-01,5.723897218704223633e-01,-4.024579226970672607e-01,-5.347213149070739746e-01,-2.004236429929733276e-01,7.913979291915893555e-01,-2.997246682643890381e-01,-7.088724374771118164e-01,-1.063965260982513428e-01,-3.076757490634918213e-01,-4.173698648810386658e-02,-7.147693037986755371e-01,-2.920757532119750977e-01,1.793554872274398804e-01,3.110359609127044678e-01,4.872879087924957275e-01,-5.661063790321350098e-01,-9.081770479679107666e-02,-6.558234691619873047e-01,-5.130158066749572754e-01,-2.164511382579803467e-01,3.754938542842864990e-01,2.157959342002868652e-01,-7.446092367172241211e-02,-6.853104829788208008e-01,-4.897096157073974609e-01,-6.138321161270141602e-01,-2.647897899150848389e-01,-3.902945816516876221e-01,-3.467698991298675537e-01,-1.675805151462554932e-01,-9.457872062921524048e-02,-7.130935788154602051e-01,3.436517119407653809e-01,-3.584452569484710693e-01,-1.380327045917510986e-01,-3.001674711704254150e-01,-9.382659196853637695e-02,-4.462974667549133301e-01,-2.843374572694301605e-02,-3.560458123683929443e-01,-4.309025108814239502e-01,-5.449990630149841309e-01,-5.369521975517272949e-01,-8.717977255582809448e-02,7.548711299896240234e-01,-3.165433108806610107e-01,-1.644616387784481049e-02,-2.989736497402191162e-01,8.426492661237716675e-02,-2.530575096607208252e-01,-3.920057117938995361e-01,2.753389179706573486e-01,-5.726901292800903320e-01,-4.253585636615753174e-01,-3.598355352878570557e-01,5.155908465385437012e-01,-5.193932652473449707e-01,-9.582253545522689819e-02,-2.508989572525024414e-01,-6.273338198661804199e-01,2.992866933345794678e-01,-8.456283807754516602e-02,-3.230356872081756592e-01,-4.004183709621429443e-01,9.937382489442825317e-02,3.632421791553497314e-01,2.225662022829055786e-01,-6.814941167831420898e-01,-1.943675279617309570e-01,-1.406877040863037109e-01,1.588853448629379272e-01,-4.710410237312316895e-01,-6.366597414016723633e-01,-2.793140411376953125e-01,-7.781445384025573730e-01,-2.355984449386596680e-01,-2.945518195629119873e-01,6.545282602310180664e-01,-1.226051822304725647e-01,5.866528153419494629e-01,-5.974664688110351562e-01,-4.182448685169219971e-01,-2.490423917770385742e-01,-5.749954581260681152e-01,-6.811060309410095215e-01,4.996671080589294434e-01,4.212542250752449036e-02,2.433882653713226318e-01,-1.691267788410186768e-01,-5.901107192039489746e-01,-4.442895948886871338e-01,5.427991747856140137e-01,-2.592584490776062012e-01,-8.848292380571365356e-02,-3.484726846218109131e-01,-3.483952581882476807e-01,-2.187515795230865479e-01,-6.145839691162109375e-01,-6.370413303375244141e-01,-1.580852717161178589e-01,-4.864481985569000244e-01,3.907041549682617188e-01,-5.826381444931030273e-01,-2.740609645843505859e-01,-4.007313773036003113e-02,8.199329674243927002e-02,-2.772142589092254639e-01,8.451847359538078308e-03,-5.758818387985229492e-01,-2.253217697143554688e-01,5.090255141258239746e-01,4.811414480209350586e-01,-5.175528526306152344e-01,-4.902153313159942627e-01,-7.181828618049621582e-01,-4.629195332527160645e-01,8.640869259834289551e-01,2.796409726142883301e-01,-4.799318909645080566e-01,-3.782944381237030029e-01,-6.792950630187988281e-02,-2.865276932716369629e-01,-7.684452831745147705e-02,-1.785079687833786011e-01,-3.924594223499298096e-01,-5.516929626464843750e-01,-4.915748238563537598e-01,-1.825537383556365967e-01,-3.484219014644622803e-01,-5.353723764419555664e-01
2.162158340215682983e-01,-2.149675600230693817e-02,-3.644573315978050232e-02,-2.502211369574069977e-02,-1.929706335067749023e-01,9.858093410730361938e-02,-1.426952145993709564e-02,9.626837074756622314e-02,-9.144577197730541229e-03,6.614585965871810913e-02,-1.171901747584342957e-01,2.745432406663894653e-02,9.744761139154434204e-02,-1.322789192199707031e-01,-1.471502240747213364e-02,-7.423282950185239315e-04,1.527222245931625366e-01,-6.751389801502227783e-02,-6.866546720266342163e-02,-4.411659762263298035e-02,8.029839396476745605e-02,7.583261281251907349e-02,-4.947663098573684692e-02,-9.337940067052841187e-02,-3.285700082778930664e-02,1.453043669462203979e-01,9.315858036279678345e-02,6.316033005714416504e-02,-3.929613158106803894e-02,7.487640529870986938e-02,-2.346303872764110565e-02,5.290521774441003799e-03,-1.034255954436957836e-03,-6.150946021080017090e-02,-1.872217357158660889e-01,-6.274279952049255371e-02,-6.478925049304962158e-02,-1.117174774408340454e-01,2.344665117561817169e-02,-4.760081321001052856e-02,-3.074529580771923065e-02,1.719780713319778442e-01,-1.214736923575401306e-01,-7.263849675655364990e-02,-9.057299047708511353e-02,-8.851716667413711548e-02,-6.504077464342117310e-02,-1.023742035031318665e-01,-5.695473402738571167e-02,-3.303477540612220764e-02,1.376119349151849747e-02,1.480176597833633423e-01,-1.177795007824897766e-01,-1.295550018548965454e-01,-1.737437583506107330e-02,7.149855792522430420e-02,-1.244043409824371338e-01,1.020746231079101562e-01,-8.556956797838211060e-02,6.054814159870147705e-02,-1.136086210608482361e-01,-5.893099308013916016e-02,-5.148300901055335999e-02,-1.843537688255310059e-01,5.938737094402313232e-02,-7.859200239181518555e-02,-4.792727902531623840e-02,-1.632693782448768616e-02,-1.759264804422855377e-02,-1.166064366698265076e-01,8.001657575368881226e-02,-4.623486101627349854e-02,1.625318378210067749e-01,-1.334791928529739380e-01,-4.986988753080368042e-02,-1.053302958607673645e-01,1.528126001358032227e-01,1.729235500097274780e-01,-1.261197328567504883e-01,-4.000594466924667358e-02,6.225009262561798096e-02,-1.066837161779403687e-01,-4.666806012392044067e-02,-1.067988127470016479e-01,1.430675983428955078e-01,9.222511947154998779e-02,-1.792050451040267944e-01,-5.607139691710472107e-02,1.498833745718002319e-01,-4.927005618810653687e-02,8.584066480398178101e-02,-6.206509470939636230e-02,1.624946296215057373e-02,3.802499920129776001e-02,1.203443408012390137e-01,1.264787465333938599e-01,-1.956669427454471588e-02,6.238672509789466858e-02,1.249928399920463562e-01,-1.156951263546943665e-01,6.218596547842025757e-02,2.466846629977226257e-02,3.678669035434722900e-02,5.963725969195365906e-03,-1.100573241710662842e-01,-1.218806803226470947e-01,-6.002316623926162720e-02,-1.229899376630783081e-01,-2.056945860385894775e-02,5.830640718340873718e-02,1.227337196469306946e-01,-5.936490744352340698e-02,5.909117683768272400e-02,1.130427494645118713e-01,1.405947953462600708e-01,-1.170332953333854675e-01,9.353888779878616333e-02,-1.209074072539806366e-02,5.963099747896194458e-02,4.102801159024238586e-02,2.901202440261840820e-02,1.531529724597930908e-01,-2.144742943346500397e-02,-1.277383118867874146e-01,-8.866384625434875488e-02,4.145430400967597961e-02,-9.718233346939086914e-02,-4.725585877895355225e-02,8.124426752328872681e-02,8.097641915082931519e-02,1.612887233495712280e-01,-2.802849002182483673e-02,-1.006668433547019958e-01,-1.295654773712158203e-01,-5.031519010663032532e-02,8.251468650996685028e-03,4.373117536306381226e-02,2.587362378835678101e-02,-9.952143579721450806e-02,-3.882392495870590210e-02,-7.694738358259201050e-02,3.569900244474411011e-02,-9.636668860912322998e-02,2.093876898288726807e-02,-1.138814389705657959e-01,8.876521140336990356e-03,-1.527897566556930542e-01,3.804140537977218628e-02,3.074257820844650269e-02,1.712157018482685089e-02,-4.951207339763641357e-02,-2.137330621480941772e-01,-1.700701192021369934e-02,-1.783022731542587280e-01,-1.863364689052104950e-02,9.928341954946517944e-02,2.752846293151378632e-02,7.530546747148036957e-03,-1.706118136644363403e-01,-1.547252237796783447e-01,-4.645716026425361633e-02,1.799827218055725098e-01,-1.725058406591415405e-01,1.259810477495193481e-02,-1.384431272745132446e-01,-5.509147047996520996e-02,-5.208265781402587891e-02,4.356519877910614014e-02,-6.489383429288864136e-02,1.093451306223869324e-01,-6.294753402471542358e-02,4.448702558875083923e-02,3.958613052964210510e-02,6.567139178514480591e-02,1.624472588300704956e-01,4.386911168694496155e-02,7.319400459527969360e-02,6.169698759913444519e-02,-6.499317940324544907e-03,2.024807333946228027e-01,-5.591384321451187134e-02,-1.033246237784624100e-02,-1.262078285217285156e-01,-1.916620284318923950e-01,4.149715602397918701e-02,6.175685673952102661e-02,-1.361342668533325195e-01,1.065945252776145935e-01,7.400546967983245850e-02,3.197852149605751038e-02,-9.768175333738327026e-02,-8.447728119790554047e-03,3.805512934923171997e-02,-1.949662901461124420e-02,-1.551775075495243073e-02,-7.195521146059036255e-02,5.356256850063800812e-03,-7.257513701915740967e-02,-6.889123469591140747e-02,-8.287827484309673309e-03,-2.668753638863563538e-02,-7.500133663415908813e-02,5.111798271536827087e-02,6.891221553087234497e-02,-4.411045461893081665e-02,-6.098204478621482849e-02,4.072331264615058899e-02,-4.690293595194816589e-02,4.852693527936935425e-02,5.662832409143447876e-02,-1.461067795753479004e-02,-5.059994384646415710e-02,-7.569454610347747803e-02,1.472821924835443497e-03,1.198081579059362411e-02,5.613074079155921936e-02,-4.594230651855468750e-02,1.572190374135971069e-01,-1.701605767011642456e-01,3.887767344713211060e-02,1.235223934054374695e-01,1.754385791718959808e-02,1.413819491863250732e-01,4.764714092016220093e-02,-1.589198261499404907e-01,-2.158626317977905273e-01,-1.143773123621940613e-01,-2.831958979368209839e-02,-8.406165987253189087e-03,1.710575520992279053e-01,-3.985939919948577881e-02,-7.465468719601631165e-03,1.275156140327453613e-01,3.029972128570079803e-02,-2.241161912679672241e-01,1.992589533329010010e-01,8.749350905418395996e-02,-4.102845117449760437e-02,-4.319122433662414551e-02,8.262445032596588135e-02,9.750084578990936279e-02,-5.798270925879478455e-02,-1.560467183589935303e-01,1.047759875655174255e-01,1.796041876077651978e-01,-4.927718639373779297e-02,-1.994809508323669434e-01,5.906977504491806030e-02,-9.447854012250900269e-03,-6.304558366537094116e-02,-2.228208184242248535e-01,4.064885154366493225e-02,2.458942122757434845e-02,1.308762729167938232e-01,1.763356775045394897e-01,-9.804665297269821167e-02
1.396308690309524536e-01,-1.103015914559364319e-01,9.933037217706441879e-04,1.784561127424240112e-01,-1.147322654724121094e-01,3.370273113250732422e-02,-1.837420910596847534e-01,-1.694548726081848145e-01,-1.192611753940582275e-01,7.583089172840118408e-02,-3.306842744350433350e-01,-5.077096447348594666e-02,-1.005512177944183350e-01,-9.836334735155105591e-02,1.068145334720611572e-01,1.079932153224945068e-01,-1.008540317416191101e-01,-1.425195764750242233e-02,-1.296681612730026245e-01,-2.080042213201522827e-01,-2.217392995953559875e-02,1.196648180484771729e-02,-1.264547556638717651e-01,4.665783792734146118e-02,2.497319504618644714e-02,-5.524445697665214539e-02,-8.272633701562881470e-02,-1.665177047252655029e-01,-2.389609627425670624e-02,-1.854855865240097046e-01,-8.109533041715621948e-02,-8.731773495674133301e-02,2.591742901131510735e-03,-2.116519771516323090e-02,-1.954612880945205688e-02,-2.526821941137313843e-02,-3.821713477373123169e-02,-5.970186740159988403e-02,2.983249165117740631e-02,1.066294759511947632e-01,5.579466745257377625e-02,-8.044274151325225830e-02,9.810301661491394043e-02,-2.248251810669898987e-02,2.262129336595535278e-01,2.276678085327148438e-01,-3.207058459520339966e-02,-1.189296469092369080e-01,-1.358254998922348022e-01,-1.166985407471656799e-01,2.077205777168273926e-01,-1.397195607423782349e-01,4.312960430979728699e-02,-3.100645169615745544e-02,-1.815376430749893188e-01,1.387349329888820648e-03,-1.589255034923553467e-01,-1.232936754822731018e-01,2.434004098176956177e-01,-2.151298224925994873e-01,-1.535914689302444458e-01,1.332777366042137146e-02,6.120039033703505993e-04,1.346234139055013657e-02,-1.822520494461059570e-01,-1.935931444168090820e-01,4.448299482464790344e-02,7.140889018774032593e-02,1.023009698837995529e-02,1.131398081779479980e-01,-6.764736771583557129e-02,-1.224861294031143188e-01,-1.002635806798934937e-01,1.014987751841545105e-01,4.621351510286331177e-02,-3.858456388115882874e-03,-9.290024638175964355e-02,2.320431172847747803e-02,-7.708963006734848022e-02,-1.179652884602546692e-01,8.742499351501464844e-02,1.176647245883941650e-01,-8.371163904666900635e-02,2.341637015342712402e-01,-1.952636055648326874e-02,-1.109835654497146606e-01,-6.936541199684143066e-02,2.605625092983245850e-01,-5.222581326961517334e-02,1.194996833801269531e-01,4.384321719408035278e-02,1.000244766473770142e-01,-4.832411184906959534e-03,1.053736172616481781e-02,1.380185037851333618e-01,-1.829757392406463623e-01,-1.121431440114974976e-01,1.882787793874740601e-01,7.477715611457824707e-03,-8.636621385812759399e-02,-3.315846621990203857e-02,-1.723427921533584595e-01,3.298617154359817505e-02,1.324941962957382202e-01,-9.727401286363601685e-02,1.226281747221946716e-01,9.790876507759094238e-02,-2.538265287876129150e-01,-1.339581608772277832e-01,-1.256600618362426758e-01,-5.882316455245018005e-02,-2.470908686518669128e-02,2.670875191688537598e-01,-1.549097597599029541e-01,1.250857263803482056e-01,-1.811535507440567017e-01,1.465912461280822754e-01,-1.640297770500183105e-01,-5.207126587629318237e-02,-7.516261190176010132e-02,-1.125910207629203796e-01,9.306280314922332764e-02,2.295063249766826630e-02,3.995902463793754578e-02,-1.625039726495742798e-01,2.162480950355529785e-01,-2.311527281999588013e-01,-2.186047844588756561e-02,-7.083837408572435379e-04,-2.338240146636962891e-01,-9.813449531793594360e-02,-1.504136621952056885e-01,2.785618044435977936e-02,-9.118209779262542725e-02,-9.529961645603179932e-02,-1.125763654708862305e-01,1.176074892282485962e-01,-1.750881373882293701e-01,8.592181652784347534e-02,-1.721468567848205566e-01,4.469476640224456787e-03,4.302415996789932251e-02,-1.527815908193588257e-01,-1.692582666873931885e-01,7.787364721298217773e-02,-1.910024583339691162e-01,1.510250717401504517e-01,1.233146488666534424e-01,2.397473901510238647e-03,1.095768362283706665e-01,7.596953306347131729e-03,-2.018603123724460602e-02,-1.413957178592681885e-01,1.669848151504993439e-02,-1.023605316877365112e-01,5.215246975421905518e-02,-1.759836673736572266e-01,-2.224033884704113007e-02,-1.277304142713546753e-01,2.025395259261131287e-02,-1.655866503715515137e-01,-6.826707720756530762e-02,-1.921873092651367188e-01,1.246759481728076935e-02,-8.257367461919784546e-02,-9.783917665481567383e-02,1.357973963022232056e-01,-1.853659600019454956e-01,9.005878120660781860e-02,-1.086293831467628479e-01,-1.572136133909225464e-01,-5.872507393360137939e-02,-4.720389097929000854e-02,-5.289418995380401611e-02,-4.835528787225484848e-03,3.619708493351936340e-02,-9.387508034706115723e-02,-1.057360842823982239e-01,4.331938922405242920e-02,2.990639209747314453e-02,-1.720643043518066406e-01,8.613371104001998901e-02,1.223202273249626160e-01,6.034592539072036743e-02,-8.381937444210052490e-02,2.772500365972518921e-02,-1.334149837493896484e-01,-9.999541938304901123e-02,-1.611153036355972290e-01,-1.311399191617965698e-01,-1.266001462936401367e-01,5.446455627679824829e-02,-1.049482002854347229e-01,1.746988296508789062e-01,1.318600494414567947e-02,-1.272608488798141479e-01,-2.737659588456153870e-02,3.780808672308921814e-02,-1.404812186956405640e-01,-2.473923563957214355e-02,1.725805550813674927e-02,-8.176682144403457642e-02,4.867282882332801819e-02,7.761844247579574585e-02,-9.518087841570377350e-03,4.944892600178718567e-02,4.189512692391872406e-03,7.655393332242965698e-02,-4.468376189470291138e-02,-5.031049624085426331e-02,-3.882521390914916992e-02,5.248848348855972290e-02,2.484669536352157593e-01,1.921686530113220215e-02,-9.852185100317001343e-02,-1.056985333561897278e-01,-5.862453486770391464e-03,-8.606141433119773865e-03,-2.401877194643020630e-01,-1.161708533763885498e-01,1.420453935861587524e-01,-3.471755981445312500e-01,-1.781844161450862885e-02,-1.079073473811149597e-01,7.205177098512649536e-02,1.492472589015960693e-01,-8.583647012710571289e-02,4.210817441344261169e-02,-2.459683455526828766e-02,-1.012959480285644531e-01,-2.119770795106887817e-01,4.393524304032325745e-02,-1.702772527933120728e-01,6.891463417559862137e-03,1.162733063101768494e-01,-1.003764718770980835e-01,-1.346548795700073242e-01,-8.830111473798751831e-02,1.100817024707794189e-01,-7.927692681550979614e-02,8.223524689674377441e-02,-1.042723357677459717e-01,-1.834633797407150269e-01,2.395396381616592407e-01,-1.535774916410446167e-01,-1.185057833790779114e-01,-1.242574453353881836e-01,-1.117417588829994202e-01,-1.248556077480316162e-01,-1.351420432329177856e-01,1.010692119598388672e-01,-5.900371819734573364e-02,4.101952910423278809e-02,1.410609632730484009e-01,-3.511032322421669960e-03,-2.068233042955398560e-01
-8.210615813732147217e-02,-1.294137164950370789e-02,-7.582060247659683228e-02,1.072820946574211121e-01,7.874333299696445465e-03,-7.842697203159332275e-02,-3.867008909583091736e-02,1.573774963617324829e-01,-1.303548179566860199e-02,-1.681006550788879395e-01,-7.814718782901763916e-02,1.823390461504459381e-02,1.200627535581588745e-02,-8.610249310731887817e-02,8.345152437686920166e-02,-4.673930257558822632e-02,-7.806356996297836304e-02,3.519096970558166504e-02,-1.575625687837600708e-01,-7.617780566215515137e-02,-1.257730573415756226e-01,2.959219366312026978e-02,-1.400335729122161865e-01,1.433548331260681152e-01,9.714333713054656982e-02,8.333125151693820953e-03,-1.903535425662994385e-01,7.159173488616943359e-03,8.105240762233734131e-02,3.810971230268478394e-02,-9.718855470418930054e-02,4.246979951858520508e-03,-7.069264352321624756e-02,3.788897767663002014e-02,-1.858522146940231323e-01,4.754189029335975647e-02,3.603946417570114136e-02,-8.704980462789535522e-02,-4.366989061236381531e-02,-1.140327453613281250e-01,-5.424028728157281876e-03,-4.014056641608476639e-03,-6.070623174309730530e-02,6.529738660901784897e-03,-6.913895159959793091e-02,-1.200041081756353378e-02,6.405891478061676025e-02,-1.308520287275314331e-01,-2.037797421216964722e-01,-4.456021636724472046e-02,1.847098916769027710e-01,-6.547204405069351196e-02,-6.428128480911254883e-02,1.847366988658905029e-02,5.488788336515426636e-02,-5.582483485341072083e-02,-1.364334225654602051e-01,3.689330816268920898e-02,-1.422969102859497070e-01,1.314682792872190475e-02,6.525730341672897339e-02,9.254446625709533691e-02,1.426082998514175415e-01,1.200745347887277603e-02,1.915605552494525909e-02,-1.867976784706115723e-02,1.333738714456558228e-01,-2.157308012247085571e-01,3.446929901838302612e-02,1.971309334039688110e-01,-4.094830527901649475e-02,-1.013135816901922226e-02,8.678801357746124268e-02,1.606646478176116943e-01,7.160809822380542755e-03,8.050154149532318115e-02,1.111674774438142776e-02,-1.095410734415054321e-01,-2.025919407606124878e-01,-9.179565310478210449e-02,3.764938190579414368e-02,-5.660564079880714417e-02,1.698879301548004150e-01,6.330180168151855469e-02,-1.704475097358226776e-02,-1.474168896675109863e-02,-9.233170747756958008e-02,-1.016529649496078491e-01,-1.144494563341140747e-01,-8.693017996847629547e-03,-5.945739895105361938e-02,-2.562166750431060791e-02,-7.288556545972824097e-02,-3.173437900841236115e-03,4.153055325150489807e-02,-8.333712071180343628e-02,4.308955371379852295e-02,6.720647215843200684e-02,2.709782682359218597e-02,4.749596863985061646e-02,2.164320945739746094e-01,-6.465313583612442017e-02,-8.285658806562423706e-02,7.360786199569702148e-02,1.461238861083984375e-01,3.156600520014762878e-02,-8.200021088123321533e-02,3.879092261195182800e-02,9.908492118120193481e-02,-7.075933367013931274e-02,-4.608408734202384949e-02,-1.986169219017028809e-01,1.922408789396286011e-01,-7.413826882839202881e-02,1.884801983833312988e-01,-7.283772528171539307e-02,1.081564724445343018e-01,-2.366144806146621704e-01,-3.086579032242298126e-02,-2.604157626628875732e-01,-5.324665084481239319e-02,-9.467251598834991455e-03,4.006258212029933929e-03,1.243793144822120667e-01,-5.498668551445007324e-02,1.202078629285097122e-02,-9.543532878160476685e-02,-5.463768169283866882e-02,-7.074223458766937256e-02,-6.710080429911613464e-03,-6.310428678989410400e-02,7.443751394748687744e-02,-8.113382011651992798e-02,-6.003418192267417908e-02,-5.095000192523002625e-02,-1.692158579826354980e-01,-5.002564564347267151e-02,7.946830242872238159e-02,2.742164768278598785e-02,-6.469057500362396240e-02,-6.741075217723846436e-02,1.571156829595565796e-01,-4.417874664068222046e-02,-1.613755524158477783e-01,-7.346348464488983154e-02,6.416447460651397705e-02,-2.222229838371276855e-01,-3.677936270833015442e-02,-3.591341152787208557e-02,-1.282409280538558960e-01,-3.510490059852600098e-02,-1.564181894063949585e-01,1.952337287366390228e-02,-2.105348110198974609e-01,-1.140994280576705933e-01,1.916624754667282104e-01,-9.682817757129669189e-02,6.276851892471313477e-02,4.087055847048759460e-02,2.345527559518814087e-01,-9.658607095479965210e-02,8.966033160686492920e-02,1.666529662907123566e-02,-1.581472717225551605e-02,-5.809829384088516235e-02,-2.161909267306327820e-02,1.160948574542999268e-01,-6.638909131288528442e-02,-6.211631745100021362e-02,-1.291906237602233887e-01,-1.187012642621994019e-01,-5.733293667435646057e-02,6.017681211233139038e-02,-1.008132547140121460e-01,2.332154363393783569e-01,2.965671718120574951e-01,-2.354458905756473541e-03,8.721828460693359375e-02,9.010335803031921387e-02,-7.748707383871078491e-02,-1.538673937320709229e-01,3.624974191188812256e-02,8.033140003681182861e-02,2.312811464071273804e-02,6.929929554462432861e-02,-2.364463731646537781e-02,-1.571334153413772583e-01,-1.609341204166412354e-01,-1.441785544157028198e-01,-7.642791420221328735e-02,4.513296484947204590e-02,-6.114119663834571838e-02,-8.302433043718338013e-02,-4.488192033022642136e-03,6.123257055878639221e-02,-4.166094586253166199e-02,-7.829069346189498901e-02,-1.557532697916030884e-01,-7.570756226778030396e-02,1.147947236895561218e-01,-7.393123954534530640e-02,-1.384682953357696533e-01,-1.619688868522644043e-01,-1.594908684492111206e-01,-1.899393647909164429e-02,-1.554801166057586670e-01,-7.260945625603199005e-03,-5.644986405968666077e-03,5.212812498211860657e-02,-9.457490593194961548e-02,-9.064560383558273315e-02,-4.429821297526359558e-02,5.173172801733016968e-02,-6.094537302851676941e-02,8.241892606019973755e-02,-1.244059652090072632e-01,2.064473554491996765e-02,-4.099798679817467928e-04,-2.843453362584114075e-02,6.138791516423225403e-02,-7.658593356609344482e-02,-3.945828229188919067e-02,-1.132542863488197327e-01,-5.406952649354934692e-02,-1.038787439465522766e-01,1.582543253898620605e-01,-1.310515552759170532e-01,7.718077301979064941e-02,-7.015235722064971924e-02,8.752998709678649902e-02,5.573147907853126526e-02,-7.776170969009399414e-02,-2.271454595029354095e-02,1.803776770830154419e-01,5.941483750939369202e-02,-1.505280733108520508e-01,1.205842848867177963e-02,-9.684753417968750000e-02,-1.818419806659221649e-02,-4.572550952434539795e-02,1.264822483062744141e-01,4.670761118177324533e-04,-2.236791849136352539e-01,-1.943150758743286133e-01,-5.737758055329322815e-02,-1.676535755395889282e-01,-9.064418822526931763e-02,-7.411719113588333130e-02,-8.854554593563079834e-02,-8.804106712341308594e-02,-1.062406525015830994e-01,-5.273130163550376892e-02,1.638040244579315186e-01,2.016678638756275177e-02,2.255363762378692627e-01,-7.408105581998825073e-02
-5.450439453125000000e-02,-3.630139166489243507e-03,-1.287097185850143433e-01,-3.786813467741012573e-02,1.411658674478530884e-01,-1.770452558994293213e-01,1.276148408651351929e-01,1.471991930156946182e-02,-1.006205193698406219e-02,2.144638895988464355e-01,6.927362084388732910e-02,9.199279546737670898e-02,-1.306530833244323730e-01,1.468053832650184631e-02,1.564683318138122559e-01,1.118264719843864441e-01,1.259896010160446167e-01,1.995226591825485229e-01,-8.150724321603775024e-02,3.443514183163642883e-02,-1.598484516143798828e-01,-1.908825784921646118e-01,-9.220170974731445312e-02,8.705013245344161987e-02,-8.223885297775268555e-02,-7.856588065624237061e-02,8.167027682065963745e-02,1.848460547626018524e-02,-6.742414552718400955e-03,-5.162465944886207581e-02,-2.099763788282871246e-02,-1.123598963022232056e-01,-6.768573075532913208e-02,-1.532529741525650024e-01,-5.240187793970108032e-02,-6.526657938957214355e-02,2.674839831888675690e-02,-5.077891051769256592e-02,6.625561416149139404e-02,-2.550631761550903320e-02,-8.658945560455322266e-03,2.406249940395355225e-01,-6.293842568993568420e-03,1.329422295093536377e-01,-2.306544929742813110e-01,-4.765579476952552795e-02,-1.713240444660186768e-01,1.046447083353996277e-01,-1.353871524333953857e-01,2.465667203068733215e-02,6.777630001306533813e-02,-6.288582086563110352e-02,-1.281563937664031982e-01,1.414006389677524567e-02,6.840071175247430801e-03,1.113021001219749451e-01,5.813305452466011047e-02,-1.703998744487762451e-01,-1.651345193386077881e-01,1.654349081218242645e-02,-7.157237082719802856e-02,-9.383475035429000854e-02,-3.516441583633422852e-02,-1.925011128187179565e-01,-1.230531632900238037e-01,1.184638887643814087e-01,7.991592586040496826e-02,-1.155937910079956055e-01,-5.977949872612953186e-02,-1.395142972469329834e-01,1.128994673490524292e-02,-9.873552247881889343e-03,-6.420923769474029541e-02,-2.429559128358960152e-03,-4.927007853984832764e-02,-1.195519715547561646e-01,-1.315570026636123657e-01,-3.039519302546977997e-02,1.312267780303955078e-01,-6.329594552516937256e-02,-9.505345672369003296e-02,-5.110307410359382629e-02,1.597121357917785645e-01,-3.740934282541275024e-02,-2.229636535048484802e-03,-8.809158951044082642e-02,-6.966751813888549805e-02,-1.931556314229965210e-02,6.418062373995780945e-03,-2.834628708660602570e-02,-1.067051067948341370e-01,-1.814316511154174805e-01,-1.289110779762268066e-01,9.519077837467193604e-02,2.791591733694076538e-02,1.396688222885131836e-01,-1.057408004999160767e-01,2.757397666573524475e-02,-4.012656584382057190e-02,-3.907048329710960388e-02,6.112815439701080322e-02,3.625583946704864502e-01,9.042973071336746216e-02,-6.059012562036514282e-02,1.582250595092773438e-01,-8.029467612504959106e-02,-6.708340346813201904e-02,1.913821250200271606e-01,2.226040884852409363e-02,-1.002942919731140137e-01,-8.889357000589370728e-02,-1.138014644384384155e-01,-7.789259403944015503e-02,-1.013955194503068924e-02,-1.011997610330581665e-01,1.014475449919700623e-01,-9.171512722969055176e-02,-1.192202791571617126e-01,9.041289985179901123e-02,-1.759577170014381409e-02,6.689217686653137207e-02,-1.023267060518264771e-01,-8.403245359659194946e-02,-1.993644535541534424e-01,1.014230325818061829e-01,-3.588148579001426697e-02,4.956423118710517883e-02,-8.709777146577835083e-02,-9.076068550348281860e-02,2.074030041694641113e-01,6.540201604366302490e-02,2.334579825401306152e-02,-2.033362630754709244e-03,-9.829782880842685699e-03,5.700140818953514099e-02,-1.164302788674831390e-02,-7.196667045354843140e-02,1.657647490501403809e-01,-7.684597373008728027e-02,1.831834018230438232e-01,4.494772106409072876e-02,-1.417919695377349854e-01,7.297934591770172119e-02,-1.267330944538116455e-01,6.814936548471450806e-02,-9.478314965963363647e-02,1.731663048267364502e-01,1.491807959973812103e-02,2.626932412385940552e-02,-1.775306314229965210e-01,-8.245695382356643677e-02,-1.302713006734848022e-01,-9.223682433366775513e-02,-6.179315224289894104e-02,-1.669953465461730957e-01,4.970004409551620483e-02,2.379831224679946899e-01,-1.024084240198135376e-01,-6.417833268642425537e-02,1.453857272863388062e-01,7.353192567825317383e-02,-6.834053993225097656e-02,7.592258602380752563e-02,-9.993724524974822998e-02,-2.584822475910186768e-01,-6.944072246551513672e-02,-4.077693819999694824e-02,2.039331644773483276e-01,-7.860133796930313110e-02,2.154215425252914429e-01,-7.952348887920379639e-02,2.044673077762126923e-02,-2.379063889384269714e-02,-5.134126171469688416e-02,1.280097663402557373e-01,-1.887534186244010925e-02,-4.964882507920265198e-02,-9.337923489511013031e-03,-1.158809754997491837e-02,-8.781209588050842285e-02,-9.878915734589099884e-03,6.530084647238254547e-03,-2.033280581235885620e-01,-1.126262396574020386e-01,6.401227437891066074e-04,1.215220056474208832e-02,1.576841026544570923e-01,4.393199458718299866e-02,3.742939606308937073e-02,-1.064241230487823486e-01,1.960228234529495239e-01,4.839932173490524292e-02,1.717726290225982666e-01,3.383336355909705162e-03,9.153565764427185059e-02,6.504563987255096436e-02,-1.213256120681762695e-01,-3.861214965581893921e-02,-1.010120362043380737e-01,1.953911781311035156e-01,4.164026584476232529e-03,1.161654815077781677e-01,-4.516626149415969849e-02,-2.249667197465896606e-01,6.630228459835052490e-02,-3.751984238624572754e-02,-1.365579757839441299e-02,-8.664267510175704956e-02,1.234135329723358154e-01,-1.479752510786056519e-01,3.943732753396034241e-02,1.262118369340896606e-01,-1.085404455661773682e-01,-1.837835647165775299e-02,1.082256361842155457e-01,-5.549443885684013367e-02,-1.612316584214568138e-03,9.689830243587493896e-02,6.594416499137878418e-02,2.211311161518096924e-01,1.497136503458023071e-01,-1.661293208599090576e-02,1.179861277341842651e-02,-7.057084143161773682e-02,-6.910053640604019165e-02,-1.570615470409393311e-01,-1.694420874118804932e-01,1.378845572471618652e-01,-1.328186988830566406e-01,1.106334105134010315e-01,1.637024730443954468e-01,-1.811818480491638184e-01,1.106005981564521790e-01,1.292287837713956833e-03,-9.802842885255813599e-02,9.281920641660690308e-02,3.475427255034446716e-02,2.604623138904571533e-01,2.154102027416229248e-01,-5.478420481085777283e-02,1.144110411405563354e-01,-1.267068786546587944e-03,-2.995263598859310150e-02,3.151684626936912537e-02,-6.102641671895980835e-02,1.002369299530982971e-01,-5.814077332615852356e-03,-1.369617432355880737e-01,8.584180474281311035e-02,3.925153613090515137e-02,1.654332727193832397e-01,1.251917332410812378e-01,1.576209366321563721e-01,1.318965256214141846e-01,-1.248397603631019592e-01,1.496641039848327637e-01
-2.383639663457870483e-02,-7.119067758321762085e-02,-6.772713363170623779e-02,6.624656170606613159e-02,-6.278181821107864380e-02,-2.620493173599243164e-01,1.309232115745544434e-01,-1.964163631200790405e-01,8.457322604954242706e-03,-8.453817665576934814e-02,1.457636151462793350e-02,1.286717653274536133e-01,2.667706459760665894e-02,1.449397951364517212e-01,8.192535489797592163e-02,4.836485162377357483e-02,-6.731674820184707642e-02,1.097190231084823608e-01,2.845120429992675781e-02,-1.054512187838554382e-01,-1.398872435092926025e-01,-4.384443163871765137e-02,-7.672219723463058472e-02,2.232727855443954468e-01,-1.118432283401489258e-01,-2.077592611312866211e-01,-7.893557101488113403e-02,-1.441653519868850708e-01,2.050231583416461945e-02,8.183071762323379517e-02,1.148397009819746017e-02,-5.150602199137210846e-03,2.825970761477947235e-02,-1.126319840550422668e-01,3.255540505051612854e-02,-6.677442789077758789e-02,-2.485126256942749023e-02,-6.110421195626258850e-02,-1.511068176478147507e-02,3.352616622578352690e-04,-1.857016980648040771e-01,-1.087716408073902130e-02,6.773298233747482300e-02,1.270043402910232544e-01,-2.719932794570922852e-01,-1.680910736322402954e-01,-9.667439758777618408e-02,8.566519618034362793e-02,1.826356351375579834e-02,-3.208570927381515503e-02,-2.165888808667659760e-02,3.789595793932676315e-03,-5.258987843990325928e-02,-1.036666333675384521e-01,1.409283466637134552e-02,-5.025178566575050354e-02,8.659932017326354980e-02,1.532891020178794861e-02,9.777799248695373535e-02,-1.032351255416870117e-01,-6.780084222555160522e-02,7.181062549352645874e-02,1.552706211805343628e-01,1.419263705611228943e-02,-1.544328499585390091e-02,4.407110810279846191e-02,-6.778616458177566528e-02,6.764274835586547852e-02,1.278625279664993286e-01,-1.161004975438117981e-01,1.249283030629158020e-01,-2.091279327869415283e-01,-1.683570630848407745e-02,1.335208266973495483e-01,9.313051402568817139e-02,1.871910504996776581e-02,-1.284192502498626709e-01,8.068844676017761230e-02,-3.242883086204528809e-02,1.273370236158370972e-01,-6.356606632471084595e-02,8.839626796543598175e-03,2.642688713967800140e-02,-1.612553149461746216e-01,-2.106254249811172485e-01,-2.175556682050228119e-02,9.512127190828323364e-02,-1.926054060459136963e-01,1.045417040586471558e-02,5.346771702170372009e-02,-1.995873600244522095e-01,-5.096845328807830811e-02,3.215600922703742981e-02,-6.270071119070053101e-02,-6.918004946783185005e-04,-1.032937020063400269e-01,-2.176403105258941650e-01,-8.466632664203643799e-02,-1.194956973195075989e-01,4.444485157728195190e-02,-7.351074367761611938e-02,1.358208209276199341e-01,-6.715426594018936157e-02,-3.864554315805435181e-02,9.801149368286132812e-02,-1.719617396593093872e-01,1.702417135238647461e-01,-5.734098330140113831e-02,9.526190906763076782e-02,-7.433049380779266357e-02,7.103738188743591309e-02,-1.379686295986175537e-01,-1.611464321613311768e-01,-1.586434245109558105e-02,-5.844833329319953918e-02,-1.836588419973850250e-02,1.596572548151016235e-01,-4.569652304053306580e-02,1.175108104944229126e-01,1.575997769832611084e-01,4.268608987331390381e-02,-6.401322036981582642e-02,-1.932035982608795166e-01,-8.867211639881134033e-02,-1.037555485963821411e-01,-1.017631068825721741e-01,3.273459896445274353e-02,-5.548189394176006317e-03,1.313482318073511124e-02,8.686874061822891235e-02,-1.553944349288940430e-01,-2.964560408145189285e-03,-1.062386669218540192e-02,-3.627393022179603577e-02,1.485041230916976929e-01,1.351500898599624634e-01,6.238317489624023438e-02,1.780474325641989708e-03,2.053698152303695679e-02,3.940599411725997925e-02,-1.903218030929565430e-02,6.764057278633117676e-02,5.633541196584701538e-02,-1.074493229389190674e-01,4.231953248381614685e-02,-4.101025313138961792e-02,1.175869777798652649e-01,-1.267567723989486694e-01,-1.338590979576110840e-01,1.044574542902410030e-03,5.261524766683578491e-02,2.731382474303245544e-02,-3.789610415697097778e-02,9.406127035617828369e-02,2.723976969718933105e-01,-2.467106729745864868e-01,4.466113820672035217e-02,7.083702832460403442e-02,2.428675536066293716e-03,-9.757661819458007812e-02,-1.356961727142333984e-01,-6.252622604370117188e-02,1.052414253354072571e-01,-1.516632176935672760e-02,-9.320355951786041260e-02,2.609572373330593109e-02,-2.052048891782760620e-01,-1.271288958378136158e-03,-8.918723091483116150e-03,1.697502881288528442e-01,-2.262655794620513916e-01,-7.494838535785675049e-02,-4.311191383749246597e-03,6.306950747966766357e-02,1.864936202764511108e-01,-2.083642482757568359e-01,2.331197261810302734e-01,1.047432422637939453e-01,-8.630294352769851685e-02,-3.643979877233505249e-02,3.567362669855356216e-03,-1.806471645832061768e-01,-5.065646767616271973e-02,-8.213491737842559814e-02,5.294883623719215393e-03,-1.147932931780815125e-01,8.374243229627609253e-02,-1.818311028182506561e-02,8.595129847526550293e-02,8.412442356348037720e-02,2.362865060567855835e-01,-4.531155806034803391e-03,7.868153601884841919e-02,6.043306365609169006e-02,-2.146969735622406006e-01,-2.346442788839340210e-01,1.124023720622062683e-01,-2.418827451765537262e-02,-1.271989047527313232e-01,4.861369356513023376e-02,-4.364925995469093323e-02,-9.042739868164062500e-02,-6.359297782182693481e-02,-5.283546447753906250e-02,7.140108942985534668e-02,-3.728383406996726990e-02,-1.814181543886661530e-02,-1.703985035419464111e-01,-8.287439495325088501e-02,-6.328498572111129761e-02,2.422729730606079102e-01,-3.813537582755088806e-02,-1.256921887397766113e-01,-2.551800608634948730e-01,-7.080712169408798218e-02,-1.395614147186279297e-01,1.708186119794845581e-01,-1.623647809028625488e-01,3.063308261334896088e-02,4.086715355515480042e-02,-4.700203984975814819e-02,8.173890411853790283e-03,-7.833764702081680298e-02,4.140955954790115356e-02,-1.168626993894577026e-01,-9.852556884288787842e-02,-7.937870174646377563e-02,1.518677622079849243e-01,5.181846395134925842e-02,-1.401133090257644653e-01,2.240887582302093506e-01,-8.759054541587829590e-02,1.959715038537979126e-01,-1.276577115058898926e-01,-4.992900043725967407e-02,1.697098165750503540e-01,2.589664421975612640e-03,-5.609233397990465164e-03,2.539156936109066010e-02,-7.735758274793624878e-02,-9.235086292028427124e-02,2.535043954849243164e-01,-7.398286461830139160e-02,-2.164241373538970947e-01,6.766542792320251465e-04,2.038300968706607819e-02,-4.290290921926498413e-02,2.051182463765144348e-02,5.206336826086044312e-02,-5.465588346123695374e-02,1.529462635517120361e-01,-1.720894128084182739e-02,5.498831346631050110e-02,-1.624436974525451660e-01,-1.150765493512153625e-01,-8.106466382741928101e-02
-6.416931003332138062e-02,6.393801420927047729e-03,1.261068973690271378e-02,-1.182280853390693665e-01,1.355969011783599854e-01,1.120206341147422791e-02,2.812033332884311676e-02,-9.870903193950653076e-02,-1.671582311391830444e-01,6.285233050584793091e-02,-1.938049048185348511e-01,-6.267192959785461426e-02,-1.264995336532592773e-01,-6.082320958375930786e-02,5.472505837678909302e-02,-1.021602153778076172e-01,-1.405262798070907593e-01,-8.964667469263076782e-02,2.050325274467468262e-01,-7.771142292767763138e-03,3.930861130356788635e-02,-5.586531758308410645e-02,-1.954992264509201050e-01,2.140221595764160156e-01,-1.048191934823989868e-01,-8.020074665546417236e-02,-5.676583200693130493e-02,-1.748895049095153809e-01,-2.179383998736739159e-03,6.551426649093627930e-02,-1.023087929934263229e-02,1.588907837867736816e-01,-4.002796486020088196e-02,8.090420626103878021e-03,-1.071090355253545567e-05,-9.791528433561325073e-02,5.256133154034614563e-02,-7.681568711996078491e-02,-6.933067739009857178e-02,1.854987293481826782e-01,-1.429512798786163330e-01,-4.354302212595939636e-02,1.166812181472778320e-01,-3.474926576018333435e-02,5.620031058788299561e-02,-9.537050127983093262e-02,5.546862632036209106e-02,-7.897726260125637054e-03,9.686876833438873291e-02,2.542850933969020844e-02,2.567865140736103058e-02,-7.869876176118850708e-02,-2.920824661850929260e-02,-5.309714376926422119e-02,3.032792592421174049e-04,-3.351422026753425598e-02,5.498991534113883972e-02,1.004990488290786743e-01,-1.145084798336029053e-01,6.240192055702209473e-02,6.499843299388885498e-02,-9.542182087898254395e-02,3.202093020081520081e-02,1.058825403451919556e-01,8.108138293027877808e-02,-9.269037097692489624e-02,-1.738785579800605774e-02,7.924202829599380493e-02,1.941585242748260498e-01,-1.549438573420047760e-02,-6.632585078477859497e-02,6.501830369234085083e-02,-2.892197109758853912e-02,6.289236247539520264e-02,2.450033277273178101e-02,-8.446343988180160522e-02,1.265660971403121948e-01,-1.379900127649307251e-01,-1.253961622714996338e-01,-1.601104438304901123e-01,2.964046783745288849e-02,-4.363037645816802979e-02,3.238475322723388672e-02,1.533256769180297852e-01,-7.175800204277038574e-02,-2.829634211957454681e-02,-7.319189608097076416e-02,7.446392625570297241e-02,-4.567798599600791931e-02,-5.246614664793014526e-02,-8.952227234840393066e-02,-1.585349887609481812e-01,-7.255274057388305664e-02,-1.548650413751602173e-01,-6.104528158903121948e-02,-1.190315783023834229e-01,1.241874229162931442e-02,1.222211401909589767e-02,3.844731301069259644e-02,-7.034658640623092651e-02,-1.509001478552818298e-02,-1.852004379034042358e-01,9.781369939446449280e-03,1.180682256817817688e-01,-1.424975991249084473e-01,-2.649426646530628204e-02,-3.641224466264247894e-03,9.450168162584304810e-02,1.849617809057235718e-01,-3.937597386538982391e-03,-1.015168800950050354e-01,-3.613890707492828369e-02,-1.906217187643051147e-01,-1.775990724563598633e-01,6.539098918437957764e-02,-2.837619930505752563e-02,-9.886686503887176514e-02,-9.387741982936859131e-02,1.123332604765892029e-02,2.128596417605876923e-02,-1.167587563395500183e-01,1.138344854116439819e-01,1.213836073875427246e-01,1.741911321878433228e-01,9.828014671802520752e-02,1.115061342716217041e-01,-5.218145251274108887e-02,-1.374663859605789185e-01,-8.669799566268920898e-02,-2.002003788948059082e-02,-1.312642693519592285e-01,-2.967244014143943787e-02,9.551402181386947632e-02,-6.240612640976905823e-02,-6.997261941432952881e-02,-1.697535514831542969e-01,-5.411935597658157349e-02,-1.488565355539321899e-01,1.143419444561004639e-01,2.077460475265979767e-02,-8.197291195392608643e-02,1.684451401233673096e-01,-4.572844132781028748e-02,-5.779166519641876221e-02,1.687790006399154663e-01,1.050067916512489319e-01,-1.182133331894874573e-01,-1.276800781488418579e-02,1.819655066356062889e-03,2.682205848395824432e-02,-1.137532070279121399e-01,2.712793052196502686e-01,-2.892713062465190887e-02,-2.066496573388576508e-02,-7.058008760213851929e-02,1.168878823518753052e-01,6.283171474933624268e-03,1.523030549287796021e-01,1.330123096704483032e-01,-1.542615592479705811e-01,-1.128099709749221802e-01,1.381161510944366455e-01,-4.489032924175262451e-02,-1.639643013477325439e-01,-1.807883083820343018e-01,-7.388043403625488281e-02,1.840568631887435913e-01,-1.703312098979949951e-01,-3.046556375920772552e-02,-1.339794844388961792e-01,6.254563480615615845e-02,-1.718548536300659180e-01,-6.401392072439193726e-02,-3.994686156511306763e-02,-7.440478354692459106e-02,9.153987467288970947e-02,3.886273503303527832e-02,-6.226669996976852417e-02,-4.836296662688255310e-02,-1.148053109645843506e-01,-3.899742662906646729e-02,-1.295271664857864380e-01,-6.146346032619476318e-02,1.208072528243064880e-01,-5.350008606910705566e-03,-2.888683602213859558e-02,-9.342608600854873657e-02,3.187890350818634033e-02,-1.309417560696601868e-02,5.571519583463668823e-02,-1.104765385389328003e-01,1.836516410112380981e-01,-1.385661214590072632e-01,-5.347803235054016113e-03,-1.035505905747413635e-01,2.553369477391242981e-02,-5.962048470973968506e-02,-8.582402020692825317e-02,-1.488750427961349487e-01,9.421483427286148071e-02,-3.330203471705317497e-03,-2.839650213718414307e-02,-2.892790362238883972e-02,-5.711404234170913696e-02,-7.787568867206573486e-02,-5.213469266891479492e-02,5.064967274665832520e-02,2.043667137622833252e-01,-7.784561067819595337e-02,-5.219694226980209351e-02,-1.251750141382217407e-01,-6.061135232448577881e-02,-3.899808973073959351e-02,1.179184168577194214e-01,5.972230061888694763e-02,5.713390931487083435e-02,4.720760881900787354e-02,-6.495890766382217407e-02,-6.571897305548191071e-03,1.912256032228469849e-01,4.016198590397834778e-02,9.771138429641723633e-03,1.979591697454452515e-02,2.155316993594169617e-03,-3.971679881215095520e-02,7.767637073993682861e-02,4.396086186170578003e-02,6.737127155065536499e-02,7.504516839981079102e-02,-1.295495778322219849e-01,6.412202119827270508e-02,5.438747256994247437e-02,-1.034942492842674255e-01,1.226212531328201294e-01,-5.085557326674461365e-02,1.248207390308380127e-01,8.831206709146499634e-03,-1.272422224283218384e-01,-6.714349985122680664e-02,-4.585212096571922302e-02,3.603234887123107910e-01,2.032952904701232910e-01,-5.457188189029693604e-02,-1.719879060983657837e-01,4.447039216756820679e-02,-1.325305551290512085e-01,-2.280892618000507355e-02,-1.195758301764726639e-02,-6.962221115827560425e-02,5.070266500115394592e-02,-1.926788389682769775e-01,-3.986309841275215149e-02,2.545848190784454346e-01,5.075697973370552063e-02,-9.708934277296066284e-02,7.208549417555332184e-03
-9.069249033927917480e-02,-6.583084166049957275e-02,3.627298399806022644e-02,-8.325961977243423462e-02,1.151129603385925293e-03,-7.806911133229732513e-03,-5.265396554023027420e-03,7.124396413564682007e-02,-5.259259045124053955e-02,-5.287446081638336182e-03,9.174812585115432739e-03,4.578273370862007141e-02,8.483528345823287964e-02,-1.855578459799289703e-02,1.065120622515678406e-01,-1.153392866253852844e-01,7.480600476264953613e-02,-1.063453033566474915e-01,-1.195209026336669922e-01,-8.761373907327651978e-02,-1.348212659358978271e-01,3.205482289195060730e-02,-1.273587644100189209e-01,-1.097027957439422607e-01,-4.158500581979751587e-02,-8.509436994791030884e-02,-7.272685319185256958e-02,5.229407921433448792e-02,1.107721552252769470e-01,-4.001491703093051910e-03,8.793176710605621338e-02,-5.521416664123535156e-02,1.260032597929239273e-02,1.377287954092025757e-01,9.168734401464462280e-02,4.536554217338562012e-02,-4.055007547140121460e-02,2.721135132014751434e-02,4.266262426972389221e-02,4.793038219213485718e-02,5.538295581936836243e-02,1.643101572990417480e-01,-5.853567272424697876e-02,9.881987422704696655e-02,-1.088269948959350586e-01,-1.012517698109149933e-02,-1.226719915866851807e-01,-2.521010488271713257e-02,-9.310970455408096313e-02,-3.272699192166328430e-02,-1.002382561564445496e-01,-8.686248213052749634e-02,1.634762883186340332e-01,1.165094785392284393e-02,1.621393561363220215e-01,1.669539809226989746e-01,-1.472646743059158325e-01,1.692672967910766602e-01,1.155926939100027084e-02,-4.697140306234359741e-02,2.894398057833313942e-04,-1.231557652354240417e-01,2.084203064441680908e-02,-7.512097805738449097e-02,-8.561006980016827583e-04,-8.756219595670700073e-02,2.268250536872074008e-04,3.209472447633743286e-02,1.773838251829147339e-01,-5.805616825819015503e-02,1.161294057965278625e-03,-5.646548047661781311e-02,-1.366739124059677124e-01,1.184381544589996338e-01,5.609301477670669556e-02,-8.561577647924423218e-02,-9.520071744918823242e-02,-7.079439610242843628e-02,-4.670061916112899780e-02,-5.685438588261604309e-02,4.590575117617845535e-03,3.852919861674308777e-02,1.789460778236389160e-01,3.979730233550071716e-02,-2.123260498046875000e-02,-2.456933259963989258e-02,-1.212822273373603821e-02,-4.981901496648788452e-02,1.463296473957598209e-03,-1.941746287047863007e-02,2.664483850821852684e-03,1.301250159740447998e-01,-1.075150594115257263e-01,-1.222824212163686752e-02,3.582527860999107361e-02,-9.017813205718994141e-02,-4.877406358718872070e-02,6.728798896074295044e-02,1.480284780263900757e-01,-1.230122372508049011e-01,1.743679195642471313e-01,-7.431883364915847778e-02,5.111677199602127075e-02,8.158011734485626221e-02,-1.727560907602310181e-01,2.526515722274780273e-02,-9.637545049190521240e-02,1.549132019281387329e-01,-7.204359024763107300e-02,-3.898287191987037659e-02,4.750443994998931885e-02,2.804426290094852448e-02,-1.988759636878967285e-01,-8.337162435054779053e-02,-2.225917726755142212e-01,3.811918944120407104e-02,3.852040320634841919e-02,1.389939151704311371e-02,1.572274253703653812e-03,1.544185429811477661e-01,-9.511157125234603882e-02,-1.375325173139572144e-01,7.274165749549865723e-02,1.542816013097763062e-01,-1.371759921312332153e-01,-6.776484102010726929e-02,-6.598606705665588379e-02,8.105961233377456665e-02,-1.177913099527359009e-01,7.646660506725311279e-02,-7.604746520519256592e-02,2.385937422513961792e-01,4.273125529289245605e-02,-1.508241444826126099e-01,2.463480830192565918e-01,1.066341474652290344e-01,-6.216964125633239746e-02,1.668885163962841034e-02,-4.981137439608573914e-02,-1.996910432353615761e-03,-6.940685957670211792e-02,2.292700260877609253e-01,7.743904739618301392e-02,-1.050449833273887634e-01,5.761086940765380859e-02,-1.071796417236328125e-01,1.989433169364929199e-02,-7.409997284412384033e-02,-3.375308588147163391e-02,7.830258458852767944e-03,-6.770741939544677734e-02,-2.310357242822647095e-02,-5.168678984045982361e-02,-9.111937880516052246e-02,1.560208108276128769e-02,2.178377062082290649e-01,1.593925431370735168e-02,-8.769777417182922363e-02,-5.196528509259223938e-03,2.075853385031223297e-02,-6.512757390737533569e-02,-1.051868051290512085e-01,-3.558946400880813599e-02,9.829912334680557251e-03,-1.928578503429889679e-02,1.843493245542049408e-02,9.124658256769180298e-02,-1.026971638202667236e-01,3.507269546389579773e-02,5.388816073536872864e-02,4.332416504621505737e-02,4.288095235824584961e-02,6.514538079500198364e-02,-6.765801459550857544e-02,-9.748397767543792725e-02,7.309409976005554199e-02,-1.804037243127822876e-01,-1.399761438369750977e-02,1.437694281339645386e-01,-9.394026547670364380e-02,-4.340066760778427124e-02,-1.134979352355003357e-02,7.272987067699432373e-02,5.785502865910530090e-02,4.669867455959320068e-02,-3.262709453701972961e-02,2.193708438426256180e-03,8.101402968168258667e-02,-1.055447757244110107e-02,-2.157618105411529541e-02,-6.311161071062088013e-02,-1.002987381070852280e-02,-3.173275664448738098e-02,5.754672363400459290e-02,8.333875983953475952e-02,-5.677744001150131226e-02,1.908741705119609833e-02,6.224488094449043274e-02,5.126988887786865234e-02,3.504935279488563538e-02,-5.312839150428771973e-02,9.309183061122894287e-02,4.377990216016769409e-02,1.623986102640628815e-02,-1.430653929710388184e-01,-1.183525025844573975e-01,6.540123373270034790e-02,7.721777260303497314e-02,-3.052045777440071106e-02,-1.974493712186813354e-01,3.784764930605888367e-02,-3.053258359432220459e-02,-9.518027305603027344e-02,-1.245887577533721924e-01,3.141543129459023476e-03,-2.605506777763366699e-01,-1.957182139158248901e-01,5.355832632631063461e-03,-2.377614751458168030e-02,8.096991479396820068e-02,1.981924772262573242e-01,-3.612091764807701111e-02,8.457252383232116699e-02,-1.930688172578811646e-01,5.668893828988075256e-02,-1.762349903583526611e-02,4.302708804607391357e-02,-1.139912754297256470e-02,-8.189547806978225708e-02,-4.304505512118339539e-02,6.389323621988296509e-02,-1.807340979576110840e-01,5.441571027040481567e-02,1.355350296944379807e-02,6.200835108757019043e-02,2.566395103931427002e-01,4.278929904103279114e-02,5.700280144810676575e-02,-8.619509637355804443e-02,-7.504688575863838196e-03,8.894179016351699829e-02,2.831502072513103485e-02,-3.945847973227500916e-03,-6.049437448382377625e-02,2.184460312128067017e-02,-9.481626749038696289e-02,-9.443657845258712769e-02,4.669063538312911987e-02,4.365236312150955200e-02,-1.047259494662284851e-01,-2.165181189775466919e-02,-1.450302004814147949e-01,1.295156329870223999e-01,8.438918739557266235e-03,-1.098280325531959534e-01,-1.244079973548650742e-02
7.345735281705856323e-02,-2.678361162543296814e-02,5.263539031147956848e-02,4.144167061895132065e-03,1.153204441070556641e-01,6.064170598983764648e-02,5.939245223999023438e-02,-4.632888361811637878e-02,3.760104998946189880e-02,7.617149502038955688e-02,-1.926446408033370972e-01,-4.147806391119956970e-02,-6.573751761607127264e-06,-1.258072555065155029e-01,3.125492855906486511e-02,-7.773835211992263794e-02,-1.412897557020187378e-01,8.144392818212509155e-02,-6.359047442674636841e-02,-1.368299275636672974e-01,7.873184233903884888e-02,-2.718459069728851318e-02,-1.602011546492576599e-02,1.547130011022090912e-02,3.226340748369693756e-03,-1.172978207468986511e-01,-9.654285758733749390e-02,-1.399815678596496582e-01,5.627823248505592346e-02,4.282213002443313599e-02,-1.009851470589637756e-01,-1.208308115601539612e-01,-8.024267852306365967e-02,2.681251429021358490e-02,-4.323605820536613464e-02,-1.490785628557205200e-01,4.030117020010948181e-02,-1.244762241840362549e-01,-9.562855213880538940e-02,-5.640342459082603455e-02,-2.563490346074104309e-02,-1.258253902196884155e-01,5.544901266694068909e-02,-1.526185721158981323e-01,-3.604358434677124023e-02,-5.339192971587181091e-02,6.489558517932891846e-02,-1.301601827144622803e-01,-3.349884646013379097e-03,-1.218457743525505066e-01,2.703187428414821625e-02,-6.917393207550048828e-02,6.022740155458450317e-02,-8.633088320493698120e-02,7.694394886493682861e-02,-5.722041800618171692e-02,1.860910505056381226e-01,5.060480535030364990e-02,-3.672973439097404480e-02,3.590045124292373657e-02,1.759808063507080078e-01,-4.442280903458595276e-02,-2.632221765816211700e-02,9.036379307508468628e-02,-3.517135605216026306e-02,-1.274655573070049286e-02,7.188298553228378296e-02,3.791789989918470383e-03,1.966999610885977745e-03,-5.620957165956497192e-02,-4.686880856752395630e-02,5.084175150841474533e-03,-8.291602134704589844e-02,-8.124889433383941650e-02,-9.730777703225612640e-03,-7.896198891103267670e-03,4.975665360689163208e-03,7.957778871059417725e-02,-8.844105154275894165e-02,-3.889765590429306030e-02,2.088847607374191284e-01,-1.134864091873168945e-01,-1.319433599710464478e-01,1.450334340333938599e-01,-2.453216314315795898e-01,-2.929385565221309662e-02,-2.747046202421188354e-02,1.240158602595329285e-01,1.135630011558532715e-01,-7.524194568395614624e-02,-1.337579637765884399e-01,-1.920653320848941803e-02,1.315745860338211060e-01,2.318697795271873474e-02,-1.143684908747673035e-01,-1.982647627592086792e-01,-1.620479226112365723e-01,-3.503074869513511658e-02,1.663810759782791138e-02,1.616167277097702026e-02,1.712542027235031128e-02,-1.264672279357910156e-01,-2.154718488454818726e-01,4.318362101912498474e-02,-3.966812416911125183e-02,1.008590981364250183e-01,-4.025349020957946777e-02,-1.121136769652366638e-01,1.076091676950454712e-01,-6.183458864688873291e-02,4.899907112121582031e-02,9.311900287866592407e-02,1.074475124478340149e-01,-1.234684437513351440e-01,9.529563784599304199e-02,1.987112686038017273e-02,6.743772327899932861e-02,5.364988744258880615e-02,9.420409053564071655e-02,3.137274688924662769e-05,8.575719594955444336e-02,-1.894215047359466553e-01,9.882657974958419800e-02,1.753239333629608154e-01,-6.013115867972373962e-02,1.070338860154151917e-02,2.847956866025924683e-02,-1.042619943618774414e-01,-6.524652242660522461e-02,-7.280431687831878662e-02,5.902638286352157593e-02,1.665059775114059448e-01,4.363093152642250061e-02,8.063626289367675781e-02,-7.871500402688980103e-02,-2.157952338457107544e-01,1.543148905038833618e-01,-1.088684499263763428e-01,-1.053345501422882080e-01,-1.408220082521438599e-01,-1.659068763256072998e-01,1.044825464487075806e-01,-1.141443699598312378e-01,-1.204367801547050476e-01,1.675608195364475250e-02,1.293124407529830933e-01,-1.510592550039291382e-01,7.081218063831329346e-02,-1.178040504455566406e-01,1.068156287074089050e-01,5.125658214092254639e-02,7.125445641577243805e-03,-1.238443106412887573e-01,-7.044982910156250000e-02,-2.457788027822971344e-02,-8.532634377479553223e-02,-1.071144565939903259e-01,1.040758658200502396e-02,-4.635784029960632324e-02,9.832613915205001831e-02,-1.682414412498474121e-01,9.258811175823211670e-02,-8.963363617658615112e-02,2.510209754109382629e-02,-2.528672479093074799e-02,-1.024840846657752991e-01,1.732719689607620239e-01,-5.813728272914886475e-02,9.166658669710159302e-02,-1.906084716320037842e-01,-4.101518914103507996e-02,1.538374833762645721e-02,2.227999968454241753e-03,1.412465572357177734e-01,8.589061349630355835e-02,-4.601249843835830688e-02,-7.080712169408798218e-02,-1.088903099298477173e-01,-4.080128669738769531e-02,-1.546085253357887268e-02,-2.277214080095291138e-03,-1.235321462154388428e-01,1.490914523601531982e-01,2.807532250881195068e-02,-2.531251870095729828e-02,-1.873791366815567017e-01,-1.246583685278892517e-01,-1.502071768045425415e-01,-2.184903323650360107e-01,8.707510679960250854e-02,-1.608745157718658447e-01,-1.582998968660831451e-02,-6.324854493141174316e-02,1.028980910778045654e-01,-7.040768116712570190e-02,-6.962327659130096436e-02,-1.860306859016418457e-01,2.405791170895099640e-02,-8.415689319372177124e-02,9.266177564859390259e-02,8.956613391637802124e-02,2.614293713122606277e-03,-3.292929753661155701e-02,-2.268840558826923370e-02,-2.501746453344821930e-02,-2.996931597590446472e-02,5.729841813445091248e-02,9.275636076927185059e-02,-3.808817267417907715e-02,-1.100430488586425781e-01,-1.343204677104949951e-01,-5.931847169995307922e-02,-4.371856804937124252e-03,-1.502854526042938232e-01,5.070657655596733093e-02,3.059715405106544495e-02,1.008641868829727173e-01,1.136907562613487244e-01,-2.058485299348831177e-01,-1.311775594949722290e-01,-1.068201810121536255e-01,6.275764852762222290e-02,-1.466695070266723633e-01,1.736633032560348511e-01,-9.131549857556819916e-03,-1.906576380133628845e-02,-3.729538246989250183e-02,-1.258822828531265259e-01,-7.769261021167039871e-03,-1.438409686088562012e-01,-1.520910710096359253e-01,-7.746577262878417969e-03,-1.230856627225875854e-01,-2.301321551203727722e-02,-1.166045665740966797e-02,1.553617883473634720e-02,-5.998419597744941711e-02,-1.491466313600540161e-01,8.510012179613113403e-02,-7.748934626579284668e-02,-9.889516234397888184e-02,7.933492958545684814e-02,-6.324911117553710938e-02,-7.394925504922866821e-02,3.351206704974174500e-02,-5.092779919505119324e-02,-1.140465214848518372e-02,-1.707485318183898926e-01,7.690205425024032593e-02,-7.434316724538803101e-02,-1.045294031500816345e-01,5.251785740256309509e-02,6.343758106231689453e-02,-1.117603927850723267e-01,-1.512463837862014771e-01,-5.135922878980636597e-02
-1.795387715101242065e-01,-1.087202802300453186e-01,1.026934534311294556e-01,1.185322627425193787e-01,2.557273721322417259e-03,6.175577640533447266e-02,6.852757930755615234e-02,1.300990730524063110e-01,3.729436546564102173e-02,5.549095943570137024e-02,-1.265077590942382812e-01,3.220944479107856750e-02,3.737625852227210999e-02,-1.374533921480178833e-01,5.635174363851547241e-02,1.312865912914276123e-01,6.804953515529632568e-02,-2.058217823505401611e-01,-1.681692898273468018e-01,-1.603025346994400024e-01,-6.173559464514255524e-03,9.179072827100753784e-02,1.111926659941673279e-01,-1.242002397775650024e-01,-1.560410857200622559e-01,-5.754296481609344482e-02,1.042564511299133301e-01,-2.356428951025009155e-01,-1.218140348792076111e-01,-7.263509929180145264e-02,1.119947507977485657e-01,-9.363707154989242554e-02,1.282690614461898804e-01,-1.014487445354461670e-01,4.229743778705596924e-02,-2.087998017668724060e-02,-4.717534035444259644e-02,-8.915539085865020752e-02,-1.993159018456935883e-02,-1.020383089780807495e-01,-2.173805609345436096e-02,1.073349267244338989e-01,-1.476448178291320801e-01,-2.050767280161380768e-02,-1.242544353008270264e-01,-1.025390475988388062e-01,-3.327405825257301331e-02,1.885907165706157684e-02,-1.196783781051635742e-01,-6.908372789621353149e-02,5.150478705763816833e-02,-2.169001400470733643e-01,-1.708220541477203369e-01,-5.359366163611412048e-02,-1.725295186042785645e-01,8.983702957630157471e-02,7.317325472831726074e-02,-1.218145117163658142e-01,-9.583735466003417969e-02,2.154958993196487427e-01,-1.324335336685180664e-01,-1.524646729230880737e-01,1.829884201288223267e-01,1.237557828426361084e-01,-8.650864660739898682e-02,1.811883002519607544e-01,1.750580966472625732e-01,-7.626317441463470459e-02,-3.945409879088401794e-02,-2.378278076648712158e-01,-6.146934628486633301e-02,-1.242590770125389099e-01,-1.416497975587844849e-01,1.606084853410720825e-01,-1.480342894792556763e-01,-1.481818109750747681e-01,3.855802491307258606e-02,4.825089126825332642e-03,-2.202110737562179565e-02,6.166882440447807312e-02,-1.093927621841430664e-01,5.575620383024215698e-02,-1.354636996984481812e-02,-2.119921892881393433e-01,-7.459681481122970581e-02,4.986245185136795044e-02,-4.875089600682258606e-02,-1.340146809816360474e-01,7.282617688179016113e-02,2.355109713971614838e-02,-1.017382293939590454e-01,1.220322679728269577e-02,-7.904727011919021606e-02,-1.560526788234710693e-01,4.784382414072751999e-03,1.140100806951522827e-01,-4.929967224597930908e-02,8.261431753635406494e-02,-5.989838019013404846e-02,-1.410769671201705933e-01,1.468981057405471802e-01,1.198979914188385010e-01,2.550588920712471008e-02,-9.321674704551696777e-02,1.059885248541831970e-01,-1.803946197032928467e-01,-1.193087473511695862e-01,9.364937245845794678e-02,-1.547835767269134521e-01,1.119144782423973083e-01,-1.861052215099334717e-01,-1.590707302093505859e-01,-1.135517470538616180e-02,-1.899908483028411865e-01,1.131746470928192139e-01,-1.922240555286407471e-01,2.175322771072387695e-01,-2.748120427131652832e-01,9.266329556703567505e-02,1.516680233180522919e-03,4.444332048296928406e-02,-1.826429925858974457e-02,2.616046741604804993e-02,-1.643785238265991211e-01,1.131936237215995789e-01,-1.171803027391433716e-01,-1.399541348218917847e-01,1.358274668455123901e-01,-5.179649684578180313e-03,6.017429009079933167e-02,8.601897209882736206e-02,-1.696302443742752075e-01,-1.789343655109405518e-01,7.697545737028121948e-02,7.553642243146896362e-02,1.064512804150581360e-01,-1.687150821089744568e-02,-4.819951578974723816e-02,1.006217822432518005e-01,-3.288710862398147583e-02,7.444056123495101929e-02,-4.184314236044883728e-02,9.736768901348114014e-02,-5.400992929935455322e-02,-3.314217180013656616e-02,-9.248573333024978638e-02,-9.803606569766998291e-02,-1.418571770191192627e-01,1.050161644816398621e-01,-9.319009631872177124e-02,-2.483217976987361908e-02,4.572092369198799133e-02,2.642313204705715179e-02,-2.095544338226318359e-01,1.993254292756319046e-03,-4.195303842425346375e-02,2.540369331836700439e-01,-6.985423713922500610e-02,-3.738209232687950134e-02,1.927073597908020020e-01,2.655849792063236237e-02,-2.421057224273681641e-01,2.533125318586826324e-02,9.633427113294601440e-02,-1.505618840456008911e-01,-6.804437935352325439e-02,-1.580556333065032959e-01,2.345706894993782043e-02,-2.464276999235153198e-01,1.836820840835571289e-01,1.625988073647022247e-02,5.675205960869789124e-02,1.418311148881912231e-01,-3.785893321037292480e-02,1.528863608837127686e-01,-1.490189433097839355e-01,-9.758431464433670044e-02,-1.489044129848480225e-01,-7.065533846616744995e-02,-1.568958163261413574e-02,-1.006105542182922363e-01,-5.740803480148315430e-02,-2.137350291013717651e-01,9.610040113329887390e-03,7.150358054786920547e-03,3.821082413196563721e-02,9.984812885522842407e-02,1.782634556293487549e-01,2.223104052245616913e-02,-1.691173613071441650e-01,4.749780893325805664e-02,-1.324343532323837280e-01,-5.042469874024391174e-02,7.771174609661102295e-02,-9.760928899049758911e-02,-1.452236529439687729e-02,5.913276970386505127e-02,-2.389083988964557648e-02,-5.266494676470756531e-02,1.550180278718471527e-02,1.239224746823310852e-01,2.109772861003875732e-01,-2.254453673958778381e-02,1.677883416414260864e-02,7.773729413747787476e-02,-2.675162255764007568e-01,-1.555835604667663574e-01,-2.374342530965805054e-01,3.221452236175537109e-03,-1.177103742957115173e-01,6.735630333423614502e-02,-1.274100095033645630e-01,-2.991693466901779175e-02,-1.622052937746047974e-01,-1.445502974092960358e-02,5.713632330298423767e-02,4.393509402871131897e-02,-1.526054143905639648e-01,-7.519950717687606812e-02,2.599218394607305527e-03,9.252995252609252930e-03,-4.654822498559951782e-02,7.115898281335830688e-02,-5.990552157163619995e-02,-1.830372586846351624e-02,6.152658164501190186e-02,-5.753200873732566833e-02,1.138124763965606689e-01,-1.919730007648468018e-01,1.130480971187353134e-02,2.165662944316864014e-01,1.148576363921165466e-01,5.991423130035400391e-02,-1.704703420400619507e-01,-2.944638133049011230e-01,6.843127310276031494e-02,1.896055787801742554e-02,1.616127192974090576e-01,3.798492252826690674e-02,-6.836031377315521240e-02,-1.226063966751098633e-01,-8.027954399585723877e-02,-1.194817200303077698e-01,-1.779449433088302612e-01,-1.062230393290519714e-01,9.561959654092788696e-02,4.156203567981719971e-02,-1.499465703964233398e-01,7.566718757152557373e-02,3.006617724895477295e-02,-1.722072600387036800e-03,-5.886373668909072876e-02,7.214768975973129272e-02,7.352425903081893921e-02,6.057018879801034927e-03,2.276189476251602173e-01
-1.105336770415306091e-01,8.737966418266296387e-03,-9.126498363912105560e-03,-7.674103975296020508e-02,3.033313751220703125e-01,5.079063121229410172e-03,6.128819286823272705e-02,2.981605939567089081e-02,-1.977541856467723846e-02,1.725788116455078125e-01,-5.466684699058532715e-03,-9.791257977485656738e-02,3.521918319165706635e-03,-1.804132312536239624e-01,-1.182103715837001801e-02,-4.333197139203548431e-03,-1.352750975638628006e-02,8.207383006811141968e-02,-6.154726073145866394e-02,8.975303173065185547e-02,-1.399694234132766724e-01,-7.566224783658981323e-02,-1.127410084009170532e-01,7.981018722057342529e-02,1.541563216596841812e-02,5.480381846427917480e-02,-1.402624547481536865e-01,1.989807561039924622e-02,1.456759124994277954e-01,1.194896548986434937e-01,-7.372421026229858398e-02,-9.270891547203063965e-02,4.288919270038604736e-02,-5.010630935430526733e-03,-1.647588312625885010e-01,-1.452195644378662109e-01,1.113139614462852478e-01,1.721585728228092194e-02,5.553050711750984192e-02,-1.270649582147598267e-01,-1.312335729598999023e-01,5.447033792734146118e-02,-1.397494375705718994e-01,-2.535084029659628868e-03,2.771174767985939980e-03,-3.260575979948043823e-02,-7.808825373649597168e-02,-9.749996662139892578e-02,1.098002493381500244e-02,-9.794362634420394897e-02,-4.569897055625915527e-02,3.957706317305564880e-02,1.566447317600250244e-01,-1.536163389682769775e-01,-5.067533627152442932e-02,-1.665675491094589233e-01,1.468664854764938354e-01,7.884616404771804810e-02,-1.385651081800460815e-01,-1.279144138097763062e-01,-1.324387500062584877e-03,-1.753627508878707886e-01,-5.121666938066482544e-02,8.835083991289138794e-02,1.262138485908508301e-01,-7.301336526870727539e-02,-4.958753124810755253e-04,2.950737439095973969e-02,2.189392298460006714e-01,6.001436337828636169e-02,-4.142927005887031555e-02,-1.854249648749828339e-02,7.060568779706954956e-02,-3.280437085777521133e-03,2.644346468150615692e-02,8.047213405370712280e-02,6.628068536520004272e-02,-1.493199467658996582e-01,-1.407953649759292603e-01,-5.811484903097152710e-02,-4.431764781475067139e-02,6.909995526075363159e-02,-2.572609484195709229e-02,-4.226833954453468323e-02,-1.328630447387695312e-01,-1.390461474657058716e-01,2.385943755507469177e-02,2.195176668465137482e-02,-3.058775514364242554e-02,-5.604249238967895508e-02,8.054304867982864380e-02,1.578873097896575928e-01,-4.891650378704071045e-02,-1.558212190866470337e-01,-8.418163657188415527e-02,-1.697047203779220581e-01,1.992629468441009521e-01,6.644139531999826431e-03,-7.063600420951843262e-02,1.506844013929367065e-01,1.426238864660263062e-01,1.056248024106025696e-01,7.010313123464584351e-02,2.401057183742523193e-01,-1.410804986953735352e-01,-6.375170499086380005e-02,-1.141950935125350952e-01,-7.051017135381698608e-02,1.387953460216522217e-01,-5.848732590675354004e-02,2.640025690197944641e-02,-2.494266629219055176e-02,-7.891684770584106445e-02,-9.162826836109161377e-02,1.542361080646514893e-01,1.948755830526351929e-01,5.548740550875663757e-02,-1.415185183286666870e-01,5.677409842610359192e-02,-4.917628318071365356e-02,-3.789515933021903038e-03,-2.883842960000038147e-02,1.831192225217819214e-01,1.346404999494552612e-01,-1.128089204430580139e-01,-4.162818938493728638e-02,-1.045621931552886963e-01,-1.549903489649295807e-02,-6.112934276461601257e-02,-8.302211761474609375e-02,-1.964359879493713379e-01,-1.712567731738090515e-02,1.083199754357337952e-01,-2.060190588235855103e-01,-2.822724878787994385e-01,1.217432990670204163e-01,-1.003830786794424057e-02,-3.865203633904457092e-02,-4.435253143310546875e-02,-3.196699917316436768e-02,-1.050153747200965881e-01,-6.280817091464996338e-02,-1.835213042795658112e-02,-1.597430109977722168e-01,-5.807347968220710754e-02,1.685171127319335938e-01,-1.237739771604537964e-01,-1.073593348264694214e-01,-2.519819885492324829e-02,-6.372235715389251709e-02,-1.400097906589508057e-01,-6.283517181873321533e-02,-1.200934173539280891e-03,-2.637538127601146698e-02,-1.717648953199386597e-01,-1.948230154812335968e-02,-1.310998946428298950e-01,-4.701819643378257751e-02,-5.825428664684295654e-02,3.607405722141265869e-02,-1.770782470703125000e-01,-1.373373717069625854e-01,-3.117437660694122314e-02,3.890783712267875671e-02,-1.696596145629882812e-01,-1.458708643913269043e-01,2.189087122678756714e-01,-7.807722687721252441e-02,3.181163370609283447e-01,-1.539932340383529663e-01,-6.113565713167190552e-02,-5.369753018021583557e-02,-1.280011683702468872e-01,-1.629774570465087891e-01,1.198206245899200439e-01,1.223482042551040649e-01,2.130470722913742065e-01,2.394838072359561920e-02,1.305468846112489700e-02,-1.825488805770874023e-01,-1.167315170168876648e-01,5.044796690344810486e-02,1.829832345247268677e-01,-4.645694792270660400e-02,-7.823510468006134033e-02,6.895555416122078896e-04,-1.695696078240871429e-02,-1.704049855470657349e-01,7.180958241224288940e-02,-3.421917557716369629e-02,-4.406691342592239380e-02,1.661014929413795471e-02,-3.868629038333892822e-02,1.015474423766136169e-01,-6.357155740261077881e-02,3.094891272485256195e-02,-4.560510069131851196e-02,3.749351482838392258e-03,-4.263085871934890747e-02,1.776064336299896240e-01,-2.366662211716175079e-02,-6.511867791414260864e-02,-8.669909834861755371e-02,1.134223490953445435e-01,-8.094818145036697388e-02,8.597649633884429932e-03,-1.714009419083595276e-02,9.046222269535064697e-02,5.695565417408943176e-02,2.896741405129432678e-02,2.248611152172088623e-01,-8.656155318021774292e-02,-9.531761705875396729e-02,-1.135546192526817322e-01,-1.053428053855895996e-01,1.774161756038665771e-01,7.387340534478425980e-03,2.287332434207201004e-03,-5.826607346534729004e-02,-1.057756170630455017e-01,-1.349423378705978394e-01,3.725695610046386719e-02,2.589261159300804138e-02,-1.043789237737655640e-01,-1.182372570037841797e-01,1.554061472415924072e-01,7.613787800073623657e-02,1.138033717870712280e-02,-7.305941730737686157e-02,2.519729174673557281e-02,-1.557822525501251221e-01,1.061527281999588013e-01,-4.129140079021453857e-02,-2.759222406893968582e-03,6.583344191312789917e-02,-5.850674957036972046e-02,-3.916238248348236084e-02,-1.015332788228988647e-01,6.681531667709350586e-02,-5.530572682619094849e-02,7.451669313013553619e-03,-1.125076264142990112e-01,8.595280349254608154e-03,-1.453777961432933807e-02,-7.000336796045303345e-02,9.801024943590164185e-02,2.342510735616087914e-03,7.547759264707565308e-02,-6.647824496030807495e-02,2.646637847647070885e-03,-6.513870507478713989e-02,-9.880165010690689087e-02,2.923785746097564697e-01,4.782855138182640076e-02,-1.115068718791007996e-01,1.352644413709640503e-01
-5.710907746106386185e-03,-8.107502758502960205e-02,-3.805459663271903992e-02,6.303720921277999878e-02,-9.750784933567047119e-02,-1.740668900310993195e-02,-3.824803745374083519e-03,-5.169552750885486603e-03,-1.960167586803436279e-01,7.395906001329421997e-02,4.715574905276298523e-02,-1.523058861494064331e-01,-9.509804844856262207e-02,1.298809796571731567e-01,-4.283184185624122620e-02,1.584787815809249878e-01,1.527881622314453125e-01,6.974054872989654541e-02,-6.354846805334091187e-02,-1.808309704065322876e-01,1.655426807701587677e-02,-6.204636022448539734e-02,7.982189208269119263e-02,2.999066412448883057e-01,-4.082562401890754700e-02,1.072319969534873962e-01,6.399448215961456299e-02,1.098820287734270096e-02,3.231161274015903473e-03,5.396222230046987534e-03,-1.366329938173294067e-02,-1.514365673065185547e-01,-1.823301464319229126e-01,-4.261740669608116150e-02,-1.703714132308959961e-01,2.269365042448043823e-01,-2.217376679182052612e-01,-2.116767875850200653e-02,-2.368284575641155243e-02,-1.695213615894317627e-01,-8.149518817663192749e-02,7.345704734325408936e-02,-1.155400797724723816e-01,-1.363883018493652344e-01,-1.500639170408248901e-01,8.370301872491836548e-02,-2.024555392563343048e-02,-1.394776999950408936e-01,-7.549099624156951904e-02,-1.205265969038009644e-01,-1.014493778347969055e-01,7.993407547473907471e-02,8.963846415281295776e-02,-6.987852603197097778e-02,3.622895851731300354e-02,-2.109229415655136108e-01,-2.023901045322418213e-01,-9.700730443000793457e-02,-3.245703503489494324e-02,-9.421402961015701294e-02,1.589845716953277588e-01,4.554364457726478577e-02,1.931766569614410400e-01,7.508233189582824707e-02,7.924161851406097412e-02,1.110127121210098267e-01,-2.108115255832672119e-01,-1.058491915464401245e-01,-1.594745437614619732e-03,-7.162630558013916016e-02,1.235867962241172791e-01,-1.327795814722776413e-02,1.308821290731430054e-01,-2.243687398731708527e-02,-2.367454953491687775e-02,-2.123325020074844360e-01,2.620973065495491028e-02,-9.722002595663070679e-02,-8.174561895430088043e-03,-9.086341410875320435e-02,8.051406592130661011e-02,-2.413103133440017700e-01,8.029566705226898193e-02,-3.365450724959373474e-02,3.274330869317054749e-02,-7.595048099756240845e-02,-1.104684248566627502e-01,8.467353135347366333e-02,5.086502432823181152e-02,5.745724588632583618e-02,-8.171135187149047852e-02,1.858485937118530273e-01,-1.560983210802078247e-01,-3.024614043533802032e-02,-1.264679129235446453e-03,-1.336107850074768066e-01,-1.116041615605354309e-01,-6.442033499479293823e-02,1.854071766138076782e-01,6.005340442061424255e-02,1.091097667813301086e-01,-1.263179332017898560e-01,-9.069559723138809204e-02,1.328496932983398438e-01,-4.748516902327537537e-02,-1.159261986613273621e-01,-7.875520735979080200e-02,5.976602435111999512e-02,9.257192164659500122e-02,-2.397815287113189697e-01,-1.158056259155273438e-01,-4.716549068689346313e-02,-4.007107391953468323e-02,-4.726015403866767883e-02,-1.853932812809944153e-02,6.832473911345005035e-03,-4.674175381660461426e-02,-2.565658986568450928e-01,6.680872291326522827e-02,-1.450220495462417603e-01,-6.611418724060058594e-02,-1.508544385433197021e-01,-1.300088912248611450e-01,3.479422628879547119e-02,-2.520799040794372559e-01,-5.556404218077659607e-02,3.985078632831573486e-02,-4.249123856425285339e-02,-1.541363000869750977e-01,2.403243035078048706e-01,2.997984737157821655e-02,-1.246846243739128113e-01,7.897729426622390747e-02,-1.786324679851531982e-01,1.232565790414810181e-01,2.074377685785293579e-01,-4.252469539642333984e-02,1.014137044548988342e-01,-9.425406903028488159e-02,9.466604143381118774e-02,-2.062351256608963013e-01,5.565624684095382690e-02,-9.539973735809326172e-02,-6.101692095398902893e-02,1.433687359094619751e-01,-8.135482668876647949e-02,9.401882439851760864e-02,-3.640177473425865173e-02,8.561804890632629395e-02,-1.198089867830276489e-01,-1.001530885696411133e-02,-5.729737132787704468e-02,9.022548794746398926e-02,-2.591497302055358887e-01,1.101254299283027649e-01,-3.024370782077312469e-02,-1.737150996923446655e-01,8.569356054067611694e-02,6.388916075229644775e-02,6.936168670654296875e-02,-2.961931750178337097e-02,5.037633329629898071e-02,-2.043210417032241821e-01,-8.737766742706298828e-02,-1.267454475164413452e-01,-3.490941226482391357e-02,1.077455431222915649e-01,2.097249627113342285e-01,3.718233853578567505e-02,1.751085817813873291e-01,-5.072941631078720093e-02,-9.648174047470092773e-02,4.927749931812286377e-02,6.968142092227935791e-02,2.463964745402336121e-02,4.202271252870559692e-02,-6.614307314157485962e-02,-1.587308198213577271e-01,1.147009879350662231e-01,-5.880855955183506012e-03,-3.322465112432837486e-03,-7.279977202415466309e-02,7.669175416231155396e-02,-1.159920021891593933e-01,1.490788012742996216e-01,-9.882254153490066528e-02,1.287516802549362183e-01,4.139908403158187866e-02,2.391631454229354858e-01,9.934281557798385620e-02,2.655999660491943359e-01,-5.483545735478401184e-02,-7.168144732713699341e-02,-1.571264415979385376e-01,-3.074255026876926422e-02,-8.347990363836288452e-02,-1.309887617826461792e-01,-4.312985017895698547e-02,-1.865676790475845337e-02,1.159406453371047974e-01,-2.852647006511688232e-02,1.672508369665592909e-04,-6.128757819533348083e-02,4.143980145454406738e-02,-1.400132477283477783e-01,-7.975524663925170898e-02,-8.415079861879348755e-02,-1.028937175869941711e-01,-4.256091080605983734e-03,-3.613957390189170837e-02,6.394278258085250854e-03,-4.283916950225830078e-02,-1.081332117319107056e-01,-1.011162400245666504e-01,-2.033881843090057373e-03,1.650694012641906738e-01,3.895013406872749329e-02,-1.150389835238456726e-01,-3.826965764164924622e-02,2.177503407001495361e-01,-3.784068673849105835e-02,-1.006705239415168762e-01,-1.479699909687042236e-01,-1.300628334283828735e-01,-1.046670377254486084e-01,-3.601426631212234497e-02,-3.259398639202117920e-01,-5.292715504765510559e-02,-6.063679605722427368e-02,5.070734396576881409e-02,3.064764477312564850e-02,-4.149105772376060486e-02,4.802956432104110718e-02,-6.105256453156471252e-02,-1.534749120473861694e-01,2.195768654346466064e-01,-1.700475439429283142e-02,-1.473799496889114380e-01,1.132959276437759399e-01,-4.859789833426475525e-02,6.570599041879177094e-03,-3.703206032514572144e-02,-1.321363449096679688e-01,-1.323951333761215210e-01,-1.384713128209114075e-02,-6.123830005526542664e-02,-1.575757116079330444e-01,5.234101414680480957e-02,-8.279429376125335693e-02,-9.157565236091613770e-02,-8.733561262488365173e-03,-1.672904491424560547e-01,2.108586430549621582e-01,-1.567205339670181274e-01,-1.194863915443420410e-01,-1.737560480833053589e-01
-5.514580756425857544e-02,6.176315620541572571e-02,9.300900250673294067e-02,1.410928070545196533e-01,-2.186896279454231262e-02,-6.469563394784927368e-02,2.494723349809646606e-02,-2.050744742155075073e-01,-2.235329598188400269e-01,-1.106878072023391724e-01,7.661393284797668457e-02,-1.392502039670944214e-01,2.356161922216415405e-02,1.359479874372482300e-02,-2.111452072858810425e-01,1.508936583995819092e-01,1.179116889834403992e-01,2.045684605836868286e-01,-8.264345675706863403e-02,-9.578885883092880249e-02,2.258507907390594482e-01,-2.242845892906188965e-01,-3.144539147615432739e-02,5.036047101020812988e-02,4.448240506462752819e-04,-2.214222401380538940e-02,4.079386964440345764e-02,-6.432216614484786987e-02,-2.362212724983692169e-02,-4.680762812495231628e-02,-7.148715853691101074e-02,-1.439996957778930664e-01,-4.035620763897895813e-02,-8.492659032344818115e-02,-1.864843964576721191e-01,-4.793808981776237488e-02,-2.834339812397956848e-02,-1.694710701704025269e-01,-1.704388409852981567e-01,1.329577863216400146e-01,-2.162986993789672852e-01,-2.960677631199359894e-02,1.037689968943595886e-01,7.238488644361495972e-02,-1.693987548351287842e-01,-1.537576615810394287e-01,-7.713767886161804199e-02,1.085019558668136597e-01,1.629464030265808105e-01,-1.544609069824218750e-01,-1.900379210710525513e-01,-2.420039623975753784e-01,-6.730938702821731567e-02,-1.257331073284149170e-01,-4.583668336272239685e-02,-1.804929375648498535e-01,6.142656784504652023e-03,-1.638826169073581696e-02,-1.296930015087127686e-01,-7.483090460300445557e-02,-1.046487540006637573e-01,1.598393470048904419e-01,5.804602429270744324e-02,-1.449950039386749268e-01,3.597096726298332214e-02,8.726909011602401733e-02,-2.321565290912985802e-03,-7.828459888696670532e-02,6.218864396214485168e-02,-8.415394276380538940e-02,5.078773945569992065e-02,-1.084364503622055054e-01,1.319878641515970230e-02,5.331932380795478821e-02,-3.182944655418395996e-02,9.776122123003005981e-02,-1.602781862020492554e-01,-6.546606123447418213e-02,8.279698900878429413e-03,4.221516475081443787e-02,-8.349918574094772339e-02,-7.065562065690755844e-03,-5.845562741160392761e-02,-1.415108740329742432e-01,-8.203076571226119995e-02,-6.161951459944248199e-03,4.193401336669921875e-02,-1.417151093482971191e-01,2.468672208487987518e-02,-3.846422955393791199e-02,1.655990928411483765e-01,1.324433833360671997e-01,-4.368080943822860718e-02,-8.858944475650787354e-02,-2.690113894641399384e-02,-2.205724865198135376e-01,-6.517270207405090332e-02,1.532894372940063477e-01,5.743190273642539978e-02,-1.671534627676010132e-01,9.098003804683685303e-02,1.104246973991394043e-01,-1.300175189971923828e-01,-1.089487895369529724e-01,-1.494211703538894653e-01,-3.521649539470672607e-02,-7.354549318552017212e-02,1.037242561578750610e-01,1.001303419470787048e-01,-6.087659299373626709e-02,-4.074763506650924683e-02,-3.174875630065798759e-03,-3.244266659021377563e-02,4.034930840134620667e-02,-9.142690151929855347e-02,2.819319628179073334e-02,1.904671639204025269e-01,-2.693355083465576172e-01,1.525396108627319336e-01,-7.600415498018264771e-02,-2.160621993243694305e-02,-1.283468604087829590e-01,1.055413708090782166e-01,8.731023222208023071e-02,-1.734160929918289185e-01,-1.899188011884689331e-01,1.201786845922470093e-01,-6.864994764328002930e-02,7.207902520895004272e-02,-2.850220724940299988e-02,-1.056889817118644714e-01,-3.537012496963143349e-03,-1.359589397907257080e-01,-2.329569458961486816e-01,6.119944900274276733e-02,1.112287789583206177e-01,-1.447926368564367294e-02,9.679165482521057129e-02,-2.947785519063472748e-02,1.680530607700347900e-01,-2.532397806644439697e-01,9.586121886968612671e-02,-4.246187955141067505e-02,-2.084888666868209839e-01,-2.890975587069988251e-02,-2.389266192913055420e-01,-8.677148260176181793e-03,-1.721155941486358643e-01,-2.304812818765640259e-01,6.916024535894393921e-02,-8.663635700941085815e-03,-4.943376779556274414e-02,1.277863234281539917e-01,-2.984925595228560269e-05,7.952372729778289795e-02,-1.247085928916931152e-01,-1.496488600969314575e-01,-9.264924377202987671e-02,4.110955074429512024e-02,-3.969123214483261108e-02,2.637194655835628510e-02,7.299631088972091675e-02,2.185295335948467255e-02,1.110431645065546036e-02,-4.020801931619644165e-02,8.372988551855087280e-03,-3.375632315874099731e-02,8.352892100811004639e-02,9.771744906902313232e-02,7.825540751218795776e-02,-1.247435808181762695e-01,-9.668278694152832031e-02,2.079976052045822144e-01,-2.331231907010078430e-02,-2.120442502200603485e-02,2.361024916172027588e-02,-1.167386174201965332e-01,-2.490045428276062012e-01,-3.006523288786411285e-02,5.822885036468505859e-02,-2.160592973232269287e-01,-3.312688320875167847e-02,-1.574270576238632202e-01,-3.721722215414047241e-02,2.200175449252128601e-02,-1.447364091873168945e-01,2.109364978969097137e-02,-1.617870479822158813e-01,2.041854262351989746e-01,2.956793829798698425e-02,5.182902142405509949e-02,-3.178768232464790344e-02,-4.061189293861389160e-02,-2.824277244508266449e-02,1.110186427831649780e-01,-4.933134838938713074e-02,-1.105410009622573853e-01,-3.181228041648864746e-02,3.835748136043548584e-02,-5.696366727352142334e-02,1.216030716896057129e-01,2.211328446865081787e-01,5.985175818204879761e-02,7.999572157859802246e-02,-3.893809858709573746e-03,-4.372918233275413513e-02,-1.816727817058563232e-01,-1.050421148538589478e-01,-5.047997832298278809e-02,-5.603186413645744324e-02,-2.493573352694511414e-02,-1.515284180641174316e-01,6.064487993717193604e-02,-3.599712252616882324e-02,-9.378775209188461304e-02,-5.878349393606185913e-02,1.295078247785568237e-01,-2.198521494865417480e-01,-1.730076968669891357e-01,1.214428469538688660e-01,9.868632256984710693e-02,3.366966499015688896e-03,-7.181511074304580688e-02,9.359824657440185547e-02,-7.048015296459197998e-02,-1.897971630096435547e-01,2.569760181359015405e-05,4.112310707569122314e-02,-1.428238451480865479e-01,-1.455549299716949463e-01,5.377830937504768372e-03,-7.061200588941574097e-02,-1.962418481707572937e-02,-1.651299297809600830e-01,7.452081143856048584e-02,4.878986254334449768e-02,1.019276604056358337e-01,9.610535204410552979e-02,-8.582919090986251831e-02,-1.389612257480621338e-01,1.494218222796916962e-02,-2.161679118871688843e-01,-1.515573114156723022e-01,1.333937793970108032e-02,-5.840587243437767029e-02,2.618642989546060562e-03,3.815622627735137939e-02,7.509905844926834106e-02,-1.046167686581611633e-01,3.815266117453575134e-02,1.348204016685485840e-01,2.312592417001724243e-02,-6.910931318998336792e-02,-7.975277490913867950e-03,-2.798113413155078888e-02,9.213943779468536377e-02
-9.172959625720977783e-02,8.195079863071441650e-02,3.493255078792572021e-01,9.165264666080474854e-02,-4.278051480650901794e-02,3.132404014468193054e-02,3.093274077400565147e-03,-2.906980551779270172e-02,-1.276605278253555298e-01,3.235438093543052673e-02,-6.361506134271621704e-02,3.783118724822998047e-02,1.061043962836265564e-01,8.385816961526870728e-02,-5.553620308637619019e-02,9.172926843166351318e-02,-3.385802730917930603e-02,-3.669865056872367859e-02,-1.645818725228309631e-02,-1.139706596732139587e-01,-8.098190277814865112e-02,-3.091003373265266418e-02,2.728270590305328369e-01,-1.877989619970321655e-01,-6.436016410589218140e-02,2.823749929666519165e-02,-1.285741031169891357e-01,1.966181248426437378e-01,-5.700561404228210449e-02,-6.145347654819488525e-02,-7.787311077117919922e-02,2.159594446420669556e-01,-1.488526463508605957e-01,-9.051653742790222168e-02,-3.663808479905128479e-02,1.856091618537902832e-01,-2.030640095472335815e-01,7.654757052659988403e-02,-7.454860210418701172e-02,6.589695066213607788e-02,9.300947189331054688e-02,1.434268057346343994e-01,2.058805674314498901e-01,1.166855469346046448e-01,-1.074691116809844971e-01,1.365054398775100708e-01,-1.255321502685546875e-01,-7.042183727025985718e-02,-8.522789180278778076e-02,5.822155997157096863e-02,-1.078302413225173950e-01,-5.026245862245559692e-02,-5.874707922339439392e-02,-9.065230935811996460e-02,1.432371586561203003e-01,-1.411483287811279297e-01,-2.112229913473129272e-01,-9.263706952333450317e-02,-1.227770838886499405e-02,-6.487172842025756836e-02,-1.382553875446319580e-01,5.223609879612922668e-02,-1.133342534303665161e-01,-1.527264863252639771e-01,-1.549461930990219116e-01,-4.270507767796516418e-02,1.251099351793527603e-02,-6.799706816673278809e-02,-5.366128310561180115e-02,-1.721617877483367920e-01,2.507004737854003906e-01,1.275318767875432968e-02,-3.147657960653305054e-02,-5.997875705361366272e-02,-5.845461785793304443e-02,9.569124318659305573e-03,-8.265516906976699829e-02,-1.014264598488807678e-01,-1.113663893193006516e-02,-4.960997961461544037e-03,1.175301000475883484e-01,-1.671345680952072144e-01,-2.235739529132843018e-01,-1.120793446898460388e-01,-3.528487086296081543e-01,3.504523634910583496e-02,1.338187456130981445e-01,-6.983949989080429077e-02,-4.026241600513458252e-02,-8.646924048662185669e-03,-1.715869605541229248e-01,-1.899204333312809467e-03,-1.950586438179016113e-01,-4.544557258486747742e-02,3.582241758704185486e-02,2.418860048055648804e-01,-1.315355151891708374e-01,9.369992464780807495e-02,-2.559547722339630127e-01,-1.734074950218200684e-01,1.193308085203170776e-02,-1.759391129016876221e-01,-9.189816564321517944e-02,-2.014682739973068237e-01,-2.051916569471359253e-01,-5.536662787199020386e-02,9.396112710237503052e-02,1.341103464365005493e-01,-3.673649579286575317e-02,-8.334713429212570190e-02,-2.528717741370201111e-02,1.101543232798576355e-01,-1.561298668384552002e-01,-4.828076437115669250e-02,-1.695442199707031250e-01,1.289780996739864349e-02,3.389189392328262329e-02,-1.125576794147491455e-01,-8.215404301881790161e-02,-6.256943196058273315e-02,-1.170793846249580383e-01,8.431506156921386719e-02,-1.599741727113723755e-01,-2.459956705570220947e-01,-1.152352392673492432e-01,-1.671360433101654053e-01,-8.666824549436569214e-02,-1.313985437154769897e-01,-8.417797088623046875e-02,5.907908454537391663e-02,-8.471739478409290314e-03,-9.941815584897994995e-02,7.693671435117721558e-02,-1.841522008180618286e-01,1.877688020467758179e-01,2.306157201528549194e-01,-2.365875840187072754e-01,-1.666840910911560059e-01,2.128084152936935425e-01,-1.827400028705596924e-01,-1.591250896453857422e-01,6.157125160098075867e-02,-1.467583328485488892e-01,-6.715665757656097412e-02,1.795941889286041260e-01,-8.629857003688812256e-02,-2.024695128202438354e-01,-1.112097650766372681e-01,4.697168990969657898e-02,1.621781289577484131e-01,3.784083575010299683e-02,1.251686066389083862e-01,3.893057629466056824e-02,1.524357199668884277e-01,-8.578920364379882812e-02,1.648008823394775391e-01,-5.505773052573204041e-02,-1.912255138158798218e-01,8.445213735103607178e-02,-1.183621659874916077e-01,2.236216515302658081e-01,-1.865061819553375244e-01,-1.459624469280242920e-01,6.270685046911239624e-02,-1.653293371200561523e-01,-2.986315265297889709e-02,-2.597625255584716797e-01,-1.544128824025392532e-02,-1.008586138486862183e-01,-5.825419351458549500e-02,-5.441918224096298218e-02,-9.431263059377670288e-02,-1.365454941987991333e-01,1.681151539087295532e-01,-3.679862245917320251e-02,-8.948937803506851196e-02,-2.764619328081607819e-02,-1.728780269622802734e-01,2.768027186393737793e-01,-2.469632923603057861e-01,-1.447859257459640503e-01,2.193894982337951660e-01,-1.125095561146736145e-01,-1.819993704557418823e-01,-6.674913316965103149e-02,4.810149222612380981e-02,-7.528419047594070435e-02,-8.263514190912246704e-02,-6.865122914314270020e-02,-3.837627917528152466e-02,7.064949721097946167e-02,6.915956735610961914e-02,-8.809703402221202850e-03,1.360780894756317139e-01,-1.537134051322937012e-01,-1.664405167102813721e-01,-5.830139853060245514e-03,1.072653196752071381e-02,-6.433885544538497925e-02,-7.368713617324829102e-02,5.007654428482055664e-02,1.158747449517250061e-02,-4.444659873843193054e-02,-1.591379381716251373e-02,1.242573782801628113e-01,2.158872634172439575e-01,2.240545116364955902e-02,9.897346049547195435e-02,-3.603473305702209473e-02,9.091626852750778198e-02,-1.611700356006622314e-01,-4.562314599752426147e-02,-5.729560554027557373e-02,1.281719058752059937e-01,1.835499256849288940e-01,-1.011152938008308411e-01,-2.195781469345092773e-02,-1.328033804893493652e-01,1.248536072671413422e-02,3.844936937093734741e-02,1.056262031197547913e-01,-2.113456651568412781e-02,6.984622217714786530e-03,-7.071452587842941284e-02,-9.471608698368072510e-02,-4.828528687357902527e-02,1.299936771392822266e-01,-5.555929616093635559e-02,-1.718058250844478607e-02,1.022544875741004944e-01,-1.161293908953666687e-01,-5.903307348489761353e-02,2.054973877966403961e-02,-1.601150929927825928e-01,5.408954806625843048e-03,2.926453948020935059e-01,-1.162789389491081238e-01,1.848559230566024780e-01,9.278668463230133057e-02,6.568220257759094238e-02,4.941507428884506226e-02,-2.150371670722961426e-01,1.411155797541141510e-02,-7.242915034294128418e-02,1.704594939947128296e-01,-6.925147771835327148e-02,-1.681051999330520630e-01,-2.201783806085586548e-01,-1.002222821116447449e-01,1.108572259545326233e-02,1.440737098455429077e-01,-6.621244549751281738e-02,-8.865947276353836060e-02,-2.314509898424148560e-01,9.867605566978454590e-02,1.635363139212131500e-02
1.598467677831649780e-01,4.336899891495704651e-02,3.602889478206634521e-01,-5.436180159449577332e-02,-1.767455488443374634e-01,4.169494286179542542e-02,-8.005855977535247803e-02,-7.312820851802825928e-02,-2.477452307939529419e-01,2.002408951520919800e-01,-9.267325699329376221e-02,-1.673993915319442749e-01,8.919721841812133789e-02,-2.066958099603652954e-01,1.367651205509901047e-02,1.564431488513946533e-01,2.708570957183837891e-01,-4.435633495450019836e-02,8.814055472612380981e-02,3.643614798784255981e-02,6.929226219654083252e-02,3.504192233085632324e-01,1.707286015152931213e-02,-9.253038465976715088e-02,-2.466928958892822266e-01,1.032760590314865112e-01,2.027491331100463867e-01,-8.696042746305465698e-02,-5.694655701518058777e-02,9.506868082098662853e-05,-1.084590628743171692e-01,-3.943547606468200684e-02,-2.943226695060729980e-01,-1.548986136913299561e-01,6.575788557529449463e-02,-1.059379130601882935e-01,-3.458801656961441040e-02,1.595986783504486084e-01,-1.021337062120437622e-01,1.629198342561721802e-01,-1.929198503494262695e-01,1.781406104564666748e-01,-1.264611333608627319e-01,9.915950149297714233e-02,2.439522892236709595e-01,-8.800899982452392578e-02,-2.057196497917175293e-01,-5.749516654759645462e-03,-7.251852005720138550e-02,1.693297028541564941e-01,-1.318381726741790771e-01,-8.316542208194732666e-02,-1.064956635236740112e-01,-1.207534521818161011e-01,-3.180143237113952637e-02,-1.074074395000934601e-02,4.882444441318511963e-02,-8.163252472877502441e-02,-1.019282639026641846e-01,-6.702681630849838257e-02,-4.898872599005699158e-02,-2.229352295398712158e-02,-7.125668972730636597e-02,-2.065701484680175781e-01,-1.431024372577667236e-01,-1.248577833175659180e-01,3.105022199451923370e-02,2.842463552951812744e-02,-1.208460256457328796e-01,-7.552757859230041504e-02,2.559998631477355957e-01,-1.819156557321548462e-01,1.705019325017929077e-01,-6.106892228126525879e-02,7.957582361996173859e-03,-3.280126675963401794e-02,-1.446053832769393921e-01,-1.780334562063217163e-01,-6.922212988138198853e-02,-1.873963326215744019e-01,1.693810820579528809e-01,-2.329450845718383789e-02,5.101478472352027893e-02,-1.488652825355529785e-01,2.583190202713012695e-01,-3.803648054599761963e-02,-1.444044858217239380e-01,-9.849483147263526917e-03,-1.413866132497787476e-01,-1.025952622294425964e-01,-1.541265547275543213e-01,1.615493297576904297e-01,-5.948517471551895142e-02,-1.809937953948974609e-01,3.709056973457336426e-02,4.180085659027099609e-02,-1.410167962312698364e-01,8.491323888301849365e-02,-3.520831465721130371e-02,-1.050824224948883057e-01,-3.521659225225448608e-02,-1.608803309500217438e-02,-1.010902523994445801e-01,-6.193499639630317688e-02,-1.469168514013290405e-01,-9.911401569843292236e-02,2.655085325241088867e-01,8.346173167228698730e-02,-6.229793652892112732e-02,-7.363545149564743042e-02,-9.421973675489425659e-02,6.310098618268966675e-02,4.322102963924407959e-01,4.344499111175537109e-02,-5.715518817305564880e-02,-1.252613067626953125e-01,-1.102636083960533142e-01,-1.033504977822303772e-01,-6.352771073579788208e-02,6.231831014156341553e-02,-6.092323362827301025e-02,1.488363891839981079e-01,-1.864847354590892792e-02,-1.325560212135314941e-01,-2.267347127199172974e-01,-3.782361000776290894e-02,-1.512627452611923218e-01,6.284993886947631836e-02,-3.565506637096405029e-02,-2.612245678901672363e-01,1.117754727602005005e-01,-5.445662420243024826e-03,-8.803589642047882080e-02,-3.574192896485328674e-02,-3.918234631419181824e-02,-2.103908210992813110e-01,-1.081284657120704651e-01,-9.443431347608566284e-02,1.515827029943466187e-01,-1.644510626792907715e-01,-1.399487555027008057e-01,3.844774514436721802e-02,-1.109144985675811768e-01,-2.493336051702499390e-01,-7.938224822282791138e-02,-1.341161578893661499e-01,-1.005091518163681030e-01,1.583156734704971313e-02,-2.137833684682846069e-01,4.485009703785181046e-03,-2.773331664502620697e-02,-4.536934196949005127e-03,-1.320691853761672974e-01,1.963063180446624756e-01,-1.432183980941772461e-01,1.780144125223159790e-01,-5.299581214785575867e-02,1.905242800712585449e-01,9.329576045274734497e-02,-7.805189490318298340e-02,-1.416685152798891068e-02,-9.602310508489608765e-02,1.384499818086624146e-01,1.522750873118638992e-02,-9.511072188615798950e-02,-1.040603965520858765e-01,-1.459818482398986816e-01,-7.865488529205322266e-02,-6.309033185243606567e-02,-1.091013103723526001e-01,-7.426954805850982666e-02,1.334754526615142822e-01,-1.091174483299255371e-01,2.404770851135253906e-01,-1.466774344444274902e-01,-3.039497509598731995e-02,-1.547241508960723877e-01,-5.557431280612945557e-02,-1.622831076383590698e-01,8.783136308193206787e-02,-1.444142013788223267e-01,1.992155313491821289e-01,-7.399646937847137451e-02,-5.201111547648906708e-03,-1.532112658023834229e-01,-2.038463056087493896e-01,-1.969296298921108246e-02,-1.173342317342758179e-01,-4.781083390116691589e-02,2.624753490090370178e-02,1.588705554604530334e-02,6.766875833272933960e-02,-2.567383833229541779e-02,9.424964338541030884e-02,-5.162630230188369751e-02,4.469297360628843307e-03,-1.791410595178604126e-01,-3.228607177734375000e-01,-4.996160045266151428e-02,-1.124821156263351440e-01,-1.622605510056018829e-02,-5.085414275527000427e-03,6.496286951005458832e-03,-2.168942689895629883e-01,2.141275070607662201e-02,3.619160503149032593e-03,-9.306337684392929077e-02,7.667800784111022949e-02,-9.462171792984008789e-02,-4.290617629885673523e-02,1.149615570902824402e-01,-1.515076905488967896e-01,-2.002815715968608856e-02,1.013539880514144897e-01,1.980457752943038940e-01,-8.500973880290985107e-02,-4.536680504679679871e-02,4.524056613445281982e-02,2.085553854703903198e-01,-8.708245307207107544e-02,-7.757866382598876953e-02,-1.924616694450378418e-01,1.596858166158199310e-02,-5.202978476881980896e-02,-7.818540930747985840e-02,1.476833820343017578e-01,-1.502069681882858276e-01,-4.740926623344421387e-02,-5.880447104573249817e-02,-1.454445254057645798e-02,-1.405303478240966797e-01,5.122970417141914368e-02,2.081907391548156738e-01,-9.779861429706215858e-04,2.326270490884780884e-01,2.352717965841293335e-01,8.075874298810958862e-02,-7.833715528249740601e-03,-7.517892867326736450e-03,-1.287955790758132935e-02,1.951937824487686157e-01,-4.497923329472541809e-02,2.251161038875579834e-01,-1.595119386911392212e-01,1.706149615347385406e-02,-6.430386751890182495e-02,-6.287597119808197021e-02,-1.516477465629577637e-01,-1.932833194732666016e-01,5.554770678281784058e-02,3.005906939506530762e-01,-9.511600434780120850e-02,-7.504395395517349243e-02,-7.375301420688629150e-02,1.344486325979232788e-01,-6.131936982274055481e-02
