-1.471271365880966187e-01,-4.450549930334091187e-02,1.986268535256385803e-02,-1.251391321420669556e-01,-1.289908774197101593e-02,-6.731696426868438721e-02,-1.102879494428634644e-01,-7.539952546358108521e-02,-4.967169463634490967e-02,-3.186863288283348083e-02,2.799140512943267822e-01,-2.720129787921905518e-01,-4.277457892894744873e-01,-3.139041364192962646e-02,-1.812500804662704468e-01,-5.560568720102310181e-02,-1.446216739714145660e-02,-5.487462505698204041e-02,-1.834318488836288452e-01,-3.326224908232688904e-02,1.401380170136690140e-02,-3.876192122697830200e-02,-7.671226561069488525e-02,-1.725129485130310059e-01,2.497954219579696655e-01,-4.311760142445564270e-02,-3.442402807252165076e-09,-5.522794649004936218e-02,-7.128056138753890991e-02,-6.696198135614395142e-02,6.728335749357938766e-03,1.789821535348892212e-01,-9.294316917657852173e-02,-1.910725794732570648e-02,8.238963037729263306e-02,-2.498304694890975952e-01,-2.642780542373657227e-02,0.000000000000000000e+00,8.890377730131149292e-02,-4.407698512077331543e-01,-4.175994694232940674e-01,-3.878845274448394775e-01,-5.959600210189819336e-02,-2.661222591996192932e-02,-6.053187698125839233e-02,-1.599134691059589386e-02,-5.351686105132102966e-02,5.702198669314384460e-02,0.000000000000000000e+00,-2.182606421411037445e-02,-7.660236954689025879e-02,-3.043718636035919189e-01,-6.201222538948059082e-02,6.773542612791061401e-02,3.735158219933509827e-02,-2.164403721690177917e-02,-9.764588624238967896e-02,-3.050480596721172333e-02,-2.095038071274757385e-02,1.020053029060363770e-01,-3.415289521217346191e-02,-1.547839790582656860e-01,-7.114449143409729004e-02,-5.392342433333396912e-02,-5.711830407381057739e-02,-1.214666664600372314e-02,-2.074893005192279816e-02,0.000000000000000000e+00,-1.263599377125501633e-02,-9.543139487504959106e-02,-4.276561550796031952e-03,-1.782214827835559845e-02,-8.035746961832046509e-02,0.000000000000000000e+00,-3.191219270229339600e-02,-5.609411597251892090e-01,5.496316552162170410e-01,6.695146113634109497e-02,-5.963752046227455139e-02,-6.347848474979400635e-02,3.751827031373977661e-02,-2.014457881450653076e-01,-1.323867291212081909e-01,-3.398970887064933777e-02,-3.499535471200942993e-02,-5.470434576272964478e-02,-7.719425112009048462e-02,-1.365139894187450409e-02,6.410764157772064209e-02,-5.533427000045776367e-02,2.829960286617279053e-01,-9.382756054401397705e-02,-5.195475742220878601e-02,-8.667503297328948975e-02,-1.829459220170974731e-01,-1.094256043434143066e-01,-1.761847175657749176e-02,-4.044908285140991211e-02,-5.148341506719589233e-02,-2.236498333513736725e-02,1.056477800011634827e-02,1.113681942224502563e-01,2.867880761623382568e-01,-5.994235351681709290e-02,-4.909603297710418701e-02,-4.946936666965484619e-02,-2.314643934369087219e-02,-1.937644183635711670e-01,-8.469397574663162231e-02,-6.467682868242263794e-02,-7.921291887760162354e-02,-1.097762808203697205e-01,-6.306776404380798340e-02,-4.181566461920738220e-02,-7.474981248378753662e-02,-8.029835671186447144e-02,-6.471941620111465454e-02,-2.297597751021385193e-02,-7.124533504247665405e-02,9.069360047578811646e-02,-3.171170502901077271e-02,-2.567832469940185547e-01,-5.753914639353752136e-02,-2.917340584099292755e-02,-1.427275836467742920e-01,-9.623090177774429321e-02,-5.622867494821548462e-02,5.965030193328857422e-02
-2.283389866352081299e-02,1.704460382461547852e-02,2.846300601959228516e-03,7.547561824321746826e-02,1.344646662473678589e-01,1.429407745599746704e-01,-2.911299467086791992e-03,1.316546946763992310e-01,-1.735119521617889404e-01,1.367394775152206421e-01,-9.100246429443359375e-02,1.493477821350097656e-02,2.042967081069946289e-02,-3.830836713314056396e-02,1.042414754629135132e-01,-1.227248758077621460e-01,1.796172559261322021e-02,1.460807770490646362e-01,-1.352555602788925171e-01,1.706683486700057983e-01,5.289661884307861328e-02,-1.097717583179473877e-01,1.360072344541549683e-01,-1.758084148168563843e-01,1.358499974012374878e-01,-1.553371399641036987e-01,-1.233448535203933716e-01,6.215909123420715332e-02,2.279748022556304932e-02,-1.201093271374702454e-01,-7.208783924579620361e-02,9.484030306339263916e-02,1.523770838975906372e-01,8.515925705432891846e-02,2.823770046234130859e-05,1.236245781183242798e-01,2.330628037452697754e-02,-1.600693464279174805e-01,-4.702362418174743652e-02,1.301574707031250000e-02,-4.503373801708221436e-02,6.875993311405181885e-02,-8.675852417945861816e-02,-1.344386190176010132e-01,6.407791376113891602e-02,7.136438786983489990e-02,-1.650875806808471680e-02,-1.297498345375061035e-01,9.585542976856231689e-02,1.295175999402999878e-01,1.114467233419418335e-01,-2.874338626861572266e-02,1.069972664117813110e-01,1.523646712303161621e-02,-7.884380966424942017e-02,1.143834143877029419e-01,1.111942976713180542e-01,1.598065942525863647e-01,1.126980632543563843e-01,1.062354594469070435e-01,8.550927042961120605e-03,-5.387711524963378906e-02,-1.257966607809066772e-01,-1.050896272063255310e-01,9.244360029697418213e-02,-3.374136984348297119e-02,3.643797338008880615e-02,1.301897019147872925e-01,-1.301087141036987305e-01,1.005097478628158569e-01,3.083585202693939209e-02,-1.149810701608657837e-01,-1.651132106781005859e-02,-1.218018606305122375e-01,-7.908038049936294556e-02,9.119428694248199463e-02,6.373360753059387207e-03,-1.697350144386291504e-01,1.490712016820907593e-01,-5.257136374711990356e-02,-1.700606346130371094e-01,-6.622821092605590820e-02,4.958011209964752197e-02,-7.989756762981414795e-02,1.047659665346145630e-01,-8.160144090652465820e-02,-1.532681137323379517e-01,1.193767637014389038e-01,9.160946309566497803e-02,-4.829940199851989746e-02,-1.192566156387329102e-01,-1.182627528905868530e-01,-1.739278435707092285e-03,-1.272211819887161255e-01,-2.502746880054473877e-02,1.571059077978134155e-01,-1.412907689809799194e-01,-1.404165178537368774e-01,-1.314970701932907104e-01,-1.934427022933959961e-02,1.332001835107803345e-01,-1.339659094810485840e-02,1.467798501253128052e-01,2.223508059978485107e-02,-1.496306210756301880e-01,-5.532587319612503052e-02,1.550504416227340698e-01,1.576423496007919312e-01,1.427635550498962402e-02,1.196785271167755127e-02,3.930109739303588867e-02,5.245204269886016846e-02,-9.721730649471282959e-02,-7.300445437431335449e-02,2.111303806304931641e-02,1.367560178041458130e-01,4.939042031764984131e-02,-1.741013824939727783e-01,1.735502630472183228e-01,1.480619162321090698e-01,1.743233352899551392e-01,-1.412124186754226685e-01,-1.659812033176422119e-01,7.169140875339508057e-02,1.492950171232223511e-01,1.920846104621887207e-02,4.421289265155792236e-02,-3.678163886070251465e-02
-1.713590025901794434e-01,-1.404464095830917358e-01,1.134973019361495972e-01,7.511220872402191162e-02,-5.430583655834197998e-02,9.646056592464447021e-02,1.214754730463027954e-01,8.847348392009735107e-02,-1.726739555597305298e-01,1.105267256498336792e-01,1.194310039281845093e-01,-5.215857923030853271e-02,-3.229856491088867188e-02,-1.024488285183906555e-01,9.487871825695037842e-02,-1.718449145555496216e-01,1.081328094005584717e-02,7.666379213333129883e-03,-1.184471845626831055e-01,-2.988681197166442871e-03,6.041377782821655273e-03,-2.001544833183288574e-02,8.262096345424652100e-02,6.267662346363067627e-02,-1.637207865715026855e-01,-1.631647348403930664e-01,1.645401269197463989e-01,-1.591775566339492798e-01,-4.571205377578735352e-02,1.328166574239730835e-01,7.373814284801483154e-02,1.401521712541580200e-01,-1.140227317810058594e-01,1.166789680719375610e-01,-1.483967751264572144e-01,-5.363540351390838623e-02,-1.466701477766036987e-01,5.852730572223663330e-02,7.544042170047760010e-02,-1.430830359458923340e-02,1.548079997301101685e-01,4.720342159271240234e-02,-6.103744357824325562e-02,-9.452281892299652100e-02,7.704477012157440186e-02,-6.337314099073410034e-02,-3.485375642776489258e-02,-1.660823076963424683e-01,5.184327065944671631e-02,-1.639429330825805664e-01,-7.453590631484985352e-03,-1.360927224159240723e-01,1.028853505849838257e-01,4.101221263408660889e-02,-3.780972957611083984e-02,-6.599526107311248779e-02,-1.067516431212425232e-01,-1.649452298879623413e-01,1.064575463533401489e-01,-6.200660765171051025e-02,-1.050413250923156738e-01,-9.053075313568115234e-02,-1.663892269134521484e-01,-1.167667508125305176e-01,-6.352183222770690918e-02,-1.562445163726806641e-01,1.040154248476028442e-01,1.522625535726547241e-01,-1.541209071874618530e-01,-2.283260226249694824e-03,1.526031047105789185e-01,-8.250464498996734619e-02,3.105928003787994385e-02,-1.408711075782775879e-03,-1.170855909585952759e-01,1.401509195566177368e-01,1.475783735513687134e-01,4.521219432353973389e-02,-6.463181227445602417e-02,-5.190704762935638428e-02,-1.714743226766586304e-01,-1.724198907613754272e-01,-4.167176783084869385e-02,-1.742499023675918579e-01,6.805902719497680664e-02,1.283412724733352661e-01,-1.064565330743789673e-01,-1.413148343563079834e-01,1.334701478481292725e-02,-1.690438389778137207e-02,1.529781073331832886e-01,-1.543798148632049561e-01,-1.693663001060485840e-02,-4.559728503227233887e-02,8.144052326679229736e-02,1.416340470314025879e-02,-6.769921630620956421e-02,-1.503615379333496094e-01,-1.559027880430221558e-01,3.666143119335174561e-02,2.972456812858581543e-02,-3.097072243690490723e-02,1.560928374528884888e-01,1.416291147470474243e-01,1.351972669363021851e-01,7.167948782444000244e-02,-1.733865290880203247e-01,-1.596169173717498779e-02,5.063652992248535156e-02,-6.139248609542846680e-02,6.112885475158691406e-02,-1.574019193649291992e-01,6.291462481021881104e-02,-7.560339570045471191e-02,9.939186275005340576e-02,-1.930451393127441406e-02,-3.887069225311279297e-02,1.672138273715972900e-02,-5.351844429969787598e-02,-2.398189902305603027e-02,8.371917903423309326e-02,7.417468726634979248e-02,-1.337033212184906006e-01,-2.259917557239532471e-02,-1.047523245215415955e-01,2.002674341201782227e-02,1.353210061788558960e-01,1.328803747892379761e-01
1.465377658605575562e-01,1.721407622098922729e-01,5.072490870952606201e-02,-1.554552316665649414e-01,-7.651844620704650879e-02,-9.944224357604980469e-02,-1.086461022496223450e-01,-9.297952800989151001e-02,-1.095094382762908936e-01,1.725308746099472046e-01,4.630054533481597900e-02,-1.679522395133972168e-01,1.540968269109725952e-01,-1.647427976131439209e-01,1.096968203783035278e-01,8.186653256416320801e-03,9.371612966060638428e-02,-2.038142085075378418e-02,3.656336665153503418e-02,-3.170134127140045166e-02,5.285173654556274414e-03,-1.355323791503906250e-01,8.681644499301910400e-02,1.362911909818649292e-01,9.207375347614288330e-02,-1.293118894100189209e-01,5.570735037326812744e-02,-6.356566399335861206e-02,1.721214801073074341e-01,1.705534905195236206e-01,8.625827729701995850e-02,5.354571342468261719e-02,9.876738488674163818e-02,7.798279821872711182e-02,-5.616261065006256104e-02,-5.811844021081924438e-02,9.430243074893951416e-02,-1.556564867496490479e-01,-1.451894342899322510e-01,1.730350703001022339e-01,8.357782661914825439e-02,-1.653849929571151733e-01,3.225944936275482178e-02,-1.322792768478393555e-01,1.071396917104721069e-01,-1.142424866557121277e-01,8.372364938259124756e-02,-9.827578812837600708e-02,5.095613002777099609e-02,1.457200199365615845e-01,-1.726514846086502075e-01,-7.403005659580230713e-02,9.662039577960968018e-02,-5.109500885009765625e-02,1.161211282014846802e-01,-2.030007541179656982e-02,-1.547361612319946289e-01,1.121955066919326782e-01,-2.228918671607971191e-02,-2.739940583705902100e-02,-1.252958774566650391e-01,-4.708459973335266113e-02,1.631460934877395630e-01,-1.133153438568115234e-01,-1.671120524406433105e-03,-1.140526160597801208e-01,-6.470944732427597046e-02,6.680324673652648926e-03,1.473232060670852661e-01,-3.337655961513519287e-02,-5.425138026475906372e-02,1.350394636392593384e-01,-1.411325633525848389e-01,1.411705762147903442e-01,-1.542917340993881226e-01,-1.601786762475967407e-01,-5.965254455804824829e-02,-1.004540622234344482e-01,3.561298549175262451e-02,-1.041530370712280273e-01,-1.279874145984649658e-01,1.552030593156814575e-01,3.282919526100158691e-02,7.701893150806427002e-02,-8.774328976869583130e-02,2.587200701236724854e-02,3.723859786987304688e-02,9.318698942661285400e-02,6.714406609535217285e-02,5.053469538688659668e-02,-1.113424897193908691e-01,1.332591027021408081e-01,-1.046670973300933838e-02,1.578224152326583862e-01,-5.681492388248443604e-02,-5.274045467376708984e-02,1.561479121446609497e-01,7.137690484523773193e-02,-5.790563672780990601e-02,-1.052059084177017212e-01,7.093289494514465332e-02,2.881410717964172363e-02,-2.729639410972595215e-03,1.232486814260482788e-01,1.275678128004074097e-01,1.789093017578125000e-03,-5.397780239582061768e-02,1.699325591325759888e-01,1.037175208330154419e-01,7.874549925327301025e-02,-1.586235761642456055e-01,-3.943327069282531738e-02,7.117301225662231445e-03,1.715144366025924683e-01,-1.340435445308685303e-01,1.656510978937149048e-01,-1.683223247528076172e-02,1.746240407228469849e-01,-3.215454518795013428e-02,1.607858687639236450e-01,-9.360313415527343750e-02,-1.257685571908950806e-01,3.461870551109313965e-02,-6.952244788408279419e-02,-1.499229073524475098e-01,5.710341036319732666e-02,3.526143729686737061e-02,-1.691694855690002441e-01
4.795924574136734009e-02,-1.799445450305938721e-01,9.713582694530487061e-02,-6.687878817319869995e-02,-2.750961184501647949e-01,-4.639603942632675171e-02,-2.332282215356826782e-01,-7.401636987924575806e-02,-3.195052221417427063e-02,-1.575415581464767456e-01,-3.286315500736236572e-02,3.580390010029077530e-03,-2.715913578867912292e-02,-2.253923378884792328e-02,-1.232270672917366028e-01,-3.397626280784606934e-01,-2.238604426383972168e-01,-1.092198044061660767e-01,2.759104408323764801e-02,-1.500245481729507446e-01,-2.608945369720458984e-01,-2.710706591606140137e-01,-1.215355657041072845e-02,-7.302000373601913452e-02,-1.121367737650871277e-01,1.207236424088478088e-01,-9.630866348743438721e-02,2.482399903237819672e-02,-6.622338294982910156e-02,-2.862671315670013428e-01,-7.746072113513946533e-02,-1.808230876922607422e-01,1.369896903634071350e-02,4.270718991756439209e-02,-2.410783022642135620e-01,1.560039725154638290e-02,-1.346241980791091919e-01,-1.711546778678894043e-01,-2.410243600606918335e-01,-2.359462529420852661e-02,6.881392002105712891e-02,5.673953518271446228e-02,-2.471700683236122131e-02,-1.606939733028411865e-01,-1.241794005036354065e-01,7.426471263170242310e-02,-6.006566807627677917e-02,1.219835877418518066e-01,-3.889623284339904785e-02,-9.935359470546245575e-03,1.116943433880805969e-01,-1.476836111396551132e-02,1.141299903392791748e-01,-4.396250844001770020e-01,-3.261570334434509277e-01,-4.102573171257972717e-02,-2.152002975344657898e-02,7.184351980686187744e-02,-7.925549149513244629e-02,2.087323367595672607e-02,-5.844075232744216919e-02,4.130664095282554626e-02,-9.440661221742630005e-02,4.144534096121788025e-02,1.280411928892135620e-01,1.148211434483528137e-01,6.822931766510009766e-02,-1.461989879608154297e-01,4.189354926347732544e-02,-9.444128721952438354e-02,2.445441484451293945e-02,-1.417512893676757812e-01,-2.434059828519821167e-01,-9.337574988603591919e-02,8.258830010890960693e-02,5.091421306133270264e-02,-9.066649526357650757e-02,2.550176531076431274e-02,1.127190217375755310e-01,9.050698578357696533e-02,-2.015437334775924683e-01,-1.654681116342544556e-01,-2.574972212314605713e-01,-7.796724140644073486e-02,-1.836660504341125488e-02,-5.579582229256629944e-02,3.381025791168212891e-02,-1.999318599700927734e-01,8.273924142122268677e-02,-7.669869065284729004e-02,2.473979722708463669e-03,-7.924335449934005737e-02,-1.286993771791458130e-01,-2.274872362613677979e-01,-6.988028436899185181e-02,-5.678392574191093445e-02,-1.525845006108283997e-02,-1.707063168287277222e-01,7.185880839824676514e-02,-1.598509848117828369e-01,1.691415905952453613e-02,-4.796417430043220520e-02,1.005012616515159607e-01,-1.180100142955780029e-01,-1.290820688009262085e-01,-1.471314579248428345e-01,-4.684869572520256042e-02,4.059518501162528992e-02,-1.247325986623764038e-01,-4.942448437213897705e-02,4.888245090842247009e-02,-2.775604128837585449e-01,-1.708396226167678833e-01,9.927197545766830444e-02,-3.827618435025215149e-02,-1.279126107692718506e-01,-1.369962841272354126e-01,-2.110688947141170502e-02,5.376766249537467957e-02,-2.432496994733810425e-01,3.223188221454620361e-02,-5.413328856229782104e-02,-3.227575868368148804e-02,8.300236612558364868e-02,5.519332736730575562e-02,1.317798197269439697e-01,4.522385075688362122e-02,4.843079671263694763e-02
-7.778882049024105072e-03,-1.327983140945434570e-01,-8.505988866090774536e-02,7.231850177049636841e-02,8.136753737926483154e-02,2.816105075180530548e-02,4.760005697607994080e-02,2.149391919374465942e-01,7.439406216144561768e-02,8.438269793987274170e-02,1.503153890371322632e-01,-5.173494573682546616e-03,1.155157387256622314e-01,-1.495186686515808105e-01,-1.376441866159439087e-01,-3.589874505996704102e-02,-1.848969757556915283e-01,-1.183891892433166504e-01,-8.692301064729690552e-02,2.897089906036853790e-02,-9.469780325889587402e-02,-1.447829008102416992e-01,1.447528898715972900e-01,2.694238424301147461e-01,-9.084656089544296265e-02,7.794037461280822754e-02,1.736599355936050415e-01,1.372609138488769531e-01,3.100194782018661499e-02,-1.327957119792699814e-02,2.466792799532413483e-02,-6.524928659200668335e-02,-4.851573705673217773e-02,1.739466339349746704e-01,8.076514303684234619e-02,-1.606189608573913574e-01,1.064247265458106995e-01,1.145891398191452026e-01,-1.108369976282119751e-01,-2.798748435452580452e-03,-5.956528242677450180e-03,-2.742065787315368652e-01,-1.055667251348495483e-01,1.173353381454944611e-02,1.238283440470695496e-01,1.289678663015365601e-01,7.342517375946044922e-02,-6.480593979358673096e-02,9.382665157318115234e-04,-1.161858066916465759e-01,-1.042095050215721130e-01,-7.389956619590520859e-03,1.727175563573837280e-01,6.297828257083892822e-02,2.302511483430862427e-01,1.811595857143402100e-01,3.416384384036064148e-02,-5.978286266326904297e-02,1.573298275470733643e-01,1.130368188023567200e-01,1.411081254482269287e-01,7.600458711385726929e-02,1.531104892492294312e-01,-2.046491354703903198e-01,4.020116850733757019e-02,-1.437951475381851196e-01,1.659016013145446777e-01,-1.434416472911834717e-01,-6.191357970237731934e-02,-3.035735152661800385e-02,1.619245558977127075e-01,-1.763100363314151764e-02,3.388502821326255798e-02,-8.117706328630447388e-02,-5.572365224361419678e-02,-2.344060242176055908e-01,-1.825046166777610779e-02,2.226170897483825684e-01,-5.173020064830780029e-03,-6.158581376075744629e-02,-2.949235029518604279e-02,1.348196864128112793e-01,-6.117084622383117676e-02,-1.054068580269813538e-01,-1.760879307985305786e-01,2.245072461664676666e-02,2.110251784324645996e-02,-8.954779058694839478e-02,2.306216955184936523e-01,7.486169040203094482e-02,1.696072071790695190e-01,3.816021606326103210e-02,8.731951564550399780e-02,-8.618783205747604370e-02,-1.065809559077024460e-02,-1.161071136593818665e-01,1.519097983837127686e-01,4.785051569342613220e-02,-3.553134948015213013e-02,3.440275788307189941e-03,1.301449630409479141e-02,1.578514426946640015e-01,-1.114584226161241531e-02,9.717352688312530518e-02,1.299788951873779297e-01,-6.602598819881677628e-03,1.880451291799545288e-02,6.014596298336982727e-02,-1.374502331018447876e-01,2.477273903787136078e-02,-1.392084360122680664e-02,1.706839799880981445e-01,-3.822287917137145996e-02,-6.378922611474990845e-02,1.438838243484497070e-02,-4.362551495432853699e-02,-4.817935079336166382e-02,7.065123319625854492e-02,-1.626501977443695068e-01,-4.081653431057929993e-02,1.396518945693969727e-02,-3.742303252220153809e-01,1.075414493680000305e-01,-4.457964003086090088e-02,-4.108062386512756348e-02,1.603721529245376587e-01,6.050536781549453735e-02,-1.148562580347061157e-01
-1.101306378841400146e-01,-6.581348925828933716e-02,1.369177401065826416e-01,-6.597137451171875000e-02,1.062481030821800232e-01,8.975173532962799072e-02,-8.657004684209823608e-02,-4.118715226650238037e-02,-1.077160537242889404e-01,-1.029611676931381226e-01,-1.319614052772521973e-01,1.919629052281379700e-02,1.248447448015213013e-01,1.009776350110769272e-02,1.690971702337265015e-01,-1.716953963041305542e-01,7.000004500150680542e-02,-2.862367220222949982e-02,-2.166751213371753693e-02,-5.294477194547653198e-02,8.111644536256790161e-03,-9.536799788475036621e-02,9.305035695433616638e-03,4.709585569798946381e-03,-1.180561929941177368e-01,5.282433703541755676e-02,1.186148077249526978e-01,1.589212417602539062e-01,-7.912783883512020111e-03,-1.066497489809989929e-01,-1.255268454551696777e-01,-6.581410020589828491e-02,-2.519831061363220215e-02,1.285077482461929321e-01,3.166741877794265747e-02,-2.713853493332862854e-02,-1.239677146077156067e-01,5.711244046688079834e-02,-1.443416029214859009e-01,1.282393634319305420e-01,-7.864772528409957886e-02,1.087357550859451294e-01,-7.450555264949798584e-02,-5.090464651584625244e-02,1.059043183922767639e-01,2.404969185590744019e-01,5.439741909503936768e-02,8.634674549102783203e-02,-9.349751472473144531e-02,6.645298749208450317e-02,-1.434285491704940796e-01,-4.114998504519462585e-03,-9.856347925961017609e-03,1.081199049949645996e-01,-2.969376370310783386e-02,6.666313111782073975e-02,-1.255710572004318237e-01,-1.101152077317237854e-01,1.007273048162460327e-01,-1.779251992702484131e-01,-1.500030606985092163e-01,-1.970637589693069458e-01,-1.711007356643676758e-01,-3.403796255588531494e-02,7.596039026975631714e-02,7.313127815723419189e-02,-1.389759927988052368e-01,1.573828607797622681e-01,-3.239110484719276428e-02,1.985125988721847534e-02,-1.792404204607009888e-01,-1.128705367445945740e-01,6.450982391834259033e-02,-1.615055799484252930e-01,1.006024181842803955e-01,8.085373044013977051e-02,2.498917095363140106e-02,1.657690852880477905e-01,-1.482056975364685059e-01,7.210014760494232178e-02,5.394126847386360168e-02,1.053736433386802673e-01,1.809593103826045990e-02,-1.355783045291900635e-01,7.334200292825698853e-02,-3.519667312502861023e-03,-4.011169075965881348e-03,1.322094649076461792e-01,-1.637489348649978638e-01,7.996389269828796387e-02,8.598858118057250977e-02,-8.928500860929489136e-02,-3.538769483566284180e-02,-1.924346834421157837e-01,-4.340890794992446899e-02,5.607936531305313110e-02,-3.652063384652137756e-02,3.914085403084754944e-02,-4.892652481794357300e-02,1.446956694126129150e-01,-7.686571031808853149e-02,-2.502720244228839874e-02,7.871381193399429321e-02,7.862528413534164429e-02,6.639020889997482300e-02,9.273354895412921906e-03,2.541376277804374695e-02,1.189355105161666870e-01,-1.214025616645812988e-01,5.342755839228630066e-02,3.398787230253219604e-02,-1.180071532726287842e-01,-1.196264699101448059e-01,-2.752045914530754089e-02,1.667277365922927856e-01,2.618607133626937866e-02,-1.918308287858963013e-01,-9.468381106853485107e-02,-9.296227246522903442e-02,8.703910559415817261e-02,4.500015079975128174e-02,-5.493743345141410828e-02,1.734343320131301880e-01,-2.758544124662876129e-02,-8.275350183248519897e-02,6.949482019990682602e-03,-1.604942530393600464e-01,2.565633505582809448e-02
-1.553590446710586548e-01,-6.661297380924224854e-02,-3.955642282962799072e-01,-5.993530526757240295e-02,2.560384385287761688e-02,-1.481353342533111572e-01,2.442488633096218109e-02,-1.370929926633834839e-02,-1.198179349303245544e-01,1.718319486826658249e-03,1.990494579076766968e-01,1.541972458362579346e-01,1.419754475355148315e-01,-1.000153049826622009e-01,1.177746206521987915e-01,-2.612529695034027100e-02,2.424362488090991974e-02,9.870195388793945312e-02,9.331659227609634399e-02,-3.199359476566314697e-01,-1.592806875705718994e-01,1.152324229478836060e-01,-2.000480294227600098e-01,-1.566180586814880371e-01,-2.917551249265670776e-02,-4.135537892580032349e-02,-3.158002719283103943e-02,2.136087976396083832e-02,-5.501672998070716858e-02,1.649798899888992310e-01,-1.623654961585998535e-01,-1.548911184072494507e-01,-2.562913596630096436e-01,-5.720441043376922607e-02,7.726773619651794434e-02,1.617958694696426392e-01,1.598251760005950928e-01,-5.149126052856445312e-02,-7.000474631786346436e-02,-3.176528513431549072e-01,4.581649973988533020e-02,1.929013580083847046e-01,-8.769094944000244141e-02,7.408423721790313721e-02,-1.499164998531341553e-01,8.640984073281288147e-03,1.085796505212783813e-01,3.863070858642458916e-03,9.153783321380615234e-05,1.255178600549697876e-01,-7.367470115423202515e-02,-4.581255838274955750e-02,7.194408029317855835e-02,1.398836374282836914e-01,-2.511094510555267334e-02,-1.823833882808685303e-01,-1.657067537307739258e-01,-1.952229887247085571e-01,-1.900005340576171875e-01,-9.577970951795578003e-02,-2.182622998952865601e-01,-1.976170092821121216e-01,-6.202781200408935547e-02,-2.137121558189392090e-01,-1.192290931940078735e-01,-7.347508519887924194e-02,-1.031053885817527771e-01,-1.355294287204742432e-01,5.480680987238883972e-02,3.694660961627960205e-02,-8.675304055213928223e-02,-2.793222665786743164e-01,-1.773941218852996826e-01,-1.416335105895996094e-01,-7.397156208753585815e-02,-2.524761557579040527e-01,2.108673565089702606e-02,8.097969740629196167e-02,1.546728610992431641e-01,-1.367999613285064697e-01,2.061770111322402954e-02,-3.989278152585029602e-02,6.132320966571569443e-03,-1.060632467269897461e-01,-2.061118930578231812e-01,-1.181925758719444275e-01,1.997287757694721222e-02,1.499081254005432129e-01,-1.141081750392913818e-01,-1.859174808487296104e-03,-4.517406597733497620e-02,5.796980112791061401e-02,-1.328963935375213623e-01,-2.163269966840744019e-01,3.997039794921875000e-02,-1.948614418506622314e-01,-3.963890671730041504e-02,7.768491655588150024e-02,-2.838033437728881836e-01,1.144994795322418213e-02,-9.526166319847106934e-02,-2.281876979395747185e-03,1.229073032736778259e-01,1.048501729965209961e-01,-2.112860791385173798e-02,-1.279404163360595703e-01,4.574120044708251953e-03,1.482889354228973389e-01,-4.329494759440422058e-02,-2.176365256309509277e-01,7.326368987560272217e-02,1.112214997410774231e-01,-9.819813072681427002e-02,-1.423128843307495117e-01,-1.310191815719008446e-03,4.165080189704895020e-02,-1.944980956614017487e-02,-3.629700094461441040e-02,-1.702475249767303467e-01,5.193224549293518066e-02,-1.694949120283126831e-01,-6.851375848054885864e-02,-3.153073042631149292e-02,-1.962797194719314575e-01,-7.932114601135253906e-02,-2.731614112854003906e-01,1.397132687270641327e-02,-1.391443759202957153e-01
-3.165213465690612793e-01,-1.638625413179397583e-01,-1.012713387608528137e-01,1.127933431416749954e-02,-1.931793289259076118e-03,-1.460285633802413940e-01,-1.338432282209396362e-01,-1.449948251247406006e-01,-1.626235246658325195e-01,-8.598118275403976440e-02,1.165041103959083557e-01,2.012424021959304810e-01,-1.394637227058410645e-01,-8.614412695169448853e-02,-1.182071492075920105e-01,2.868682891130447388e-02,-3.832342568784952164e-03,-1.127605512738227844e-02,3.113869018852710724e-02,-2.187316119670867920e-01,4.415806755423545837e-02,-2.556134201586246490e-02,-2.160197347402572632e-01,-1.914097070693969727e-01,-1.130897924304008484e-01,-3.131724894046783447e-02,-6.409789621829986572e-02,-4.058710113167762756e-02,-1.144887134432792664e-01,4.833181574940681458e-02,-2.655212581157684326e-02,-2.342284284532070160e-02,-1.984286904335021973e-01,-1.106358096003532410e-01,1.488532032817602158e-02,-2.286207303404808044e-02,-2.238418161869049072e-01,2.646628022193908691e-02,-7.501428574323654175e-02,-2.398593164980411530e-02,-1.139831915497779846e-02,-1.339086443185806274e-01,-1.628072559833526611e-01,-6.980147957801818848e-02,3.403100371360778809e-02,-3.914993256330490112e-02,5.028160288929939270e-03,5.777507275342941284e-02,-4.936158657073974609e-02,1.065283566713333130e-01,-9.205729514360427856e-02,-7.462428510189056396e-02,-1.847680658102035522e-01,4.073597863316535950e-02,-1.398258954286575317e-01,1.136796697974205017e-01,6.295371055603027344e-02,-6.463799625635147095e-02,-1.675390750169754028e-01,1.065903380513191223e-01,3.810689970850944519e-02,5.910598114132881165e-02,-1.609706692397594452e-02,-1.248495560139417648e-02,-3.520555049180984497e-02,-7.473082840442657471e-02,-2.025665640830993652e-01,-9.455413371324539185e-02,7.904036343097686768e-02,-1.412405371665954590e-01,-1.017324849963188171e-01,-1.216104403138160706e-01,6.151302717626094818e-03,7.749958336353302002e-02,3.528739139437675476e-02,-2.662530839443206787e-01,7.164300978183746338e-02,2.320555225014686584e-02,-8.897250145673751831e-02,1.210282146930694580e-01,-8.109890669584274292e-02,1.010584384202957153e-01,-1.331304758787155151e-01,1.696132309734821320e-02,3.260755678638815880e-03,2.253776043653488159e-02,-2.309347875416278839e-02,-1.819789558649063110e-01,-1.684619188308715820e-01,-5.020699650049209595e-02,-2.183195389807224274e-02,-5.186297744512557983e-02,-1.293082088232040405e-01,-1.075897365808486938e-01,9.782723337411880493e-02,5.740267038345336914e-02,-1.232757419347763062e-01,1.948842257261276245e-01,-2.359828501939773560e-01,-1.304389238357543945e-01,-1.167460083961486816e-01,-1.706265956163406372e-01,-3.663048148155212402e-02,1.226403098553419113e-02,3.835300356149673462e-02,-5.461440607905387878e-02,2.401197142899036407e-02,-1.187483295798301697e-01,8.180959522724151611e-02,-1.193406358361244202e-01,-2.139637619256973267e-01,-1.874404549598693848e-01,-1.925355046987533569e-01,3.186006098985671997e-02,2.517725527286529541e-02,8.757110685110092163e-02,1.300938427448272705e-01,1.234344467520713806e-01,1.185863837599754333e-01,-2.404633462429046631e-01,9.610268473625183105e-02,6.118430197238922119e-02,1.244060508906841278e-02,-2.258942425251007080e-01,-1.870420128107070923e-01,-2.129227072000503540e-01,1.176296398043632507e-01,-1.757275760173797607e-01
-2.088146720780059695e-04,3.893290460109710693e-02,-7.043819874525070190e-02,-2.006221115589141846e-01,-3.121241629123687744e-01,-5.376540869474411011e-02,-9.805940091609954834e-02,-1.356634050607681274e-01,5.640538409352302551e-02,-2.435654588043689728e-02,1.157757416367530823e-01,-1.547043323516845703e-01,-1.043015122413635254e-01,-5.351329967379570007e-02,9.629718214273452759e-02,1.928865537047386169e-02,-1.468578428030014038e-01,-3.947041928768157959e-02,-6.943771732039749622e-04,-1.368293017148971558e-01,6.333196908235549927e-02,-1.619908511638641357e-01,-1.002228185534477234e-01,-1.008175611495971680e-01,1.322905868291854858e-01,1.380184888839721680e-01,3.984461724758148193e-02,-1.718732118606567383e-01,1.413920074701309204e-01,-2.321699261665344238e-01,-9.055940806865692139e-02,5.793970823287963867e-02,-1.936824917793273926e-01,6.034316122531890869e-02,-1.957573443651199341e-01,-5.761892721056938171e-02,6.099242251366376877e-03,4.583966732025146484e-02,-1.643721610307693481e-01,1.791467964649200439e-01,1.545304656028747559e-01,-2.272300124168395996e-01,-5.165789648890495300e-02,-1.390867680311203003e-01,-1.593730449676513672e-01,-5.222230032086372375e-02,-9.271436184644699097e-02,8.376306295394897461e-02,4.881666600704193115e-02,-1.680783778429031372e-01,2.505750209093093872e-02,-1.131744384765625000e-01,6.705212593078613281e-02,-3.045028150081634521e-01,-3.023196756839752197e-01,-8.355615288019180298e-02,-1.243031620979309082e-01,1.248703822493553162e-01,-2.700881101191043854e-02,-1.878027804195880890e-02,7.927411794662475586e-02,1.397779770195484161e-02,3.195741027593612671e-02,8.951292186975479126e-02,4.097016900777816772e-02,-1.678570955991744995e-01,-1.132459715008735657e-01,-2.416446805000305176e-02,-1.232698857784271240e-01,1.223907843232154846e-01,1.054676622152328491e-01,-1.339457035064697266e-01,-1.287191659212112427e-01,8.703918755054473877e-02,2.815375849604606628e-02,-1.300992518663406372e-01,1.643642038106918335e-01,-1.980231106281280518e-01,-1.864998340606689453e-01,-1.284374296665191650e-02,-2.290481626987457275e-01,-6.943824887275695801e-02,-2.291730791330337524e-02,1.179131567478179932e-01,-1.205268725752830505e-01,-2.024166584014892578e-01,9.620283730328083038e-03,-2.958558499813079834e-01,-1.444453895092010498e-01,-1.486258357763290405e-01,-2.948740310966968536e-02,-1.604138016700744629e-01,-1.197750568389892578e-01,-6.083895638585090637e-02,6.287946552038192749e-02,-1.244033500552177429e-01,-1.304167658090591431e-01,-1.144587770104408264e-01,-1.944160610437393188e-01,-1.166716963052749634e-01,-1.704045087099075317e-01,7.487752288579940796e-02,8.955925703048706055e-02,6.218890845775604248e-02,9.015645086765289307e-02,-1.479397565126419067e-01,-1.691996306180953979e-01,1.619322597980499268e-01,-1.250421255826950073e-01,4.390488937497138977e-02,1.033760700374841690e-02,-1.379745751619338989e-01,1.885863021016120911e-02,-6.329187005758285522e-02,-6.366165727376937866e-02,5.115234851837158203e-02,8.058419078588485718e-02,-2.596036717295646667e-02,5.813250318169593811e-02,5.661021545529365540e-02,1.243155673146247864e-01,1.665950566530227661e-01,-3.611223995685577393e-01,-8.702360093593597412e-02,9.851226955652236938e-02,-1.780097335577011108e-01,-1.319797635078430176e-01,-4.261016100645065308e-02
-4.666204750537872314e-01,-1.899779736995697021e-01,1.697411388158798218e-01,-1.203434243798255920e-01,1.716109663248062134e-01,-1.159302145242691040e-01,-2.065596543252468109e-02,-1.795039921998977661e-01,-1.435396969318389893e-01,-5.526047945022583008e-02,4.364968463778495789e-02,-2.186902314424514771e-01,-9.116397053003311157e-02,-9.034409373998641968e-02,-2.145393490791320801e-01,4.028227552771568298e-02,-1.274533197283744812e-02,1.806716024875640869e-01,-1.909108459949493408e-01,9.625541418790817261e-02,6.663456559181213379e-02,1.498852521181106567e-01,-1.166110783815383911e-01,-6.612703436985611916e-04,-4.631899297237396240e-02,-1.002794727683067322e-01,-1.541800498962402344e-01,5.838108807802200317e-02,8.291209489107131958e-02,1.455926746129989624e-01,1.588141918182373047e-01,-1.645119041204452515e-01,1.029436849057674408e-02,9.462355077266693115e-02,1.931036114692687988e-01,-1.470605283975601196e-01,4.965535551309585571e-02,-1.562793254852294922e-01,6.561981141567230225e-02,-1.395018100738525391e-01,-3.913009166717529297e-01,-9.221323579549789429e-02,-1.408246755599975586e-01,1.496538147330284119e-02,1.246861293911933899e-01,-1.189922913908958435e-01,-1.909172832965850830e-01,-1.335160881280899048e-01,1.713018268346786499e-01,-5.001184344291687012e-02,-1.475308686494827271e-01,-2.988425549119710922e-03,-9.330864250659942627e-02,2.642922103404998779e-01,3.605302870273590088e-01,1.654231734573841095e-02,-5.000689625740051270e-02,-1.007687300443649292e-01,-1.142969876527786255e-01,1.950053870677947998e-01,-1.467521935701370239e-01,1.012511178851127625e-01,8.102622628211975098e-02,-2.422110885381698608e-01,7.496272772550582886e-02,2.897351980209350586e-02,-1.123445183038711548e-01,-4.014521837234497070e-04,-1.998633444309234619e-01,9.577538818120956421e-03,-1.852855086326599121e-02,1.653512269258499146e-01,-1.270324289798736572e-01,1.154981702566146851e-01,-1.167944073677062988e-01,-4.373848140239715576e-01,-3.499462306499481201e-01,1.187552791088819504e-02,1.068720370531082153e-01,-1.479087322950363159e-01,-8.457255549728870392e-03,9.653061628341674805e-02,-5.018331483006477356e-02,1.318374425172805786e-01,-1.098523512482643127e-01,-9.531697630882263184e-02,-6.970880180597305298e-02,4.112027585506439209e-02,8.637388236820697784e-03,1.579109579324722290e-01,-6.767382379621267319e-03,-2.096005529165267944e-01,8.238074928522109985e-02,-1.006633937358856201e-01,-1.796238124370574951e-01,-9.641661494970321655e-02,-1.838854700326919556e-01,1.603660732507705688e-02,6.998103857040405273e-02,-6.882829964160919189e-02,1.220635548233985901e-01,8.959139883518218994e-02,2.396119832992553711e-01,-5.890195816755294800e-02,-5.329982936382293701e-02,1.096122860908508301e-01,-2.172057284042239189e-03,-8.835516870021820068e-02,-3.886226192116737366e-02,-1.693009287118911743e-01,2.222436293959617615e-02,-3.349892050027847290e-02,-3.024757839739322662e-02,-1.114875078201293945e-01,-4.890831559896469116e-02,-1.071292385458946228e-01,9.361312724649906158e-03,-5.221506208181381226e-02,-2.619096040725708008e-01,2.119229137897491455e-01,1.123472303152084351e-01,-7.133592367172241211e-01,1.748841702938079834e-01,-1.900682747364044189e-01,-2.381772994995117188e-01,2.068570442497730255e-02,-1.344107091426849365e-01,-1.330060064792633057e-01
4.088683426380157471e-02,-1.925695389509201050e-01,-8.782119303941726685e-02,-7.673770934343338013e-02,3.656449913978576660e-02,-8.814177662134170532e-02,5.899646505713462830e-02,1.451277434825897217e-01,-1.419059485197067261e-01,1.419105231761932373e-01,6.148872151970863342e-02,-2.797356247901916504e-02,-4.644691944122314453e-02,-1.094367504119873047e-01,9.281873703002929688e-02,-1.947229355573654175e-01,3.941766545176506042e-02,-2.123296447098255157e-02,1.287682726979255676e-02,6.190815474838018417e-03,-1.760452538728713989e-01,-1.681692451238632202e-01,-1.994318217039108276e-01,4.090857505798339844e-02,7.133005559444427490e-02,5.023982375860214233e-02,-8.992885798215866089e-02,-1.532613337039947510e-01,-1.485045254230499268e-01,-2.325395643711090088e-01,-3.565979003906250000e-02,5.446976795792579651e-02,-2.257859706878662109e-01,8.560717105865478516e-05,-2.399009317159652710e-01,-1.712168455123901367e-01,-1.261543780565261841e-01,7.757063210010528564e-02,-2.761152088642120361e-01,-4.782516974955797195e-03,-4.617368057370185852e-02,-2.301918864250183105e-01,5.870660766959190369e-02,5.889220535755157471e-02,-1.326266955584287643e-02,5.226108431816101074e-02,2.040026932954788208e-01,9.042356163263320923e-02,9.931324422359466553e-02,1.139756515622138977e-01,-2.156386077404022217e-01,-1.211793348193168640e-02,-1.171866878867149353e-01,-1.603203117847442627e-01,-2.303116917610168457e-01,-1.126491874456405640e-01,-9.611349552869796753e-02,-1.529797166585922241e-01,-8.904485404491424561e-02,-2.899704873561859131e-02,-3.308403491973876953e-02,7.972000539302825928e-02,-8.953107148408889771e-02,-1.727602928876876831e-01,4.018305987119674683e-02,3.684123605489730835e-02,-3.149431943893432617e-01,2.431076765060424805e-02,4.362004995346069336e-02,-1.132573410868644714e-01,1.213249638676643372e-01,-1.736312359571456909e-01,2.424908615648746490e-02,1.114540845155715942e-01,5.317391455173492432e-02,-2.770034037530422211e-02,3.485172986984252930e-02,-9.398715198040008545e-02,-1.082521677017211914e-01,9.270723164081573486e-02,-4.860897362232208252e-02,7.024000585079193115e-02,-9.055209904909133911e-02,-2.110370546579360962e-01,-1.553699225187301636e-01,-2.098167240619659424e-01,-1.798858344554901123e-01,-5.425759032368659973e-02,-2.757344543933868408e-01,-3.049606643617153168e-02,1.048948094248771667e-01,-4.813744127750396729e-02,6.997784972190856934e-02,-1.423562020063400269e-01,1.173287183046340942e-01,-1.364984661340713501e-01,2.893049456179141998e-02,-2.324751205742359161e-02,-1.180131360888481140e-01,-4.083050414919853210e-02,-6.334580481052398682e-02,-1.138275116682052612e-01,3.475847467780113220e-02,6.938807666301727295e-02,1.422740370035171509e-01,-1.882807314395904541e-01,-1.386200636625289917e-01,-2.605448067188262939e-01,-8.467445522546768188e-02,1.156623736023902893e-01,-5.655374377965927124e-02,-1.407836191356182098e-02,1.539904922246932983e-01,9.714128077030181885e-02,-2.070643007755279541e-01,-2.947905063629150391e-01,-4.422225058078765869e-02,1.632187142968177795e-02,9.086607396602630615e-02,4.288520291447639465e-02,-9.812933951616287231e-02,5.722516775131225586e-02,-1.919320523738861084e-01,-3.163957223296165466e-02,-1.793094873428344727e-01,9.579181205481290817e-04,-1.347269583493471146e-02,1.226997468620538712e-02
-3.336478769779205322e-02,-2.746793627738952637e-02,-6.660140305757522583e-02,4.288025200366973877e-02,-1.748442649841308594e-01,2.519610524177551270e-02,8.307655155658721924e-02,-5.977577716112136841e-02,-1.416939496994018555e-01,-1.404448449611663818e-01,1.343660801649093628e-01,-4.217445850372314453e-02,6.947356462478637695e-02,7.987104356288909912e-02,1.046949177980422974e-01,7.636873424053192139e-02,7.129447162151336670e-02,1.586036384105682373e-02,-1.196416616439819336e-01,1.451570391654968262e-01,1.734792441129684448e-01,-9.314841032028198242e-02,-6.526397168636322021e-02,9.954456984996795654e-02,1.152152866125106812e-01,-7.546527683734893799e-02,-3.342166543006896973e-03,-1.435364484786987305e-01,-1.194190084934234619e-01,-1.412396132946014404e-02,8.463500440120697021e-02,-1.685201227664947510e-01,-1.482380479574203491e-01,1.150479465723037720e-01,-1.531440317630767822e-01,-1.012992337346076965e-01,1.207731813192367554e-01,2.607317268848419189e-02,1.917690038681030273e-02,1.254022866487503052e-01,1.459697037935256958e-01,-1.284774988889694214e-01,5.700770020484924316e-02,-1.331020295619964600e-01,4.741095006465911865e-02,8.072592318058013916e-02,-6.407184898853302002e-02,6.115777790546417236e-02,1.530489772558212280e-01,1.532107740640640259e-01,8.284024894237518311e-02,-1.348491758108139038e-01,9.693332016468048096e-02,1.669665127992630005e-01,1.264335960149765015e-01,7.520742714405059814e-02,-1.598069071769714355e-02,1.525827199220657349e-01,-1.646140813827514648e-01,-1.610752195119857788e-01,3.895363211631774902e-02,1.742167621850967407e-01,-1.186537891626358032e-01,-8.736561238765716553e-02,2.082142233848571777e-02,1.228280216455459595e-01,5.284909158945083618e-02,-9.806209802627563477e-02,1.493697315454483032e-01,-7.209464907646179199e-03,-1.261480003595352173e-01,6.649040617048740387e-03,1.048510819673538208e-01,-1.337349414825439453e-01,-1.477526426315307617e-01,-1.165231317281723022e-01,4.313008487224578857e-02,-1.332428306341171265e-01,-1.374853849411010742e-01,5.067223310470581055e-02,-4.359434545040130615e-02,1.957383751869201660e-02,5.702300369739532471e-02,-7.709585875272750854e-02,1.556353718042373657e-01,6.549987196922302246e-02,-9.199405461549758911e-02,-1.505523771047592163e-01,-1.642796695232391357e-01,6.109863519668579102e-03,-1.206701993942260742e-02,7.156354188919067383e-02,9.080111980438232422e-03,-1.200706362724304199e-01,1.564048230648040771e-02,5.788902938365936279e-02,-1.127857267856597900e-01,-1.507306098937988281e-01,1.180477887392044067e-01,-1.020062863826751709e-01,-9.092754870653152466e-02,1.719236522912979126e-01,1.667350381612777710e-01,7.714621722698211670e-02,9.620860219001770020e-03,-1.240914016962051392e-01,-1.657560020685195923e-01,1.500406414270401001e-01,9.594097733497619629e-03,-1.150507777929306030e-01,9.859286248683929443e-02,-3.484132885932922363e-02,1.337124258279800415e-01,5.552746355533599854e-02,7.518579065799713135e-02,1.111748814582824707e-02,-1.568865478038787842e-01,-1.641561090946197510e-02,-1.125264391303062439e-01,1.399896591901779175e-01,-1.975478231906890869e-02,4.287379980087280273e-02,-1.031045913696289062e-01,1.304201632738113403e-01,1.255060583353042603e-01,2.682950161397457123e-02,-4.172095656394958496e-02,2.767950296401977539e-03
5.025902390480041504e-02,-1.303102076053619385e-01,-1.022391095757484436e-01,1.348315626382827759e-01,-1.511950343847274780e-01,-9.557805210351943970e-02,-1.144149899482727051e-01,-1.081955507397651672e-01,1.658381074666976929e-01,-1.566114872694015503e-01,-1.730552166700363159e-01,1.685584336519241333e-01,-7.289263606071472168e-02,-4.648704826831817627e-02,-1.597348302602767944e-01,6.730084121227264404e-02,8.359093964099884033e-02,1.023226827383041382e-01,-5.463659763336181641e-03,-1.191773340106010437e-01,-1.541942358016967773e-03,-4.912678897380828857e-02,1.992824673652648926e-02,1.150117069482803345e-01,-5.073949694633483887e-02,-8.112804591655731201e-02,-1.564682275056838989e-01,-1.496396809816360474e-01,4.373818635940551758e-02,1.146294325590133667e-01,-1.659578084945678711e-01,2.816534042358398438e-02,-5.902405083179473877e-02,3.787425160408020020e-02,1.398515850305557251e-01,-9.755785763263702393e-02,1.711902171373367310e-01,1.606127619743347168e-02,-1.302022784948348999e-01,-4.491737484931945801e-02,-1.732231229543685913e-01,6.206671893596649170e-02,-1.145332604646682739e-01,-3.825277090072631836e-02,-1.128766313195228577e-01,1.246048659086227417e-01,1.253107935190200806e-01,1.110794097185134888e-01,4.523140192031860352e-02,-1.403786838054656982e-01,-8.032519370317459106e-02,2.505056560039520264e-02,4.615391790866851807e-02,-3.034645318984985352e-02,1.408613771200180054e-01,-1.425861120223999023e-01,-2.525101602077484131e-02,1.077680438756942749e-01,9.412907063961029053e-02,-2.412320673465728760e-02,-9.192400425672531128e-02,-8.128879219293594360e-02,-1.177595108747482300e-01,-1.160047724843025208e-01,-9.431567043066024780e-02,-1.606019586324691772e-01,-1.575130522251129150e-01,-1.047445833683013916e-02,5.556413531303405762e-02,6.936338543891906738e-02,1.361845284700393677e-01,-8.341333270072937012e-02,2.912722527980804443e-02,5.403226613998413086e-02,1.268758922815322876e-01,1.342844218015670776e-01,1.195712834596633911e-01,2.195386588573455811e-02,1.084511429071426392e-01,4.066993296146392822e-02,1.615637093782424927e-01,9.714467823505401611e-02,-3.674429655075073242e-02,8.764927089214324951e-02,1.507575362920761108e-01,-8.311135321855545044e-02,8.934579789638519287e-02,5.343680083751678467e-02,1.168575733900070190e-01,1.360115557909011841e-01,-1.245034337043762207e-01,1.316144019365310669e-01,-1.447842419147491455e-01,5.386577546596527100e-02,-1.222167983651161194e-01,1.760527640581130981e-01,5.668966472148895264e-02,2.463947236537933350e-02,5.138050019741058350e-02,1.111834794282913208e-01,-4.641252756118774414e-02,1.215301901102066040e-01,9.639547765254974365e-02,-1.428753137588500977e-02,-1.286557018756866455e-01,-7.551071047782897949e-02,1.051792353391647339e-01,7.548286020755767822e-02,1.200384348630905151e-01,1.085152477025985718e-01,-1.427333354949951172e-01,-2.088157832622528076e-02,1.397514343261718750e-02,-1.518650352954864502e-01,-1.022690311074256897e-01,-1.568964868783950806e-01,6.736381351947784424e-02,1.164595931768417358e-01,3.900900483131408691e-03,9.118320047855377197e-02,5.831745266914367676e-02,-3.482973575592041016e-02,6.790606677532196045e-02,3.579443693161010742e-02,1.157403737306594849e-01,-1.817956566810607910e-03,-1.267791539430618286e-01,-1.557724773883819580e-01
3.142816945910453796e-02,9.848812222480773926e-02,-1.761321723461151123e-01,-1.582494676113128662e-01,-2.114481478929519653e-01,-8.549911528825759888e-02,-1.779140681028366089e-01,6.693315505981445312e-02,2.465266175568103790e-02,1.626898348331451416e-02,-6.116863805800676346e-04,-8.289544284343719482e-02,-8.773174881935119629e-02,1.481425315141677856e-01,-7.407639641314744949e-03,-7.283966243267059326e-02,1.094753220677375793e-01,-5.749263986945152283e-02,1.718272119760513306e-01,-2.541484236717224121e-01,5.001682415604591370e-02,-1.060520932078361511e-01,-7.409165799617767334e-02,1.131431013345718384e-01,-5.076170712709426880e-02,-1.966980993747711182e-01,-6.669402122497558594e-03,7.367843389511108398e-02,9.313007444143295288e-02,-1.185208484530448914e-01,-9.269242733716964722e-02,-2.983478605747222900e-01,-1.042690649628639221e-01,-1.138371154665946960e-01,-4.455304518342018127e-02,-9.072449058294296265e-03,6.082474440336227417e-02,-1.319983601570129395e-01,-9.225020557641983032e-02,-2.455561310052871704e-01,-2.115535922348499298e-02,3.633141890168190002e-02,-1.209276318550109863e-01,3.294934332370758057e-02,-9.561180323362350464e-02,-1.351648420095443726e-01,-1.877379864454269409e-01,-2.187746018171310425e-01,6.698706746101379395e-02,-9.785339236259460449e-02,1.929085142910480499e-02,-9.668617695569992065e-02,-6.367647647857666016e-02,-1.144578233361244202e-01,6.208860874176025391e-02,1.091186553239822388e-01,-4.356189444661140442e-02,-1.361098736524581909e-01,1.326029151678085327e-01,1.018276065587997437e-01,-6.063190288841724396e-03,-1.646785587072372437e-01,-1.698002666234970093e-01,1.425626128911972046e-01,1.023195683956146240e-01,2.884248830378055573e-02,-6.552837323397397995e-03,-2.205163240432739258e-03,-5.460801720619201660e-02,-1.940350383520126343e-01,-9.325932711362838745e-02,-1.003906130790710449e-01,4.698382318019866943e-02,1.347904354333877563e-01,-5.843197554349899292e-02,-2.058979123830795288e-01,-1.066858842968940735e-01,-8.993472903966903687e-02,-9.317634254693984985e-02,4.641342163085937500e-02,-2.885051444172859192e-02,-4.907344467937946320e-03,-1.323194503784179688e-01,1.569798588752746582e-02,-1.691966652870178223e-01,7.259983569383621216e-03,1.384903192520141602e-01,1.211806386709213257e-02,-1.216163411736488342e-01,8.720303326845169067e-02,4.457718227058649063e-03,1.091994121670722961e-01,1.320026367902755737e-01,-6.400214135646820068e-02,-8.854368329048156738e-02,-1.329154372215270996e-01,1.189671605825424194e-01,1.810722202062606812e-01,-1.737699359655380249e-01,3.743063658475875854e-02,1.276418268680572510e-01,1.347873173654079437e-02,-1.198962405323982239e-01,7.438077032566070557e-02,-5.061380192637443542e-02,1.522981673479080200e-01,1.395000964403152466e-01,-1.354880183935165405e-01,8.584279567003250122e-02,-1.405591368675231934e-01,-7.415758073329925537e-02,-1.534169763326644897e-01,-1.666401512920856476e-02,-1.137084141373634338e-01,2.963662892580032349e-02,-4.039745032787322998e-02,8.244520425796508789e-02,8.329153805971145630e-02,3.409570083022117615e-02,1.241957470774650574e-01,-2.016445845365524292e-01,-3.918796032667160034e-02,1.991049051284790039e-01,5.095618311315774918e-03,1.095966845750808716e-01,-1.892096251249313354e-01,-1.121012419462203979e-01,1.198044121265411377e-01
-2.234560064971446991e-02,-5.956029146909713745e-02,-1.813226491212844849e-01,-1.537703722715377808e-01,-2.715022265911102295e-01,-8.160604536533355713e-02,-2.614189088344573975e-01,-1.626280695199966431e-01,-2.215321213006973267e-01,-9.551665931940078735e-02,-6.171196699142456055e-02,3.158371523022651672e-02,-1.899233162403106689e-01,4.861387237906455994e-02,6.303350627422332764e-02,-2.677162289619445801e-01,-5.582625418901443481e-02,-9.227437525987625122e-02,7.357838563621044159e-03,-3.095698654651641846e-01,-2.040730714797973633e-01,-5.704596638679504395e-02,8.844686299562454224e-02,-1.588028073310852051e-01,3.943485394120216370e-02,-1.374790221452713013e-01,-7.660543918609619141e-02,1.123427897691726685e-01,1.313290297985076904e-01,-1.691885590553283691e-01,-6.275586783885955811e-02,-1.200114339590072632e-01,-1.059343665838241577e-01,3.164625167846679688e-02,-8.665144443511962891e-02,-2.430890500545501709e-01,-1.973673403263092041e-01,-5.807755887508392334e-02,-6.371505558490753174e-02,1.084125787019729614e-01,5.220719799399375916e-02,-2.887745797634124756e-01,-2.170610129833221436e-01,-5.493050441145896912e-02,1.356947124004364014e-01,-6.419165432453155518e-02,1.747702956199645996e-01,-7.269407063722610474e-02,-1.522925347089767456e-01,-3.873462602496147156e-02,-3.663095086812973022e-02,-7.176364772021770477e-03,1.165650859475135803e-01,-1.804720163345336914e-01,-2.678415477275848389e-01,-8.337810635566711426e-02,-1.467756778001785278e-01,-4.773501679301261902e-02,7.033154368400573730e-02,1.078317612409591675e-01,-6.145075708627700806e-02,-2.686403505504131317e-02,-1.712470948696136475e-01,-1.049455069005489349e-02,4.352839291095733643e-02,7.608261704444885254e-02,-3.930449485778808594e-01,-6.740380823612213135e-02,-1.969647556543350220e-01,-2.579729072749614716e-02,2.763560228049755096e-02,-1.116863489151000977e-01,-7.057212293148040771e-02,1.228795945644378662e-02,9.889061329886317253e-04,2.838415652513504028e-02,9.440036863088607788e-02,-9.347815066576004028e-02,-6.226642802357673645e-02,1.465517282485961914e-02,-4.646385088562965393e-02,-3.866373747587203979e-02,7.342853397130966187e-02,5.352896824479103088e-02,8.642447739839553833e-02,1.227732971310615540e-01,5.441162735223770142e-02,-1.871628463268280029e-01,-2.451252639293670654e-01,-8.060145378112792969e-02,6.151809915900230408e-02,4.337532073259353638e-02,1.503790169954299927e-01,-4.787786304950714111e-02,-8.917289972305297852e-02,7.323621213436126709e-02,-4.145235195755958557e-02,-1.146307811141014099e-01,-1.832828223705291748e-01,1.430961638689041138e-01,-8.878464996814727783e-02,-3.663861379027366638e-02,-5.498079583048820496e-02,6.492519378662109375e-02,1.045933216810226440e-01,-1.949444264173507690e-01,1.537648290395736694e-01,1.098394095897674561e-01,-3.751252219080924988e-02,-1.269374787807464600e-01,-1.592216938734054565e-01,-9.888129681348800659e-02,1.153960600495338440e-01,-1.567093878984451294e-01,-1.624086685478687286e-02,1.083796694874763489e-01,1.450934913009405136e-02,-9.147966280579566956e-03,8.449857681989669800e-02,-1.125759556889533997e-01,1.164677962660789490e-01,-1.325673907995223999e-01,-9.865305572748184204e-02,-1.134993582963943481e-01,-1.796180307865142822e-01,1.235964987426996231e-02,-1.760522276163101196e-02,3.252305835485458374e-02
2.541425824165344238e-02,1.630049198865890503e-01,4.820376634597778320e-02,-9.211977571249008179e-02,-5.744914710521697998e-02,7.594107091426849365e-02,-1.392481625080108643e-01,1.081408560276031494e-02,1.281692832708358765e-01,1.546678394079208374e-01,1.371570974588394165e-01,1.219677478075027466e-01,-1.295964419841766357e-02,1.105370670557022095e-01,-2.354073524475097656e-02,-1.379568725824356079e-01,-1.309281736612319946e-01,3.119055926799774170e-02,-4.169419407844543457e-02,1.291083544492721558e-01,6.401896476745605469e-03,-7.469888031482696533e-02,-3.738531470298767090e-02,1.715817898511886597e-01,-5.295140296220779419e-02,1.277958601713180542e-01,-7.651503384113311768e-02,-4.412308335304260254e-03,-1.508949697017669678e-02,-1.648758500814437866e-01,1.630276441574096680e-03,-8.564711362123489380e-02,3.266148269176483154e-02,-7.582694292068481445e-02,9.954650700092315674e-02,8.774463832378387451e-02,-2.041161060333251953e-04,-1.474269330501556396e-01,1.046460717916488647e-01,6.795200705528259277e-02,-3.017216920852661133e-02,-1.171882972121238708e-01,-7.324106246232986450e-02,1.587288230657577515e-01,-5.627658218145370483e-02,1.056257039308547974e-01,-1.667366772890090942e-01,8.544577658176422119e-02,1.088988929986953735e-01,-1.690660566091537476e-01,7.041865587234497070e-02,7.845972478389739990e-02,-7.265834510326385498e-02,-1.007385104894638062e-01,8.708001673221588135e-02,1.692955046892166138e-01,1.412157863378524780e-01,1.328180879354476929e-01,1.501246839761734009e-01,1.514493972063064575e-01,-1.498666852712631226e-01,-1.114525347948074341e-01,3.446237742900848389e-02,1.226318925619125366e-01,-2.523179352283477783e-02,7.506664097309112549e-02,1.617590934038162231e-01,1.390298455953598022e-01,1.220196038484573364e-01,-7.068835943937301636e-02,5.043797194957733154e-02,6.474860012531280518e-02,4.120376706123352051e-02,-1.932814717292785645e-03,6.809115409851074219e-03,-9.245488792657852173e-02,9.663937985897064209e-02,-7.857871055603027344e-02,-8.331805467605590820e-03,6.734795868396759033e-02,1.370830386877059937e-01,-1.251644641160964966e-01,1.561345905065536499e-01,-1.488581150770187378e-01,-1.427772939205169678e-01,6.567633152008056641e-02,5.724692344665527344e-02,-1.638200730085372925e-01,2.096661925315856934e-02,-5.768963694572448730e-02,3.846266865730285645e-02,-3.515662252902984619e-02,2.598050236701965332e-02,1.148198097944259644e-01,-6.855265051126480103e-02,1.613621413707733154e-02,5.287465453147888184e-02,5.579623579978942871e-02,1.857271790504455566e-02,-1.517727822065353394e-01,9.338207542896270752e-02,3.477653861045837402e-02,-1.524202823638916016e-01,-1.176857948303222656e-02,1.212371736764907837e-01,4.632769525051116943e-02,-1.688486337661743164e-02,-9.069512784481048584e-02,9.942071139812469482e-02,-1.644546389579772949e-01,-3.987914323806762695e-02,1.581868529319763184e-02,5.817091464996337891e-02,2.575454115867614746e-02,-7.758006453514099121e-03,9.148015081882476807e-02,-1.330734491348266602e-01,1.284513622522354126e-01,-9.064101427793502808e-02,2.550019323825836182e-02,-1.578694581985473633e-02,-5.940260738134384155e-02,6.392386555671691895e-02,1.145251244306564331e-01,1.364298015832901001e-01,1.560694128274917603e-01,-8.528874069452285767e-02,-9.681232273578643799e-02
4.547744523733854294e-03,8.885931223630905151e-02,-1.705854684114456177e-01,-1.308076083660125732e-01,-8.408882468938827515e-02,-1.198485642671585083e-01,-6.774547696113586426e-02,-9.303658269345760345e-03,1.344999391585588455e-02,-5.710835009813308716e-02,4.016579315066337585e-02,1.018628012388944626e-02,5.712879821658134460e-02,-7.569950819015502930e-02,-2.479250915348529816e-02,-1.879191100597381592e-01,-3.494521975517272949e-02,-2.010138332843780518e-01,-9.611448645591735840e-02,-3.733599558472633362e-02,-5.092788860201835632e-02,-3.110783547163009644e-02,-1.562460660934448242e-01,1.700633391737937927e-02,8.852501213550567627e-02,-3.788903728127479553e-02,-1.600319147109985352e-01,-8.442723751068115234e-02,1.458360254764556885e-01,-1.122035235166549683e-01,3.434522775933146477e-03,-1.732368171215057373e-01,-1.845315843820571899e-01,-4.277099668979644775e-02,-1.037846580147743225e-01,-7.950979471206665039e-02,8.227957785129547119e-02,-1.044410243630409241e-01,-1.911745071411132812e-01,-7.496874034404754639e-02,9.957631677389144897e-02,2.960487641394138336e-02,6.699086725711822510e-02,-3.966237604618072510e-02,-5.503408610820770264e-02,-6.621986627578735352e-03,-9.719003736972808838e-02,-2.028471976518630981e-01,1.168467551469802856e-01,-1.452702749520540237e-02,-3.354322537779808044e-02,2.398944273591041565e-02,-3.873966634273529053e-02,-2.199889421463012695e-01,-1.525777131319046021e-01,-1.221315935254096985e-01,9.321258962154388428e-02,-1.037374213337898254e-01,-1.528741568326950073e-01,-8.523906022310256958e-02,-1.161698251962661743e-02,7.247235625982284546e-02,7.975959032773971558e-02,1.223864406347274780e-01,-1.549952179193496704e-01,2.962673828005790710e-02,3.176770731806755066e-02,-8.576453477144241333e-02,-1.583253443241119385e-01,5.686880275607109070e-02,8.624677360057830811e-02,3.245657682418823242e-02,6.417926400899887085e-02,-1.180103421211242676e-02,1.001813076436519623e-02,-4.500683769583702087e-02,3.987826406955718994e-02,1.071179956197738647e-01,1.138611212372779846e-01,1.472315341234207153e-01,1.087242513895034790e-01,-1.621474027633666992e-01,3.568447381258010864e-02,-5.173682421445846558e-02,1.232536882162094116e-01,-1.381136178970336914e-01,8.591859601438045502e-03,4.193122498691082001e-03,-6.116334348917007446e-03,1.060908734798431396e-01,-3.708496689796447754e-02,-1.064369678497314453e-01,-1.732213944196701050e-01,6.430095434188842773e-02,4.042326286435127258e-02,4.543552920222282410e-02,9.166886657476425171e-02,-6.246323138475418091e-02,-1.046549007296562195e-01,-3.691376373171806335e-02,-1.137452349066734314e-01,7.604354619979858398e-02,1.167543828487396240e-01,-1.652980297803878784e-01,-9.031027555465698242e-02,8.269283175468444824e-02,7.862714119255542755e-03,9.097406268119812012e-02,3.933341056108474731e-02,-4.814242571592330933e-02,-1.664187908172607422e-01,3.497103229165077209e-02,1.187217235565185547e-02,-1.203712821006774902e-01,4.413523524999618530e-02,5.207856744527816772e-02,-1.510759294033050537e-01,-1.589174419641494751e-01,-4.884453117847442627e-02,4.987987875938415527e-02,-7.679856568574905396e-02,1.580639481544494629e-01,1.299152821302413940e-01,-1.400635694153606892e-03,3.548741340637207031e-02,4.191873222589492798e-02,-4.770620539784431458e-02,-1.722662895917892456e-01
-3.299040719866752625e-02,-8.067220449447631836e-02,-1.439592689275741577e-01,-3.198560560122132301e-03,1.975982189178466797e-01,1.512009948492050171e-01,-1.915043145418167114e-01,-5.381706729531288147e-02,3.057719767093658447e-02,1.660395711660385132e-01,1.686063408851623535e-02,-1.202255263924598694e-01,-2.444790750741958618e-01,-1.614853441715240479e-01,7.969763129949569702e-02,5.393891409039497375e-02,7.711859047412872314e-02,-5.251318216323852539e-02,-1.169248074293136597e-01,-2.613740563392639160e-01,1.945753246545791626e-01,-6.318843364715576172e-02,-1.187655050307512283e-02,-5.955081805586814880e-02,-2.084258198738098145e-02,-1.332494169473648071e-01,-1.142750978469848633e-01,1.175563037395477295e-01,2.521729469299316406e-02,-6.265650689601898193e-02,2.189276665449142456e-01,-1.684323251247406006e-01,1.398436538875102997e-02,-7.223270088434219360e-02,2.763451337814331055e-01,6.063031777739524841e-02,1.155216395854949951e-01,1.436426490545272827e-01,2.259809374809265137e-01,9.789121896028518677e-02,-2.375040501356124878e-01,-1.138799190521240234e-01,1.676733046770095825e-02,-4.817200824618339539e-02,1.248398348689079285e-01,-7.659105956554412842e-02,-8.341471105813980103e-02,2.594564855098724365e-02,-1.324819624423980713e-01,-1.040603220462799072e-01,7.236626744270324707e-02,2.533019520342350006e-02,-2.410411648452281952e-02,2.048431634902954102e-01,3.296119719743728638e-02,5.343136191368103027e-02,1.056234836578369141e-01,1.479324847459793091e-01,4.871802404522895813e-02,1.049443036317825317e-01,-2.415477633476257324e-01,-7.220604270696640015e-02,-9.265155345201492310e-02,5.074687302112579346e-02,-4.677156358957290649e-02,1.369153708219528198e-01,-1.914272308349609375e-01,4.098418354988098145e-02,4.807063937187194824e-02,-2.361503094434738159e-01,1.179584860801696777e-02,-4.262581467628479004e-01,1.137639731168746948e-01,-7.320713251829147339e-02,-2.737257070839405060e-02,-1.102176085114479065e-01,-3.675566613674163818e-01,-4.585206136107444763e-02,1.801806539297103882e-01,3.800255432724952698e-02,1.505167633295059204e-01,9.469509124755859375e-02,-3.449290990829467773e-02,-1.980982273817062378e-01,3.173004835844039917e-02,-1.056065931916236877e-01,-8.079022914171218872e-02,1.971163600683212280e-01,-3.037441372871398926e-01,-2.088201493024826050e-01,-1.376994252204895020e-01,-1.919663697481155396e-01,5.006558075547218323e-02,6.068616360425949097e-02,-1.427006572484970093e-01,-1.115654334425926208e-01,-9.762689471244812012e-02,1.196611225605010986e-01,-3.487265706062316895e-01,-1.044917330145835876e-01,-3.128105103969573975e-01,-1.240895837545394897e-01,-1.714773774147033691e-01,-1.569454818964004517e-01,-6.709463894367218018e-02,-2.029619812965393066e-01,1.522360593080520630e-01,-3.340066671371459961e-01,-6.645692884922027588e-02,-7.817897200584411621e-02,-1.089906319975852966e-01,1.848606318235397339e-01,-1.077872514724731445e-01,8.843856304883956909e-02,-4.152704030275344849e-03,-6.991097331047058105e-02,-2.151951789855957031e-01,1.121715456247329712e-01,4.321807622909545898e-02,2.071181684732437134e-01,6.906226277351379395e-03,-2.564646899700164795e-01,1.808679252862930298e-01,-1.600489951670169830e-02,-8.081721514463424683e-02,-4.220902323722839355e-01,-1.635086238384246826e-01,-2.755724489688873291e-01
-1.030163764953613281e-01,-2.233265936374664307e-01,-1.667094826698303223e-01,-9.093216061592102051e-02,4.398340359330177307e-02,-1.104273572564125061e-01,-1.612613201141357422e-01,-5.104102566838264465e-02,-5.148888751864433289e-02,-1.231157481670379639e-01,2.951387874782085419e-02,1.202515438199043274e-01,4.446727409958839417e-02,-8.651228249073028564e-02,-8.859127759933471680e-02,1.612932980060577393e-02,-2.062256680801510811e-03,4.983972758054733276e-02,-6.538758426904678345e-02,-1.997003555297851562e-01,-1.445109844207763672e-01,-1.301608681678771973e-01,1.116713732481002808e-01,-1.055726781487464905e-02,6.595499813556671143e-02,-1.477766633033752441e-01,-1.508950740098953247e-01,-1.542603224515914917e-01,1.174497045576572418e-02,-1.054856181144714355e-01,-1.868693679571151733e-01,3.505806438624858856e-03,9.143965691328048706e-02,5.806465446949005127e-02,-5.203381180763244629e-02,-3.610498458147048950e-02,2.787175774574279785e-02,1.422162801027297974e-01,-1.679399758577346802e-01,-1.472808867692947388e-01,-4.548180475831031799e-02,-2.863595485687255859e-01,-2.418427765369415283e-01,-1.139605268836021423e-01,-1.505116652697324753e-02,4.854549467563629150e-02,-1.360695511102676392e-01,2.687145210802555084e-02,1.588639467954635620e-01,1.432399600744247437e-01,9.035463631153106689e-02,-3.948626667261123657e-02,4.209468513727188110e-02,-2.108519524335861206e-01,2.178232371807098389e-02,2.592054381966590881e-02,1.255387812852859497e-01,-1.076608449220657349e-01,-1.745279133319854736e-01,7.857111282646656036e-03,-1.869800314307212830e-02,-1.407663971185684204e-01,1.180429160594940186e-01,-7.463251054286956787e-02,9.258699417114257812e-02,-2.755379071459174156e-03,1.371211092919111252e-02,1.244284659624099731e-01,7.742170244455337524e-02,-1.167507991194725037e-01,8.946976810693740845e-02,2.269652031827718019e-04,1.203052327036857605e-01,2.460895478725433350e-02,-1.289138644933700562e-01,7.062854617834091187e-02,-1.637151539325714111e-01,-1.858606934547424316e-01,-1.787831932306289673e-01,1.267582327127456665e-01,-6.362679600715637207e-02,-1.950359642505645752e-01,-1.545349508523941040e-01,-6.063883379101753235e-02,6.265053898096084595e-02,-9.679983556270599365e-02,-1.103836111724376678e-02,9.640610963106155396e-02,-2.039997428655624390e-01,-5.357106029987335205e-02,1.284851878881454468e-02,6.088816747069358826e-02,-3.636598587036132812e-03,1.621401458978652954e-01,-1.712161488831043243e-02,5.704900249838829041e-02,-8.000719547271728516e-02,-2.195814996957778931e-01,-2.273608446121215820e-01,4.492507874965667725e-02,-7.567387074232101440e-02,-3.703643381595611572e-02,-3.056069612503051758e-01,-2.508445642888545990e-02,-1.537356376647949219e-01,-1.348197013139724731e-01,1.375029515475034714e-02,-1.326602250337600708e-01,7.500286400318145752e-02,1.008999422192573547e-01,-1.672803461551666260e-01,-1.046918034553527832e-01,8.007256686687469482e-02,7.721965014934539795e-02,-1.652833074331283569e-01,7.095010578632354736e-02,-6.443483382463455200e-02,-2.074275314807891846e-01,-4.380395170301198959e-03,3.895691037178039551e-02,1.291567385196685791e-01,7.294166833162307739e-02,-4.802480340003967285e-02,-1.554085463285446167e-01,-1.411123126745223999e-01,-8.959508687257766724e-02,6.999944150447845459e-02,-1.442335546016693115e-01
3.522656857967376709e-02,-7.081689685583114624e-02,1.389091163873672485e-01,7.440368086099624634e-02,-1.207887008786201477e-01,1.180590838193893433e-01,9.931667149066925049e-02,-2.465987205505371094e-02,-1.310995072126388550e-01,1.964719034731388092e-02,-1.660654544830322266e-01,3.545178845524787903e-02,5.923375487327575684e-02,-1.497164275497198105e-02,1.213052868843078613e-01,-1.615641862154006958e-01,1.667559333145618439e-02,1.957765407860279083e-02,-7.588272541761398315e-02,2.605399787425994873e-01,-3.710225820541381836e-01,-3.341546654701232910e-01,-6.216805428266525269e-02,-4.496898502111434937e-02,7.436434924602508545e-02,1.318882405757904053e-01,-1.725573688745498657e-01,1.107968669384717941e-02,-1.158984228968620300e-01,-2.959158271551132202e-02,-1.557108908891677856e-01,-8.307344913482666016e-01,-6.017335504293441772e-02,-4.510251060128211975e-02,-1.101055368781089783e-01,-2.374311983585357666e-01,-2.423530071973800659e-01,-1.742271929979324341e-01,-9.386425465345382690e-02,3.566312491893768311e-01,-1.720255911350250244e-01,1.704731024801731110e-02,-1.460471898317337036e-01,-9.776483476161956787e-02,-1.116101257503032684e-02,-1.221013963222503662e-01,1.256563365459442139e-01,-2.849601507186889648e-01,1.540538668632507324e-02,-2.750635445117950439e-01,1.233469247817993164e-01,1.169281676411628723e-01,5.386476218700408936e-02,-4.583660662174224854e-01,-4.730880632996559143e-02,-2.968636900186538696e-02,9.555009193718433380e-03,-1.368825435638427734e-01,1.751383244991302490e-01,1.249163895845413208e-01,-5.352355912327766418e-02,2.095391275361180305e-03,-2.895811572670936584e-02,1.418266594409942627e-01,-1.692592166364192963e-03,-1.128371208906173706e-01,2.624995708465576172e-01,5.732338130474090576e-02,-5.825414508581161499e-02,-3.058340959250926971e-02,4.506225138902664185e-02,3.569579422473907471e-01,-5.727105587720870972e-02,3.079804778099060059e-02,3.543106466531753540e-02,4.347044229507446289e-02,-9.685134291648864746e-01,4.498225748538970947e-01,-1.516702175140380859e-01,-3.211466968059539795e-02,-4.141364991664886475e-02,8.735761977732181549e-03,1.044438779354095459e-01,-2.553477510809898376e-02,1.282884925603866577e-01,-1.845582202076911926e-02,8.240935951471328735e-02,6.680530495941638947e-03,3.277553021907806396e-01,-1.540463119745254517e-01,-1.755163371562957764e-01,-1.008420139551162720e-01,-1.320545822381973267e-01,-5.798071622848510742e-02,7.536399643868207932e-03,-1.788693070411682129e-01,1.230403259396553040e-01,4.342312365770339966e-02,3.530379235744476318e-01,1.032063290476799011e-01,2.673073410987854004e-01,7.704088091850280762e-02,-7.145659923553466797e-01,1.641092472709715366e-03,-1.119906604290008545e-01,1.347451806068420410e-01,1.483736187219619751e-01,-4.943702518939971924e-01,5.011836811900138855e-02,5.262945592403411865e-02,-1.184706985950469971e-01,-1.939297765493392944e-01,-1.900532245635986328e-01,-1.162148714065551758e-01,-4.459533393383026123e-01,-5.174571871757507324e-01,-1.226721554994583130e-01,-1.532453596591949463e-01,-1.456052660942077637e-01,-1.280793696641921997e-01,5.996990203857421875e-02,-6.482576578855514526e-02,-1.141945868730545044e-01,1.957707852125167847e-02,-1.293602287769317627e-01,3.350664377212524414e-01,1.284776031970977783e-01,4.076866433024406433e-03
3.983320295810699463e-02,9.036786854267120361e-02,4.484514892101287842e-02,-1.255823075771331787e-01,3.644523769617080688e-02,-1.477701812982559204e-01,-1.235423702746629715e-02,-2.639513462781906128e-02,-6.187483295798301697e-02,-8.426363021135330200e-02,2.137936502695083618e-01,2.461788989603519440e-02,-1.106553003191947937e-01,6.045093759894371033e-02,7.861650735139846802e-02,1.199026703834533691e-01,-5.602567270398139954e-02,-2.126570194959640503e-01,6.786128878593444824e-02,-1.431245654821395874e-01,7.699935138225555420e-02,4.098857939243316650e-02,5.201108008623123169e-02,-1.351371109485626221e-01,2.560739815235137939e-01,4.626871272921562195e-02,-1.104135289788246155e-01,5.702139064669609070e-02,1.063966751098632812e-02,-1.275732070207595825e-01,-1.685238629579544067e-01,-7.848254404962062836e-03,-5.116374045610427856e-02,3.670953214168548584e-02,1.323082000017166138e-01,-1.713143736124038696e-01,-1.050975248217582703e-01,8.546949923038482666e-02,-2.088343724608421326e-02,-1.304894536733627319e-01,-1.395167410373687744e-01,-5.526139959692955017e-02,7.168308645486831665e-02,-1.992647647857666016e-01,-2.556274831295013428e-02,1.783166639506816864e-02,5.968389660120010376e-02,-7.743839174509048462e-02,-6.979939341545104980e-02,8.034273982048034668e-02,-1.784355789422988892e-01,-5.788956210017204285e-02,5.524621810764074326e-03,-1.116932481527328491e-01,-2.621252462267875671e-02,-2.294364944100379944e-02,4.600758478045463562e-02,-5.665530264377593994e-02,-1.390459835529327393e-01,3.300882875919342041e-02,9.831950068473815918e-02,-5.885035544633865356e-02,-1.148324683308601379e-01,-4.420276731252670288e-02,-8.190765045583248138e-03,1.105302274227142334e-01,-2.563712596893310547e-01,8.454973995685577393e-02,-2.152006328105926514e-01,1.285119950771331787e-01,4.894046112895011902e-02,-3.218388259410858154e-01,3.281227499246597290e-02,-1.207725554704666138e-01,-1.235976964235305786e-01,-2.555898129940032959e-01,-5.208550393581390381e-02,-5.719849467277526855e-02,1.347572654485702515e-01,-1.006234884262084961e-01,7.563048601150512695e-02,1.171328201889991760e-01,1.752646453678607941e-02,-5.700037628412246704e-02,6.507100164890289307e-02,-1.502519249916076660e-01,-4.593871906399726868e-02,6.898201256990432739e-02,-1.870388239622116089e-01,-1.512007713317871094e-01,2.180619835853576660e-01,-5.140538513660430908e-02,-1.617773175239562988e-01,2.394002489745616913e-02,-1.633895635604858398e-01,1.373644173145294189e-02,2.397418022155761719e-02,3.271222114562988281e-02,-4.155396223068237305e-01,-1.213414520025253296e-01,-2.174077183008193970e-01,1.011100634932518005e-01,-1.059700772166252136e-01,-9.589383006095886230e-02,7.649105042219161987e-02,5.457232892513275146e-02,-2.623187936842441559e-02,6.857021898031234741e-02,3.744300082325935364e-02,6.448517739772796631e-02,-1.978111118078231812e-01,1.386065334081649780e-01,-4.509137943387031555e-02,-9.199419617652893066e-02,-4.026407748460769653e-02,1.010013669729232788e-01,-1.120738014578819275e-01,-9.141059219837188721e-02,3.513852879405021667e-02,-4.509121924638748169e-02,-1.378877758979797363e-01,-1.126062422990798950e-01,-1.052072495222091675e-01,4.983589053153991699e-02,-6.053454801440238953e-02,-1.941120326519012451e-01,-1.568140983581542969e-01,-5.176859721541404724e-02
1.015492156147956848e-01,-1.819840371608734131e-01,-1.486361622810363770e-01,7.350961118936538696e-02,-1.349053829908370972e-01,4.175063967704772949e-02,3.369422629475593567e-02,3.748815506696701050e-02,3.010624833405017853e-02,-3.623436391353607178e-02,-7.286739349365234375e-02,6.625570822507143021e-03,-2.577100098133087158e-01,1.415335386991500854e-01,6.542510539293289185e-02,-1.252326834946870804e-02,-5.180566757917404175e-02,-2.243569940328598022e-01,-1.787350177764892578e-01,-1.217700690031051636e-01,6.090882048010826111e-02,-5.636674165725708008e-02,1.054297834634780884e-01,-1.868059784173965454e-01,6.425829976797103882e-02,-1.826899200677871704e-01,-1.158688962459564209e-02,-1.497343480587005615e-01,-4.763265326619148254e-02,4.017382860183715820e-02,-1.578996032476425171e-01,3.666619956493377686e-02,-5.492907762527465820e-02,-7.389539480209350586e-02,-2.690629959106445312e-01,-9.565472602844238281e-02,1.342849582433700562e-01,1.339709311723709106e-01,-2.656710147857666016e-01,1.334446668624877930e-02,-3.478122502565383911e-02,-1.019648388028144836e-01,-3.975690156221389771e-02,3.939135372638702393e-02,1.092903167009353638e-01,1.350491791963577271e-01,-8.246016502380371094e-02,-2.233718037605285645e-01,5.469451844692230225e-02,-4.486386105418205261e-02,6.082343682646751404e-02,-5.943298712372779846e-02,-1.320202648639678955e-01,-9.360978752374649048e-02,-2.938663363456726074e-01,1.362653672695159912e-01,-1.139926025643944740e-03,-6.804485619068145752e-02,-1.702609658241271973e-01,-2.879863604903221130e-02,-1.214373856782913208e-01,-7.570731639862060547e-02,-7.635005563497543335e-02,-7.836043089628219604e-02,1.017833650112152100e-01,-2.131890654563903809e-01,-1.312534064054489136e-01,1.296067684888839722e-01,7.017469964921474457e-03,1.034396588802337646e-01,-1.052078977227210999e-01,6.101420521736145020e-02,1.403787545859813690e-02,-7.942699640989303589e-02,-1.080119982361793518e-01,9.061677008867263794e-02,7.734358310699462891e-03,1.575546264648437500e-01,2.607601508498191833e-02,5.221028625965118408e-02,-1.171126216650009155e-01,6.823812425136566162e-02,-1.947499997913837433e-02,-7.306063920259475708e-02,1.249196454882621765e-01,-8.232419379055500031e-03,-2.179167866706848145e-01,9.225919842720031738e-02,-2.019454091787338257e-01,8.843540400266647339e-02,1.410619318485260010e-01,-1.984454989433288574e-01,4.124434664845466614e-03,1.024483218789100647e-01,9.210854023694992065e-02,-1.021331995725631714e-01,2.564439177513122559e-02,-4.211664199829101562e-02,-1.017476320266723633e-01,7.808922231197357178e-02,2.725676260888576508e-02,-1.275074183940887451e-01,-1.552229672670364380e-01,-8.184210211038589478e-02,5.227743461728096008e-02,1.740420758724212646e-01,1.234894692897796631e-01,-2.192457169294357300e-01,9.946083277463912964e-02,-8.509971201419830322e-02,-9.518425166606903076e-02,8.586090803146362305e-02,1.605864018201828003e-01,-2.984994277358055115e-02,-1.396966278553009033e-01,-2.455888539552688599e-01,-7.840084284543991089e-02,4.288167506456375122e-02,7.278554886579513550e-02,-1.588480733335018158e-02,-1.974698454141616821e-01,8.360854536294937134e-02,-1.159651353955268860e-01,1.417518109083175659e-01,-1.020063832402229309e-01,-1.094071492552757263e-01,-1.412088274955749512e-01,-3.150930628180503845e-02
-1.906824111938476562e-02,-7.751934975385665894e-02,-3.677202761173248291e-02,-9.853393584489822388e-02,-6.053990125656127930e-02,-4.024358093738555908e-02,5.070935189723968506e-02,1.203443259000778198e-01,2.085675299167633057e-02,-1.208760589361190796e-01,5.609497427940368652e-03,-1.600455343723297119e-01,2.044163644313812256e-02,-1.339958608150482178e-02,1.427088528871536255e-01,-1.791793107986450195e-02,1.300684958696365356e-01,-3.910316526889801025e-02,-7.609996944665908813e-02,1.249852776527404785e-02,5.190388858318328857e-02,-7.026498764753341675e-02,-1.057333350181579590e-01,-1.604034453630447388e-01,1.608087122440338135e-02,-1.009709909558296204e-01,-5.779479444026947021e-02,-1.024137213826179504e-01,1.493501514196395874e-01,9.826259315013885498e-02,-1.567549109458923340e-01,-1.575003713369369507e-01,-3.528074920177459717e-02,-7.049396634101867676e-03,-5.364674329757690430e-02,3.430546820163726807e-02,-5.536890029907226562e-02,1.363003700971603394e-01,9.629194438457489014e-02,1.152483671903610229e-01,1.565031260251998901e-01,-1.489965319633483887e-01,-3.964842855930328369e-02,3.376501798629760742e-02,-1.199913620948791504e-01,7.196828722953796387e-03,2.202960848808288574e-02,-8.890894055366516113e-02,-1.061256751418113708e-01,8.604718744754791260e-02,8.360324800014495850e-02,6.220175325870513916e-02,1.309431642293930054e-01,6.069491803646087646e-02,5.254168808460235596e-02,-1.691236644983291626e-01,8.604109287261962891e-03,-7.924053817987442017e-02,-1.174452677369117737e-01,-5.090546607971191406e-02,-7.171602547168731689e-02,-8.139213919639587402e-02,-1.459638029336929321e-01,-1.479524970054626465e-01,4.885751008987426758e-02,-8.738027513027191162e-02,1.538292616605758667e-01,-1.219642534852027893e-01,-9.322246164083480835e-02,1.706433296203613281e-02,-8.934116363525390625e-02,-6.105135381221771240e-02,-1.279736757278442383e-01,1.114108413457870483e-01,9.945423901081085205e-02,9.560717642307281494e-02,1.528363972902297974e-01,-1.173531338572502136e-01,1.023121923208236694e-01,-1.481787860393524170e-01,7.733993232250213623e-02,1.403498798608779907e-01,-1.187443137168884277e-01,-7.225154340267181396e-02,4.695904254913330078e-02,9.600208699703216553e-02,7.580907642841339111e-02,-1.098753958940505981e-01,1.745342165231704712e-01,-1.469055712223052979e-01,6.838360428810119629e-02,-1.577805578708648682e-01,-4.982723295688629150e-02,1.221816092729568481e-01,9.007279574871063232e-02,1.232085973024368286e-01,-1.344340741634368896e-01,1.639195829629898071e-01,1.089640706777572632e-01,9.692780673503875732e-02,1.010061800479888916e-02,-8.706021308898925781e-02,1.381778866052627563e-01,-1.115136891603469849e-01,-1.404896527528762817e-01,-1.716295927762985229e-01,1.043927818536758423e-01,1.172936111688613892e-01,-7.683054357767105103e-02,-2.153396606445312500e-02,1.150427013635635376e-01,9.068146347999572754e-03,-7.252499461174011230e-03,-8.009608089923858643e-02,-3.205533325672149658e-02,1.438104957342147827e-01,1.425937861204147339e-01,-4.525303840637207031e-03,-1.879727840423583984e-02,3.240734338760375977e-02,3.615537285804748535e-02,1.667223423719406128e-01,9.560208022594451904e-02,-2.880446612834930420e-02,1.476104557514190674e-02,5.523273348808288574e-02,1.565459817647933960e-01,-6.948868930339813232e-02
6.283634901046752930e-02,6.940121203660964966e-02,-3.850469589233398438e-01,-3.414759635925292969e-01,-1.566423624753952026e-01,-7.368095219135284424e-02,1.069786306470632553e-02,-1.704867780208587646e-01,2.523423545062541962e-02,-5.784881860017776489e-02,4.134786501526832581e-02,3.421126678586006165e-02,-1.291577517986297607e-01,-1.300833374261856079e-01,1.508479416370391846e-01,-3.304002285003662109e-01,-1.125433892011642456e-01,1.085946336388587952e-01,-6.181166507303714752e-03,-8.143475651741027832e-02,-5.756023526191711426e-02,-2.480720281600952148e-01,1.264306604862213135e-01,-1.249698475003242493e-01,-5.173648893833160400e-02,3.736898303031921387e-02,-1.167595386505126953e-01,-1.670082211494445801e-01,6.709539145231246948e-02,8.282683789730072021e-02,-1.123695541173219681e-02,2.808296680450439453e-02,-7.725773751735687256e-02,-1.524865627288818359e-03,-4.226249158382415771e-01,-3.316853195428848267e-02,-3.645024076104164124e-02,-1.389249414205551147e-01,-1.601453572511672974e-01,-1.086573749780654907e-01,7.829732447862625122e-02,1.708603091537952423e-02,1.103456243872642517e-01,-1.511053293943405151e-01,-1.064293086528778076e-01,-2.065198868513107300e-01,1.187372133135795593e-01,5.419277399778366089e-02,-1.083465665578842163e-01,-1.072085555642843246e-02,-8.902326971292495728e-02,-1.479731798171997070e-01,2.859176695346832275e-02,-4.686368405818939209e-01,-8.788257837295532227e-02,-7.485362235456705093e-03,-1.628146916627883911e-01,-2.595512010157108307e-02,-7.949084043502807617e-02,-9.412275254726409912e-02,1.174756512045860291e-01,-2.177134901285171509e-01,5.657583475112915039e-02,-5.546112731099128723e-02,-1.175679862499237061e-01,-1.150876134634017944e-01,-2.384507060050964355e-01,1.588881462812423706e-01,-1.591481417417526245e-01,7.738079875707626343e-02,-2.592147886753082275e-02,-1.679774820804595947e-01,4.747563228011131287e-02,4.462900757789611816e-02,3.407235490158200264e-03,-1.205894513987004757e-03,8.745042234659194946e-02,-2.874611020088195801e-01,-1.252584755420684814e-01,-2.013005167245864868e-01,-1.960140019655227661e-01,-1.865656822919845581e-01,-9.294043481349945068e-02,-1.921708136796951294e-01,9.653043001890182495e-02,-2.630649134516716003e-02,-1.123263780027627945e-02,-2.676317691802978516e-01,-2.156850099563598633e-01,-2.738394774496555328e-02,-1.302073895931243896e-01,2.087914757430553436e-02,-3.114735148847103119e-02,-1.332816034555435181e-01,2.841662429273128510e-02,-1.447131633758544922e-01,1.639577001333236694e-01,-1.228879615664482117e-01,-8.015222102403640747e-02,8.142169564962387085e-02,-2.778196930885314941e-01,-4.041996896266937256e-01,1.725766435265541077e-02,-6.153722852468490601e-02,4.696635901927947998e-02,-5.982555076479911804e-02,-8.680970221757888794e-02,-3.230462595820426941e-02,-5.578411743044853210e-02,9.419868141412734985e-02,8.917075395584106445e-02,-7.340531796216964722e-02,-1.343425661325454712e-01,-7.149954763008281589e-05,-1.220475733280181885e-01,-3.087583929300308228e-02,-6.025018543004989624e-02,-1.705273240804672241e-01,6.024115253239870071e-03,-1.978879719972610474e-01,2.763580158352851868e-02,5.647538974881172180e-02,-1.032523885369300842e-01,-1.762625128030776978e-01,-1.028361320495605469e-01,-2.533030807971954346e-01,-1.503391712903976440e-01,5.380871146917343140e-02
2.166272699832916260e-02,1.357928365468978882e-01,-7.316397875547409058e-02,1.744265407323837280e-01,1.527212411165237427e-01,6.921751797199249268e-02,9.503960609436035156e-05,-6.202667206525802612e-02,7.766021788120269775e-02,-1.579084694385528564e-01,1.284203976392745972e-01,7.084339857101440430e-03,-1.015102639794349670e-01,1.726708859205245972e-01,1.474018543958663940e-01,-5.600325763225555420e-02,4.301090538501739502e-02,-8.432897180318832397e-02,3.435671329498291016e-02,-1.061776056885719299e-01,4.635128378868103027e-02,-1.243807822465896606e-01,1.310972720384597778e-01,9.753279387950897217e-02,-1.663391143083572388e-01,-9.578107297420501709e-02,1.758891195058822632e-01,1.220737844705581665e-01,1.440384238958358765e-01,3.998711705207824707e-02,1.504806131124496460e-01,1.403375118970870972e-01,-2.452874183654785156e-02,-1.629944145679473877e-01,-3.030699491500854492e-02,3.993195295333862305e-02,-6.750660389661788940e-02,-4.053816199302673340e-03,9.725503623485565186e-02,1.497548818588256836e-02,1.180432587862014771e-01,1.423273831605911255e-01,-5.027967691421508789e-02,1.548310369253158569e-01,-5.699821561574935913e-02,1.319776624441146851e-01,-1.618707478046417236e-01,-1.480598151683807373e-01,7.069236040115356445e-02,1.134248077869415283e-02,6.329153478145599365e-02,5.599103868007659912e-02,-6.962910294532775879e-03,9.444375336170196533e-02,1.168249100446701050e-01,1.289785951375961304e-01,4.994514584541320801e-02,-3.800857067108154297e-02,-1.620012223720550537e-01,2.916696667671203613e-02,-2.937188744544982910e-02,1.403082460165023804e-01,7.394446432590484619e-02,1.053504794836044312e-01,1.002176105976104736e-02,7.699523866176605225e-02,5.859132111072540283e-02,7.859353721141815186e-02,1.386557072401046753e-01,3.823158144950866699e-02,2.593129873275756836e-03,1.726596504449844360e-01,-1.626376956701278687e-01,-2.749538421630859375e-02,1.563861817121505737e-01,1.101053804159164429e-01,-1.696614623069763184e-01,-8.281851559877395630e-02,1.171548813581466675e-01,-1.532228291034698486e-02,-6.760278344154357910e-02,8.328233659267425537e-02,-1.363893896341323853e-01,1.526501923799514771e-01,-9.912088513374328613e-03,-4.130050539970397949e-03,3.980588912963867188e-02,9.159745275974273682e-02,-1.763129532337188721e-01,-1.206843405961990356e-01,-1.352271139621734619e-01,-5.882974714040756226e-02,9.919492900371551514e-02,6.006583571434020996e-02,2.478238940238952637e-02,-7.904771715402603149e-02,-1.343043148517608643e-02,-1.321433037519454956e-01,1.048160046339035034e-01,7.648603618144989014e-02,-3.506690263748168945e-04,6.887048482894897461e-02,-1.176275536417961121e-01,7.888759672641754150e-02,6.214186549186706543e-02,2.894528210163116455e-02,-8.030492067337036133e-02,-2.223744988441467285e-03,4.880347847938537598e-02,-1.471662521362304688e-01,1.610497683286666870e-01,-6.582296639680862427e-02,1.388115137815475464e-01,8.035828173160552979e-02,-1.059824228286743164e-01,-1.704367548227310181e-01,2.471524477005004883e-02,3.411534428596496582e-02,1.725712269544601440e-01,6.334599852561950684e-02,1.751128584146499634e-01,1.291705518960952759e-01,1.957544684410095215e-02,7.752592861652374268e-02,-4.700864851474761963e-02,-1.159206479787826538e-01,3.379145264625549316e-02,-6.307086348533630371e-02
-2.741281688213348389e-02,-1.232460215687751770e-01,2.126346528530120850e-02,-1.169647127389907837e-01,1.624837964773178101e-01,-1.481519043445587158e-01,3.175170719623565674e-02,1.426641196012496948e-01,-1.629839241504669189e-01,1.623833328485488892e-01,1.290187984704971313e-01,-1.128900796175003052e-01,-6.296216696500778198e-02,-7.163143157958984375e-02,8.913172781467437744e-02,1.045331209897994995e-01,-5.336330085992813110e-02,1.374354213476181030e-01,-2.231574058532714844e-02,5.977347493171691895e-03,-1.662247627973556519e-01,1.025184988975524902e-03,2.548362314701080322e-02,3.491744399070739746e-03,4.699209332466125488e-02,-1.687387377023696899e-01,1.455037742853164673e-01,8.263222873210906982e-02,1.043616682291030884e-01,7.185085117816925049e-02,1.095799058675765991e-01,9.343896806240081787e-02,-8.074700832366943359e-03,-1.247394084930419922e-01,7.680624723434448242e-03,-2.808316051959991455e-02,8.821456134319305420e-02,1.078449338674545288e-01,5.441263318061828613e-02,1.400144547224044800e-01,1.215325295925140381e-02,4.270486533641815186e-02,4.597377777099609375e-02,-2.981847524642944336e-02,-6.395804882049560547e-02,7.070158421993255615e-02,-5.246721953153610229e-02,5.380614101886749268e-02,-1.079058796167373657e-01,4.010668396949768066e-02,3.818154335021972656e-02,-7.213352620601654053e-02,5.279615521430969238e-03,4.940499365329742432e-02,-1.190487891435623169e-01,9.437294304370880127e-02,-1.718159615993499756e-01,9.534619748592376709e-02,1.036853343248367310e-01,-1.556838750839233398e-01,8.381386101245880127e-02,4.326672852039337158e-02,-1.676786988973617554e-01,-4.910790920257568359e-02,-1.007683947682380676e-01,3.117188811302185059e-02,4.479590058326721191e-02,-1.591308563947677612e-01,-3.767043352127075195e-02,1.089942902326583862e-01,-1.333511918783187866e-01,-4.202799499034881592e-02,7.122766971588134766e-02,-1.602294594049453735e-01,6.307536363601684570e-02,1.886720955371856689e-02,2.622431516647338867e-02,3.897887468338012695e-02,2.959804236888885498e-02,3.798581659793853760e-02,-7.245949655771255493e-02,8.019973337650299072e-02,-1.001843810081481934e-02,1.037958413362503052e-01,1.135705858469009399e-01,1.409335285425186157e-01,-1.577071845531463623e-01,1.355385333299636841e-01,3.749549388885498047e-03,-1.228989064693450928e-01,-4.152551293373107910e-02,4.631711542606353760e-02,-6.699367612600326538e-02,-7.218608260154724121e-02,-2.301454544067382812e-02,-1.449690163135528564e-01,-1.347741484642028809e-01,1.049133986234664917e-01,6.666235625743865967e-02,-4.988138377666473389e-02,9.494470059871673584e-02,1.003390699625015259e-01,1.398981958627700806e-01,-1.195129081606864929e-01,-1.018366888165473938e-01,1.562037616968154907e-01,-1.672251671552658081e-01,1.440297216176986694e-01,1.705062836408615112e-01,-5.281754583120346069e-02,-8.991599828004837036e-02,-7.993596792221069336e-02,-1.091412827372550964e-01,-8.541539311408996582e-02,8.661435544490814209e-02,-8.993089199066162109e-03,1.531811207532882690e-01,1.607141941785812378e-01,9.901513159275054932e-02,1.448803097009658813e-01,-1.052433326840400696e-01,1.506873816251754761e-01,1.208075881004333496e-02,-1.145832017064094543e-01,-1.114171296358108521e-01,1.382707059383392334e-02,-8.834885805845260620e-02,-1.694000214338302612e-01
-1.684078872203826904e-01,-4.544976353645324707e-02,4.030764102935791016e-02,-6.267906725406646729e-02,-5.109833180904388428e-02,1.116577535867691040e-01,-8.588954061269760132e-02,1.575872302055358887e-03,7.601812481880187988e-03,-9.622631222009658813e-02,1.183770447969436646e-01,-4.928424954414367676e-02,8.623902499675750732e-02,2.832867205142974854e-02,1.691487878561019897e-01,2.041189372539520264e-02,1.262289732694625854e-01,-1.111966222524642944e-01,1.047968417406082153e-01,-3.542438149452209473e-02,-1.013396903872489929e-01,-1.663895547389984131e-01,7.422946393489837646e-02,-1.629413962364196777e-01,3.834241628646850586e-02,-7.152290642261505127e-02,-1.664871722459793091e-01,5.771441757678985596e-02,3.251296281814575195e-02,3.339198231697082520e-02,2.183379232883453369e-02,-1.487628668546676636e-01,-8.383568376302719116e-02,1.715397685766220093e-01,-1.702070236206054688e-02,-1.192200332880020142e-01,3.514009714126586914e-02,1.022225767374038696e-01,-9.266704320907592773e-03,-1.586312949657440186e-01,-6.345363706350326538e-02,-1.239068806171417236e-01,7.534451782703399658e-02,-9.691216796636581421e-02,-2.959425747394561768e-02,6.928563117980957031e-02,-5.726172029972076416e-02,-1.469166278839111328e-01,-1.624065190553665161e-01,3.128534555435180664e-02,-2.508386969566345215e-02,4.764641821384429932e-02,-5.683911591768264771e-02,-5.076946318149566650e-02,-3.891721367835998535e-02,-4.022970795631408691e-02,1.075715571641921997e-01,-8.444715291261672974e-02,-1.357379704713821411e-01,1.105841547250747681e-01,3.597949445247650146e-02,5.242520570755004883e-02,-2.412325143814086914e-02,3.063523769378662109e-02,-7.406221330165863037e-02,-4.540349543094635010e-02,3.950323164463043213e-02,1.351851224899291992e-02,1.187164634466171265e-01,9.125067293643951416e-02,-1.585686206817626953e-01,1.217618584632873535e-02,-1.117139309644699097e-01,1.640650480985641479e-01,-1.895289123058319092e-02,3.796479105949401855e-02,5.518160760402679443e-02,-8.179110288619995117e-02,5.696853995323181152e-02,-1.288701444864273071e-01,1.046650111675262451e-02,9.567098319530487061e-02,7.568292319774627686e-02,-1.260627359151840210e-01,6.754019856452941895e-02,6.083117425441741943e-02,-1.140389144420623779e-01,2.436491847038269043e-02,-2.316378057003021240e-02,1.631578952074050903e-01,-1.565740704536437988e-01,1.720453351736068726e-01,-1.522234976291656494e-01,3.394342958927154541e-02,-1.303376108407974243e-01,1.237921267747879028e-01,-1.215663403272628784e-01,1.283389776945114136e-01,1.589180529117584229e-02,-1.197110861539840698e-01,-1.621610522270202637e-01,-1.743324100971221924e-02,-1.328611522912979126e-01,5.262683331966400146e-02,6.165038049221038818e-02,-1.105144619941711426e-02,-3.089465200901031494e-02,-1.642172336578369141e-01,-1.061159819364547729e-01,-1.755290627479553223e-01,-1.510826647281646729e-01,1.065153628587722778e-01,1.471263021230697632e-01,3.187318146228790283e-02,8.268864452838897705e-02,4.568432271480560303e-02,-3.947806358337402344e-02,-4.722230136394500732e-02,-3.271447122097015381e-02,-8.911268413066864014e-02,-3.768703341484069824e-02,-6.093566119670867920e-02,8.599238097667694092e-02,1.735881119966506958e-01,9.296561777591705322e-02,7.886032760143280029e-02,4.156038165092468262e-02,-8.563851565122604370e-02
1.256647799164056778e-02,-2.226706743240356445e-01,2.922731079161167145e-02,-1.444679051637649536e-01,-1.899569295346736908e-03,7.174041122198104858e-02,-2.570009604096412659e-02,-2.378477305173873901e-01,-1.969643533229827881e-01,1.486454606056213379e-01,-1.888312846422195435e-01,3.657198697328567505e-02,2.421144209802150726e-02,-9.652530401945114136e-02,-3.897184506058692932e-02,-2.511921525001525879e-01,-2.257238030433654785e-01,-1.168780103325843811e-01,-1.623877584934234619e-01,9.933473169803619385e-02,-2.285338044166564941e-01,-1.526112705469131470e-01,-1.278108358383178711e-01,-2.621908485889434814e-01,-1.036894023418426514e-01,-2.325909957289695740e-02,1.039142906665802002e-02,-7.154874503612518311e-02,-1.230642870068550110e-01,-4.085817337036132812e-01,1.736740954220294952e-02,6.664887815713882446e-02,6.175676733255386353e-02,-3.494416177272796631e-02,-1.034127995371818542e-01,-1.692031137645244598e-02,2.457951754331588745e-02,-1.241635233163833618e-01,-9.862923622131347656e-02,3.872159123420715332e-02,-7.999116927385330200e-02,-2.306213080883026123e-01,9.997397661209106445e-02,-1.391801536083221436e-01,-4.271900281310081482e-02,-6.071039289236068726e-02,-7.465508580207824707e-02,-7.169324904680252075e-02,-7.128321379423141479e-02,-1.656302809715270996e-01,-1.095636636018753052e-01,3.011352755129337311e-02,-1.731936931610107422e-01,-1.042799726128578186e-01,-1.629130691289901733e-01,-1.276809871196746826e-01,1.044472157955169678e-01,1.081349775195121765e-01,-2.581612169742584229e-01,-1.950885206460952759e-01,9.259095042943954468e-02,-5.793444439768791199e-02,-8.145613223314285278e-02,-5.290612112730741501e-03,-4.632059112191200256e-02,-1.582229733467102051e-01,6.417029350996017456e-02,-1.497426927089691162e-01,-6.768353283405303955e-02,1.687568961642682552e-03,7.929481565952301025e-02,-4.183963313698768616e-02,-5.686513707041740417e-02,8.781574666500091553e-02,1.045428290963172913e-01,7.183785084635019302e-03,3.553422167897224426e-02,5.993619561195373535e-03,1.582922339439392090e-01,-9.786980599164962769e-02,3.795456141233444214e-02,6.427149474620819092e-02,2.322458475828170776e-02,-3.455258905887603760e-02,9.790116548538208008e-02,3.893017768859863281e-02,-4.568104445934295654e-02,-1.185197904706001282e-01,-1.082837805151939392e-01,-1.432155221700668335e-01,-1.406378746032714844e-01,-3.520165756344795227e-02,-2.044542878866195679e-01,-7.994037121534347534e-02,-1.506090313196182251e-01,8.355671912431716919e-02,-1.128933280706405640e-01,-2.732105553150177002e-01,-1.031188219785690308e-01,3.835176676511764526e-02,9.696317836642265320e-03,-5.640686303377151489e-02,-2.180707827210426331e-02,1.235664039850234985e-01,-3.745303675532341003e-02,-4.986941441893577576e-02,-1.809774935245513916e-01,-1.815465651452541351e-02,-1.507788896560668945e-01,-5.786055698990821838e-02,-1.758253574371337891e-01,-9.525141119956970215e-02,-3.830038243904709816e-03,1.509817689657211304e-01,-7.700060307979583740e-02,-1.334672868251800537e-01,-4.424248263239860535e-02,-1.959046125411987305e-01,1.468962058424949646e-02,-6.412177532911300659e-02,1.230151206254959106e-01,-1.474540680646896362e-01,-7.229834794998168945e-02,-1.869665682315826416e-01,-3.687959164381027222e-02,-1.685617417097091675e-01,1.118443980813026428e-01,6.508387625217437744e-02
-5.286852642893791199e-02,1.335061341524124146e-01,-5.200459808111190796e-02,-1.891458630561828613e-01,6.699749827384948730e-02,-8.243547379970550537e-02,-8.822312951087951660e-02,2.759315632283687592e-02,1.064607799053192139e-01,-1.055564284324645996e-01,1.277350336313247681e-01,-9.669874608516693115e-02,1.076294779777526855e-01,-1.647041141986846924e-01,-8.287771791219711304e-02,1.820773072540760040e-02,1.562130898237228394e-01,1.008350402116775513e-01,-7.414113730192184448e-02,-2.781538665294647217e-02,-1.038344018161296844e-02,4.627123847603797913e-02,-6.089363247156143188e-02,6.727641820907592773e-02,3.684512972831726074e-01,5.370355769991874695e-02,-1.322807073593139648e-01,1.665602624416351318e-01,-1.333849430084228516e-01,7.618311047554016113e-02,4.879265651106834412e-02,-4.076214134693145752e-01,-2.577375806868076324e-02,2.902096509933471680e-02,2.233583033084869385e-01,8.240327239036560059e-02,4.275095835328102112e-02,-3.565198183059692383e-02,7.276097685098648071e-02,-4.052854180335998535e-01,-6.805863976478576660e-02,5.006870720535516739e-03,6.374884396791458130e-02,1.366826295852661133e-01,-9.245640784502029419e-02,-2.989298896864056587e-03,-1.963626146316528320e-01,7.517913728952407837e-02,-1.974627375602722168e-03,1.262493878602981567e-01,-1.759753674268722534e-01,-1.027957275509834290e-01,1.319255828857421875e-01,2.743599005043506622e-02,9.033696353435516357e-02,-1.923720538616180420e-02,-1.122337281703948975e-01,1.291975229978561401e-01,-1.671236753463745117e-02,6.235366314649581909e-02,1.189399585127830505e-01,-4.776271432638168335e-02,1.844248175621032715e-01,6.194527819752693176e-02,-1.436188351362943649e-02,1.088420897722244263e-01,7.038371264934539795e-02,-5.884399265050888062e-02,2.889002673327922821e-02,-3.496979549527168274e-02,-1.437169732525944710e-03,-2.984941899776458740e-01,-1.452354043722152710e-01,2.385844290256500244e-02,-1.303355842828750610e-01,-2.900471091270446777e-01,-3.358853757381439209e-01,2.112848013639450073e-01,-5.352389439940452576e-02,-1.729005724191665649e-01,4.679560288786888123e-02,1.744705140590667725e-01,-2.123779207468032837e-01,-7.738916575908660889e-02,5.186500027775764465e-03,1.327865570783615112e-01,-8.230061084032058716e-02,1.225893869996070862e-01,-1.106654852628707886e-01,1.696824841201305389e-02,2.972176074981689453e-01,-2.163207381963729858e-01,4.244390502572059631e-02,-1.092441901564598083e-01,-2.119391411542892456e-02,-7.179191708564758301e-02,-1.681149005889892578e-03,6.305514276027679443e-02,-1.635346710681915283e-01,1.248246282339096069e-01,3.357668220996856689e-02,-1.357555538415908813e-01,-1.665488779544830322e-01,8.155908435583114624e-02,-1.128011047840118408e-01,-4.940187931060791016e-02,1.397550851106643677e-01,5.295709520578384399e-02,2.294116169214248657e-01,2.550431340932846069e-02,-1.494852155447006226e-01,-1.111250817775726318e-01,-1.689924895763397217e-01,-5.598210170865058899e-02,-1.073036491870880127e-01,9.689059853553771973e-02,1.019505634903907776e-01,1.018968373537063599e-01,-1.479911357164382935e-01,-1.680580824613571167e-01,1.198813617229461670e-01,-1.864368468523025513e-01,-3.508023917675018311e-02,-4.456577822566032410e-02,1.220339834690093994e-01,1.067945361137390137e-02,7.172558456659317017e-02,-1.658156514167785645e-01
